
#ifndef __ML_WEIGHTS_H
#define __ML_WEIGHTS_H

#include <linux/blkdev.h>

// #ifndef __ML_WEIGHTS_VAR
// #define __ML_WEIGHTS_VAR

#ifdef DIS_RW

#define LEN_INPUT 60
#define LEN_LAYER_0 256
#define LEN_LAYER_1 2

#else

// #define LEN_INPUT 40
#define FEAT_31

#define LEN_INPUT 31
#define LEN_LAYER_0 256
#define LEN_LAYER_0_HALF 128
#define LEN_LAYER_1 2

// long test_input[4][LEN_INPUT] = {
// {0,0,0,9,0,0,1,6,0,0,3,2,0,0,4,8,0,0,4,8,0,0,2,7,3,0,0,3,0,0,0,0,4,2,9,0,0,5,5,8},
// {0,0,1,6,0,0,3,2,0,0,4,8,0,0,4,8,0,0,6,0,0,0,3,0,0,0,0,4,2,9,0,0,5,5,8,0,0,6,8,9},
// {0,0,3,2,0,0,4,8,0,0,4,8,0,0,6,0,0,0,1,6,0,0,4,2,9,0,0,5,5,8,0,0,6,8,9,0,0,7,8,9},
// {0,0,4,8,0,0,4,8,0,0,6,0,0,0,1,6,0,0,3,2,0,0,5,5,8,0,0,6,8,9,0,0,7,8,9,0,0,3,1,1},
// };

// long weight_i_0[LEN_INPUT][LEN_LAYER_0] = {
// -109,-73,-5,-112,53,99,82,113,-130,89,102,80,-45,-141,-136,-20,65,-51,-61,-23,-8,-90,-61,-63,-15,-73,3,114,40,-101,138,2,105,137,12,58,109,68,99,110,-97,-133,-83,89,-44,-67,108,-16,-59,70,-7,-45,-130,-25,-135,89,102,-98,56,-67,-5,46,-51,-12,-18,21,-38,-135,12,59,-10,-50,-115,-46,-51,123,18,-136,31,6,23,-45,-96,126,-120,70,136,-62,58,0,59,-114,50,-71,126,-82,112,-98,-92,-140
// ,-82,36,105,-15,90,112,47,79,79,-81,118,-50,-49,97,56,-37,127,-64,82,100,-122,-98,-73,-44,35,133,62,134,81,92,-14,81,75,92,141,118,38,110,72,-117,8,107,-4,-41,-34,-54,-59,-11,108,-61,130,46,-70,16,89,-126,111,-19,7,7,97,-101,-119,-44,-81,-52,19,39,100,63,84,-113,54,-6,-51,-78,-10,51,-103,-93,-31,114,-58,-134,-35,78,81,-96,30,-107,-57,61,-31,-89,16,-52,84,-37,17,0
// ,-45,25,-40,75,44,106,82,-105,38,-51,77,-48,48,74,-111,-18,-106,-35,-125,-101,-29,-54,25,-130,-57,15,126,-72,-48,52,105,87,139,-89,-12,-109,138,130,-93,54,-50,112,-134,-22,54,-141,-74,-106,15,-113,-65,17,-49,-56,-117,-141,-45,-5129,199,-1724,76,-6,-71,-7561,235,-956,38,152,-80,215,737,-376,315,-211,321,-148,-2100,118,-187,600,-137,945,-121,161,-1083,-1009,252,160,186,-237,2337,260,-607,-247,120,544,-62,422,-2956,-138
// ,-78,475,90,-192,-35,277,-44,228,-119,288,-217,31,173,-80,-567,208,-2210,-139,127,-19,-126,-122,-490,-128,249,-6772,608,-190,654,106,216,-265,6,-37,-31,-113,64,35,-382,-2,-25,308,1107,-99,44,210,217,98,70,27,367,27,-2,187,62,20,-255,-9,184,-26,-131,3,76,176,1063,227,181,22,116,-50,120,555,-44,72,-706,-205,-346,147,-6,-420,253,-174,99,-107,38,-3177,4,115,173,-68,-1642,-42,332,-293,202,343,-83,-156,-479,3
// ,135,-168,-221,120,93,-168,176,420,697,-157,227,-52,-49,133,-416,103,-94,-78,1770,-69,-119,149,-110,95,-21,20,99,-563,55,-123,-69,633,-495,44,-321,-1305,329,-362,-14,131,33,204,65,-294,3,-2,-138,175,247,42,125,-95,-66,139,-3618,-473,-80,156,134,589,-86,35,126,-100,-119,70,260,-33,4506,-262,-41,-86,44,-514,76,-129,-15,269,623,-110,-213,83,162,-2834,244,240,-1132,353,155,-199,115,219,97,220,54,-25,442,191,-354,101
// ,-837,-312,-102,-85,771,483,427,301,-137,-121,-394,26,-443,-472,-95,-1468,-173,-3,37,-984,-74,-120,-27,-78,-25,-83,-249,-12,-98,-88,2,107,-166,-128,-127,34,-113,-145,-99,23,-752,-58,-31,96,-142,-37,240,45,-71,27,-71,-95,69,-122,-487,26,-304,-16,-8,-74,33,-284,-167,-276,-94,-78,-311,-80,-468,-2,-171,-53,-1855,-144,16,-87,-303,-115,-358,-50,-87,-496,69,-70,-89,4,92,-284,-72,-187,4,-316,-169,84,-145,-127,-52,-18,1,-277
// ,-155,-191,-167,-193,24,-68,-23,-175,-274,-31,-447,-106,22,-141,-226,-133,-85,-154,-171,-179,52,57,46,46,-69,-41,-21,-86,-57,-144,-429,-12,-121,-108,-14,-102,-235,-125,-214,-53,-5,-420,-5,12,61,-69,-261,-71,65,-99,-262,-106,19,-154,-368,-75,-173,19,72,-54,-56,38,-372,44,69,-137,-204,-273,41,-143,-143,166,29,-247,-102,22,-68,-4,-118,-195,-63,-216,-33,-6,-100,-33,-56,-1,-22,-51,-118,-681,-25,23,-4,-115,-82,-63,-224,13
// ,-48,-102,-1,38,-34,40,-71,-132,-82,-131,-298,-665,-119,-27,14,-136,-5,-139,-112,-1,-4,-216,-32,-76,198,-154,-117,-239,1,-13,-16,-481,55,15,-84,-75,-262,-36,-122,-403,-238,6,-91,-218,8,-152,-199,-283,-66,-127,-30,18,-121,-48,1,-109,-92,-283,39,-253,53,113,-85,38,-208,-137,-88,-11,-245,-10,-38,-702,-226,-69,-86,-123,-169,-17,-92,-218,-19,-68,171,-197,-47,-78,-483,-39,94,-111,-36,76,16,-270,-134,50,-123,25,9,-129
// ,-185,-125,-5,-131,-40,-104,-92,40,18,47,148,-88,-181,-491,-23,-248,-71,52,-101,-131,81,-118,-29,8,-462,-186,-419,31,171,-30,-37,-212,-91,-141,-65,-97,75,-89,-75,25,42,-187,-79,-65,-234,46,-224,-5,-47,-85,-66,57,-135,-221,-444,-364,0,63,-159,-80,-31,19,-197,-114,-90,-29,195,-61,12,-2,116,-40,-10,-73,10,60,125,-154,-13,-8,-47,-128,-338,-111,19,-218,-271,-62,-81,-174,-148,-174,-185,23,-243,-67,-107,-49,-25,-200
// ,-108,70,-75,-69,-82,-207,-117,89,-116,-75,-58,-200,-102,-72,48,-10,-29,-19,-151,-189,4,-116,-167,-27,-57,-83,-29,-2,-176,-101,-47,18,-69,-131,-154,-336,-51,-95,-50,84,-96,-223,-127,-877,-3,-104,-140,-149,-83,-71,-53,-167,-87,-174,-70,-164,-154,-149,-196,-124,29,-118,-76,-139,-124,-12,-141,222,44,-178,-5,-120,-191,36,1,43,-106,-228,46,-178,120,-875,43,-217,-80,-204,-137,-133,48,98,-318,-127,-93,-145,-267,-41,-176,30,3,135
// ,-126,-133,-324,-192,-184,-232,2,-108,-83,-143,148,-119,-22,-14,-332,-214,37,26,-113,26,169,-46,-77,59,-27,91,106,100,-110,69,58,101,0,87,12,32,-130,-45,101,-110,-34,-89,127,103,-8,36,-25,59,32,80,141,-53,118,131,141,-103,71,-53,-35,119,-51,101,-8,-50,39,13,-9,69,-85,-134,-58,142,9,-129,-126,-94,-54,127,-106,-40,-89,60,-8,-86,25,48,-70,-17,-74,-55,-65,-125,133,-14,-105,-74,-139,136,-103,-37
// ,37,-2,-38,-89,-49,62,-1,-22,82,140,-35,67,6,97,-93,-41,-74,-40,56,16,43,-80,-14,-21,136,-129,-55,62,26,-88,75,48,-62,10,88,-57,-56,-59,97,-105,42,110,-22,104,132,11,118,-13,-89,64,60,119,-15,-31,31,80,89,-102,100,51,109,53,-11,127,-70,-44,23,-98,-69,-30,-19,94,-53,23,-70,1,-126,-22,31,136,50,67,111,72,-45,115,-2,43,-42,-10,-114,66,-98,-95,120,104,-140,-30,26,72
// ,93,-22,87,-74,-87,-16,-88,-116,-120,109,67,-135,119,-20,65,-7,-85,100,92,-24,-88,-134,-108,-91,-20,-106,91,96,-99,13,113,5,108,102,-22,-41,35,100,-85,-113,120,-140,-67,106,-138,-116,10,-76,-128,53,-7,-35,-4,-123,-103,89,-53,-6,48,-91,-32,-25,-137,-90,107,-41,84,-110,-79,-78,-35,-53,-32,44,-124,48,62,78,-13,10,95,-4750,20,-1288,0,-125,14,-6193,-41,-249,54,-104,-9,-252,650,-92,398,-29,493,49
// ,-523,45,-212,-574,-49,-26,-26,103,-789,-3933,174,269,97,53,7786,-281,-369,-101,13,76,71,46,-1725,-104,-249,238,-119,-296,41,2,150,-143,-26,115,-146,83,387,-103,-368,-50,-1461,-121,232,-222,-160,-136,-448,62,221,2021,76,-259,274,-120,-268,-275,42,-255,29,-147,197,-43,-191,284,70,231,-35,58,85,279,256,117,55,-135,-57,81,24,70,256,-49,-24,-85,234,27,15,-45,-99,34,-97,-80,-68,-69,86,99,-232,497,63,242,-359,-82
// ,-482,-127,76,-358,413,-100,32,1,-11,-7623,-160,180,744,98,-2148,-55,109,17,177,203,-208,-68,-418,12,1,55,-48,-92,27,-39,381,218,1182,-128,-7,-813,-17,71,-271,102,8,-62,1824,-872,21,37,-164,79,-44,-234,34,344,4,-78,47,400,-312,48,-98,541,357,-158,-3327,124,178,283,172,-352,-264,-134,62,-51,70,-196,-60,161,-99,290,-3650,-370,-223,51,11,358,-146,-159,200,-150,31,12,121,175,3053,-13,-7,18,77,-767,-40,-249
// ,-114,3,273,-24,-337,-148,-151,-3777,243,1379,-3823,186,77,-229,3,246,-142,255,-80,-73,317,99,-846,-99,625,-346,63,-3,-3775,-2287,213,-735,-119,-94,-271,45,15,-1826,-29,-880,-24,-90,-208,-766,25,-32,-253,125,36,-229,57,-186,-18,-21,83,37,106,-35,-137,57,9,162,33,9,-628,-429,-40,-38,-95,-45,819,70,-29,-49,-88,-95,-173,-131,-539,-215,-82,74,-96,-457,-110,-205,-59,-236,-149,21,-285,-61,-509,-99,-230,-157,-661,-118,-185,48
// ,25,8,-300,-23,-161,193,-113,37,64,24,-38,42,83,-292,-25,23,12,-32,-256,35,-41,83,211,-321,-34,-28,-199,17,68,0,109,-173,-416,-58,-465,-21,-111,31,-154,-42,31,23,-159,-132,-97,-12,76,-185,-119,7,348,54,50,-81,-179,47,-5,13,-52,40,-73,-164,60,-29,-129,-2251,15,63,-11,-42,-308,-125,-315,-35,-515,-240,-202,-26,-147,65,72,-51,-117,-177,-144,-166,-241,45,113,-57,-135,-165,-165,-80,44,93,7,-492,116,-127
// ,8,-66,-76,-32,-118,-106,-194,-82,66,-92,-127,101,-209,-72,-188,-3940,-13,-264,-577,19,-66,37,-197,98,84,-83,-167,-219,31,-40,-58,-115,-27,-58,-314,-1186,-79,82,-3,20,-61,-199,48,-168,79,-198,-2,103,232,-10,22,-206,-93,-759,-98,-215,4,-166,-14,-137,68,82,47,64,-307,102,-468,-366,-3,42,-258,-294,-123,24,27,-75,-95,-212,-435,-140,-750,-253,-83,-120,-374,771,-69,-51,152,-84,6,-66,-134,-196,-25,-283,-28,-22,-79,-49
// ,43,-6,-116,3,-3,-122,-416,-63,-122,-170,-148,-16,56,8,-198,-181,-113,-223,15,14,-214,-4,-209,-210,-19,-35,81,-156,-21,-186,40,-284,-255,-139,254,-115,-342,-220,-224,-94,-81,-168,-2,-136,11,-109,-327,29,-243,-81,-154,-261,-193,-29,-170,-152,-108,-131,-521,45,-416,-39,-948,-107,-185,-38,-13,-122,-141,-33,-36,-31,-41,162,-60,-302,99,-238,-466,-267,-3,-128,-121,50,27,30,63,-95,19,-144,6,34,-78,-148,-157,-39,10,-137,-139,-176
// ,16,-135,-219,-77,-45,-245,-33,-80,-126,-88,-177,-162,-35,-159,-104,-135,-111,-15,-56,-90,-61,-162,-36,-273,-68,-87,-396,-42,-253,-68,-46,-114,-98,-57,-43,47,-44,31,40,-146,-79,-108,-157,-161,3,-36,-149,20,-71,-179,-117,-117,-166,-312,-614,-4,-149,-178,9,-94,-127,-83,-126,-3,44,-161,-210,-56,-26,-251,-115,-610,-137,104,-234,-12,-9,-191,41,-60,-110,-26,-77,66,-119,-170,-110,-349,34,-2,-38,94,-156,-168,-118,-48,-125,-10,-131,-87
// ,-146,-132,-29,-58,366,-92,-84,-241,-47,309,-15,-134,39,-198,-57,-58,-10,-132,-215,23,67,19,6,180,-77,-25,-195,-112,-59,-69,-134,-97,-65,-84,-1167,-16,-75,-50,-441,-63,-37,171,-122,10,22,-45,-72,-173,120,46,90,45,-81,11,98,75,-137,139,35,109,116,-113,-31,-68,-1,-99,-65,125,-133,-89,-97,-29,87,-49,60,-106,-6,34,-114,-105,-139,-84,-32,-96,-131,-72,21,-8,119,-102,20,-90,-40,97,3,-101,13,68,-56,-87
// ,25,-114,-46,16,110,-48,-80,-129,141,108,30,-69,-123,120,82,122,87,-128,78,-111,-70,-118,28,-111,-76,-142,52,48,22,-112,121,-95,19,-134,83,57,-43,44,-48,-84,76,37,70,103,-92,-111,-65,115,37,-2,107,-88,103,-108,6,111,-31,32,138,54,57,-69,69,24,96,-88,51,-50,-58,54,63,-21,77,-133,-55,-77,69,31,54,107,123,-136,-71,-126,-86,-53,9,-55,136,-106,-129,66,-16,-36,25,59,35,108,57,4
// ,112,103,-137,123,110,-66,45,32,119,-111,-63,-141,56,-94,-56,-89,24,-83,125,77,127,-36,-105,-57,46,-73,-125,94,39,-75,110,141,-63,-125,128,-44,79,57,-5,90,-38,87,2,-111,46,-5,-28,-114,15,-36,116,59,62,76,-126,136,-114,91,-101,-68,-141,42,26,1,136,99,136,82,-79,31,-133,-102,55,3,-72,122,76,-136,131,-127,-121,38,120,-32,-71,-38,-10,42,142,-128,11,28,13,140,56,-118,30,-33,116,-5
// ,-67,23,77,-93,-143,90,141,-1448,56,53,-78,-8867,53,-339,-26,-558,-10,-140,601,12,368,-77,215,-49,-1550,-74,-138,291,-168,190,-77,207,-631,-2559,178,356,226,31,-3453,183,-889,-59,36,354,171,239,-23,-90,-214,234,-58,-641,-13,168,-41,236,-236,-132,-86,-8,169,-58,-392,-77,-465,88,-1,-105,-84,-125,12,-40,242,1890,252,-77,272,75,-86,-8,168,-13,270,-218,-61,189,-211,81,-112,177,550,-97,-93,-32,129,7,-127,55,25,-199
// ,-248,299,132,-97,37,-69,348,20,55,-29,-98,298,-353,155,82,-215,-31,143,566,-390,-8,184,-44,52,-289,-107,-182,-271,528,-26,-81,-3,125,-2862,-51,46,-159,-61,-1004,-54,47,-88,166,42,-6,-147,-390,-74,83,-77,141,-69,-26,-79,206,375,2353,-210,219,-36,-184,-71,-122,230,24,-117,-350,-3688,-9,-146,-160,-173,-51,-51,-21,909,11,-12,-57,492,-207,-48,-246,406,16,-167,-1979,242,128,185,147,-54,-58,-177,11,-116,-8,-13,-12,92
// ,42,-20,3963,-449,-216,164,-12,348,-180,-123,-46,-121,-69,148,245,-7,4007,-250,-61,4,-54,-319,-2,12,152,-2,245,-25,-426,-45,-35,-131,55,120,4471,293,-20,-110,-34,-22,128,283,-83,-221,406,60,807,-50,-4031,-58,181,98,-1625,2320,667,-1666,-64,-138,-64,9,-305,234,-4,-116,-142,6,10,-1088,-132,-121,39,-368,79,-156,17,-111,-67,-137,-268,-13,-1079,28,-69,-167,-24,-99,-103,38,103,-271,-29,-113,58,-97,-308,-284,-20,-146,-46,39
// ,34,-40,-2829,-129,-253,-141,-166,-469,-6,22,36,-46,-112,-93,-152,-167,-360,-220,-166,-150,-29,-17,-110,-168,-79,-223,-179,-95,-92,176,-150,-63,20,180,102,-50,-82,-223,-145,-90,-13,85,-202,-211,-28,68,232,-272,9,-96,-184,15,-78,-91,-90,76,-332,-75,-927,-227,-4,-46,-32,-80,-150,-70,-67,-49,-2,-55,-190,132,-53,-24,-88,301,-76,-24,-199,5,-105,-110,-12,-107,12,-27,-33,91,-143,-514,-161,-122,-225,-119,109,-69,-66,7,-257,-142
// ,-123,21,-24,-161,-121,16,2,-220,-13,-156,-52,-5,200,-225,-100,3,-193,79,-60,-176,47,-302,-654,-415,65,-64,-68,0,40,-73,-168,1332,-153,-141,-3,-472,-89,-199,-76,-2235,-176,-466,-71,-159,54,-83,8,-183,-182,131,-178,-138,-82,-54,-49,-122,-159,-142,618,-2337,-10,17,-212,-108,-117,-287,-71,37,-50,-237,-339,-32,863,-259,-41,-196,-32,-121,34,-645,-253,-15,-332,-159,21,-108,-221,-478,-15,41,513,-141,-15,-149,6,-91,2,-91,21,9
// ,-65,-104,333,-138,373,-182,25,-70,-119,256,45,-216,-211,-17,70,42,-610,-12,19,-175,-151,-9,13,-212,-178,22,-39,-65,-61,-100,-580,-46,110,-56,46,-119,-178,4,-152,-182,-9,-42,-6,-152,-627,18,-177,-41,5,-42,-42,-149,-61,-8,-231,-257,80,3,96,-44,-263,-66,-80,-881,50,-253,-67,-187,38,-193,-244,5,-386,-53,-62,12,76,-28,6,-130,-236,71,-438,106,-33,-111,-56,-41,-112,-103,-140,62,-208,22,-235,4,-117,16,-4,-137
// ,-61,-106,87,-122,-159,-115,-179,-69,-146,-92,-66,-230,-243,-6,6,-73,-39,-166,-35,-50,8,-25,-5,-81,51,120,167,-17,13,-154,-148,-267,-44,-252,-353,-131,-132,-83,-124,-252,-212,-26,63,77,123,-33,-42,-61,-178,-94,131,-27,16,29,-42,62,-201,44,-109,-97,-176,-173,12,-140,-87,-57,-353,-181,17,-184,6,-577,23,-1,-47,-107,-113,-127,-906,-24,18,-42,26,-215,-33,19,-145,-513,-58,-122,-142,38,-211,51,-81,-706,45,-211,1307,-180
// ,-104,-69,-147,-44,-149,87,-68,-228,-76,-27,-1,-99,-13,-251,95,-203,-139,2,-69,-92,61,7,-42,-71,-111,33,-80,-148,-168,-99,-123,-256,20,-452,23,-163,-29,-106,-186,-1,-83,-3,-64,-1104,-294,8,78,85,-68,-87,15,-69,56,-317,-112,-183,-527,-172,776,-14,1033,-200,38,-555,-19,160,-164,1,94,-50,-217,7,-109,-18,97,66,87,122,91,2,52,31,-48,29,-29,-109,-131,-58,-95,-100,93,-39,-75,65,-115,-103,70,91,133,138
// ,26,136,2,81,-35,89,-13,137,77,-14,-69,73,-104,74,10,-45,15,119,13,88,37,72,11,82,45,10,-24,-22,-69,117,-110,114,-10,-45,-51,-139,89,71,-20,-121,-127,19,87,-111,-87,-138,-34,-118,32,50,36,-62,6,-109,128,-10,-111,31,107,127,10,-75,69,137,-8,54,-71,-49,-95,64,59,21,123,39,91,-126,9,-56,-52,-135,-2,118,-122,82,39,99,134,-14,130,-94,126,26,-106,-45,109,131,-129,-131,70,-55
// ,100,36,-54,137,-65,-46,105,132,87,-65,-88,-34,85,54,-4,-82,26,-6,-65,1,-74,56,51,108,-67,-120,-65,92,135,72,82,20,71,-122,33,16,87,101,22,95,-42,21,-1,-102,-116,-72,-127,-125,43,106,66,59,113,-66,-69,-92,33,-89,53,32,122,38,-58,140,138,36,137,-7,-75,-57,-22,2,53,40,-44,110,106,102,32,98,100,-115,85,106,-84,-126,-53,-114,-12,-112,-119,-103,132,7,-68,131,35,83,-17,136
// ,0,69,-15,134,17,135,-31,-87,53,43,26,46,-86,-132,-61,-43,-113,-78,51,48,132,-82,10,48,32,-106,-136,-64,-182,7949,118,-2557,-143,142,-292,-425,96,-1587,27,-1478,-140,-107,715,-3,644,61,399,-64,739,-105,-118,577,-173,534,63,308,-1026,-2984,123,655,291,-2,-7258,227,-2794,-231,16,334,278,140,-193,-144,-510,405,25,-671,24,-84,100,492,-92,4,-114,135,-680,-89,-718,23,-778,39,75,-277,-351,-170,638,113,334,-4457,355,-121
// ,302,165,184,-196,-106,-261,-70,203,35,271,16,252,-27,458,1141,-201,-98,121,5,65,-102,-68,50,-162,-969,322,167,97,-202,-10,-106,-24,79,-9,-98,386,-289,-61,108,-55,-6,47,561,-577,109,346,-189,-124,-403,-65,-202,-154,540,32,88,6,69,5207,-151,212,-1167,-90,262,-47,167,-108,307,-43,-138,-165,-426,-31,129,-4,352,66,-3,-103,-71,430,1854,-87,224,-93,-238,49,-203,54,-153,-125,-474,-3129,-83,-174,-66,-83,43,-32,-24,3137
// ,81,-55,-182,445,-271,-235,-58,-1497,220,-94,2902,86,-7,81,-45,-111,-86,140,-204,85,-31,-62,-79,309,-129,111,-4532,-425,105,207,81,465,-143,-54,112,-162,-101,-75,-47,55,-4030,-291,142,-10,-107,-50,-106,-226,147,33,222,-103,-729,294,-236,-1270,109,4725,6978,13,36,-316,-103,-299,-60,138,-141,70,484,-18,-148,178,-1909,-161,247,-51,-3692,2595,466,2597,-24,-29,-121,-151,-22,1814,16,314,-153,84,54,-4828,-91,297,-347,-276,-70,-173,85,-308
// ,-34,45,-381,-224,-29,-78,8,63,8,59,-52,-82,-100,-847,-127,-49,-53,-35,-690,-54,-346,81,-183,-359,-72,-127,-5129,-9,-432,-220,-133,-824,-72,-83,-101,8,-123,-97,-397,1,-452,-99,-173,-209,746,-151,-146,-48,-145,-80,-390,-66,-147,-568,-250,22,-162,-156,-19,-18,-96,-159,-282,137,-106,-32,-142,7,-73,-52,265,-54,-156,32,-124,23,33,45,-177,-212,-172,-64,-529,-55,-24,-29,-137,-42,-111,-75,-127,31,113,-40,-14,-38,-9,18,-222,137
// ,-58,-151,-314,-22,-189,-140,-68,-86,-111,-209,-47,-73,61,1083,13,-57,-165,31,281,-94,-41,-114,-162,-149,-52,26,-100,-190,-49,-162,-80,-222,-145,0,-244,-10,181,-4,26,-111,69,-101,-49,43,-152,-248,-508,-225,-162,-164,83,-351,-159,82,-124,181,-44,-60,-83,-504,-7,-151,-114,515,-190,-432,304,-146,-34,3,-137,-169,-113,-112,-179,-83,74,-171,-49,-104,-25,-59,895,-1454,-29,-51,-167,-210,68,-393,-33,-164,-108,-211,-79,61,-3197,76,52,-92
// ,-159,19,-147,-227,-269,-151,-305,-165,-27,22,-267,-473,-227,1384,2142,-180,8,-112,-243,-353,-2,69,15,-135,165,-204,-182,63,-116,-200,18,-19,-338,182,-166,237,-266,-110,-229,69,-201,0,30,-308,32,-258,87,-105,-284,-38,57,-223,40,152,116,-21,-170,-71,-129,-13,54,-56,-231,-15,-14,13,-68,-26,-377,-82,-73,-62,-138,-141,-49,-7,-30,-119,-128,-219,-257,-240,-1521,-84,-152,-30,-98,155,-32,-219,-303,-120,-394,-138,-172,-175,-556,-45,-66,15
// ,-1123,-96,-290,-190,-389,92,524,-107,-88,-157,-378,-130,-168,8,-5,-255,-113,31,153,-316,46,-219,-127,-154,-92,69,110,-133,-6,-112,20,-150,-47,-77,-86,-38,-219,-64,96,-124,71,-106,15,-48,-149,-135,-20,-112,-606,-7,-58,-85,-196,-187,-41,-446,-58,77,-157,-38,-297,29,-29,30,-139,19,-78,-71,-69,-38,-158,-112,-39,-114,-454,-55,-208,-59,-141,-92,-3,-99,-89,-97,34,-100,-52,101,78,-96,-278,-186,28,-40,-102,289,-144,-47,-10,2
// ,-21,-134,-439,-25,-46,-76,-103,-509,-82,-623,-103,-26,-128,-31,17,-161,-86,-58,-253,44,57,-110,456,-67,-43,-178,67,-161,-186,63,37,-16,-182,16,33,-66,-31,-141,185,153,-35,3,25,9,-174,21,4,11,-57,11,21,-197,-774,-14,11,-328,-238,-329,70,-145,79,-46,13,-105,-39,68,-136,1283,-123,-751,298,162,-89,-87,-71,-313,-124,-292,68,-75,-97,17,-549,-63,-130,-13,30,-204,97,115,-98,-26,-332,-132,-284,-160,-52,71,-26,102
// ,-18,-40,102,128,-45,50,110,-121,139,21,13,67,-87,109,60,-83,-35,62,-139,-88,123,17,-76,36,13,9,-12,-27,70,111,114,128,-35,36,-84,-96,9,-51,117,-99,58,-59,-1,68,64,16,-25,68,-57,-60,-6,-43,7,-26,115,21,-57,76,88,133,26,62,-114,95,36,-27,-48,45,-13,130,31,-77,-5,-70,-113,-97,108,-64,95,112,46,-99,-6,83,-69,-124,-46,-40,68,-141,-68,46,95,39,20,2,-76,59,-38,-136
// ,-1,18,42,-112,-41,-102,62,61,2,15,-26,95,-115,-56,43,-3,-38,-121,57,102,53,65,62,79,43,116,-81,-101,119,62,7,-118,-68,-34,88,98,-101,57,6,-76,-64,-66,43,65,94,-73,101,141,-28,-3,74,-99,-3,100,12,-125,126,92,74,10,101,-88,133,99,132,77,-7,-11,-110,-15,68,12,-122,81,102,-102,37,-107,-31,47,-73,6,66,1,101,37,77,119,-83,16,53,-101,129,111,72,108,64,72,37,-53
// ,93,125,27,-109,59,-47,-84,-11,-12,75,116,137,111,33,45,-51,-33,-66,-100,-128,81,-38,52,32,-86,35,84,41,-133,-26,-58,-106,-30,79,-96,115,-111,107,-80,-78,-87,133,22,-29,-61,-123,-97,36,72,-134,-90,-39,947,2563,-686,-337,-467,-10,11,1438,-107,3406,-144,942,67,453,-526,235,-1536,43,-663,-203,3209,-423,178,291,397,654,124,-865,1351,10329,-611,-531,-599,1,1056,16,4556,524,2,129,-24,-285,573,15,782,-479,382,-655
// ,61,214,-28,476,372,-813,454,-658,1872,200,425,-106,756,63,356,460,960,-169,990,-379,153,5439,101,335,-462,-156,250,339,29,-225,34,12,-15,-874,166,65,60,-1107,1705,107,-76,-55,-209,96,-6,27,-144,-241,1433,-1379,145,51,83,-283,-541,-371,-103,-3,-113,-1052,-566,-128,141,-469,-679,-13,-1885,-807,-45,-1537,41,-59,432,-124,-35,520,-3244,279,65,95,189,7413,-65,-268,896,-17,2895,-107,-339,26,47,89,559,-172,653,-161,-7,-112,-59,84
// ,-24,243,-5,312,-6514,290,-24,765,-344,-383,357,43,-151,646,-1203,7985,-614,-347,-66,-548,142,-246,148,1783,-549,403,-180,-890,629,-213,615,613,-280,250,2537,-146,-221,-536,-301,-39,-97,214,100,-107,-552,-134,92,312,-11,-511,1652,-473,362,-133,-105,-1432,-29,-207,-727,199,-126,89,-109,279,-4270,-1011,-46,-1294,-173,1089,-71,-96,-33,-312,-748,361,981,301,-158,6066,379,-6375,-7668,92,-627,431,-125,442,48,156,21,212,224,53,3938,-93,6392,469,-1070,651
// ,8494,1128,-1767,-1107,-979,-122,38,-70,-17,423,-136,47,-147,-216,-127,4938,-40,-38,78,-161,-113,162,11,-148,-217,-167,39,72,1268,3,-40,-311,-72,45,-92,-153,83,1558,-212,-228,-63,-81,99,-396,444,57,-73,-649,-197,-275,-5548,-93,-124,-438,-194,-84,-25,-62,-61,-83,83,-168,-96,-90,-272,-198,-154,16,1155,14,-73,-48,23,-139,-138,-195,-183,669,-412,-164,-218,-261,-241,71,-25,-77,44,-90,13,-254,-282,-206,-161,-187,-379,7,-94,-156,86,58
// ,28,-56,-55,-119,-212,-153,-624,-110,-110,-130,-111,1,-138,40,-185,-250,-136,-41,-44,-230,-82,-153,-342,-101,-107,-246,-157,-1,-170,-181,-75,63,-491,60,6,6,18,1738,64,-93,-102,-187,21,-44,-199,-191,-31,52,-181,-145,-425,-42,-235,-77,-52,38,-99,11,-237,-74,-684,-76,-67,-63,-31,-38,-157,-92,-90,-149,251,732,-53,20,-140,-139,-28,142,7,-1093,1,0,-223,-162,-340,59,-41,-3919,-52,-313,277,105,-129,-133,-276,-208,-66,-132,-47,-61
// ,-193,-96,-125,-133,35,-289,-3356,-492,-79,-119,56,-264,53,-208,-167,-35,1,-184,-163,-8,396,-222,-43,-519,-194,276,-147,-458,-12,-166,-106,-29,-222,32,-80,1286,-268,-1575,-2320,-196,-133,-209,-285,-187,12,68,-46,-133,159,-181,395,-101,423,-135,-8,-153,868,-435,-314,-147,213,-143,-322,-143,-238,234,-204,-215,-132,-232,-82,500,1,97,38,-359,-190,-176,59,64,-32,-139,-36,-7,100,66,-152,-391,-36,-275,-132,-81,-159,132,-30,-47,-48,-36,82,-141
// ,46,-121,-16,285,104,75,-444,-69,-266,111,-144,-391,-17,-107,-74,-154,-34,-110,-196,-154,-201,-123,-69,14,-816,-63,151,-30,-416,-258,-758,-127,-235,-79,16,-178,32,111,8,59,-41,-170,-254,23,-47,-20,-203,214,-19,-229,106,-75,-92,98,-328,-112,-72,-49,-90,-55,-414,-109,-998,3,-64,54,-51,-3,40,59,-61,17,242,-36,-220,-134,-80,-15,-56,-62,-131,-94,89,-62,-383,-167,-28,-78,-212,-98,-179,2,27,144,-118,-71,21,-24,403,60
// ,-10,-42,-101,28,-205,25,50,-10,-96,-30,-345,-235,-92,-138,-186,-123,-84,-51,-34,-357,-63,-26,-23,-143,-28,-20,-377,91,-142,-55,-35,-108,-184,209,-36,1176,-93,-133,-52,-17,-143,-20,-137,-213,-230,-223,-2057,-5,8,-118,-79,-87,-55,-140,22,-140,-15,-188,-88,-153,-160,20,-167,-828,-149,-45,-153,-81,-205,-388,-23,-40,17,-283,-90,-81,27,-131,28,-282,124,28,-89,-39,-173,-161,-217,19,-32,-177,-267,-823,-29,736,-284,-201,-90,-75,11,-374
// ,-17,1,-178,32,-221,-203,1097,-2,-1106,0,-71,-174,-41,12,-134,1,211,73,-338,-26,-218,-970,68,26,115,56,37,-384,-91,954,-101,406,112,47,113,-55,-178,-14,660,-129,-646,136,66,-89,-102,6,120,-80,-144,-255,-111,12,-34,-54,259,-34,-197,-71,88,213,-79,26,-90,-139,-74,-140,17,-58,-138,-110,5,-178,6,46,-22,-90,38,6,94,-55,-171,128,-80,-68,273,45,-467,-34,-89,114,-128,-14,129,-121,-109,286,63,97,134,-200
// ,-104,99,-204,-139,-73,-32,-189,-70,14,-78,100,34,-15,-124,-58,-57,213,70,32,4,48,110,28,105,-113,87,-142,-124,37,11,-98,-138,146,19,283,287,33,84,147,-36,41,-38,-42,121,-71,-140,-99,87,-79,491,80,138,174,-51,-326,117,24,93,105,95,-34,97,-129,139,4,-12,171,-131,68,49,10,304,658,-15,-137,52,49,-105,50,25,127,77,-78,-110,59,-77,108,-154,107,-105,108,-1693,26,103,31,661,-83,129,139,71
// ,4,0,-93,-62,61,-42,63,69,-43,-32,-67,-119,142,22,94,13,96,157,-256,-94,-105,-8,96,145,-128,-72,156,81,-1,25,40,-141,-577,297,-30,-131,13,-178,56,56,99,163,-55,125,97,78,-34,523,-24,-791,1223,-112,-69,21,141,-109,-124,-13,39,-24,78,-169,-776,-122,-171,-151,-246,145,675,-1541,117,-252,15,-141,36,-39,386,3059,-127,-772,8,159,-23,5666,145,2485,-131,2430,-90,76,213,120,-133,-175,446,107,4210,-199,66,320
// ,-58,108,88,-193,-1674,1812,-226,64,-52,-63,-9340,99,502,-179,-65,-130,34,99,-1061,-88,137,-37,170,-198,44,44,241,268,-121,177,-51,-147,677,-94,60,116,-410,-13,113,1,336,81,717,-241,25,-11949,438,-113,162,-229,-94,145,48,191,197,779,-78,-120,61,173,42,-39,663,-264,-46,-77,247,-77,123,-84,51,-10,440,-342,-115,-36,-55,68,-161,-46,53,-96,-57,-240,1095,-300,197,39,-183,-110,-124,1235,-100,-397,0,-22,151,62,-69,291
// ,-252,-104,-29,-16,28,1929,-151,139,-576,-12,179,-40,109,-89,-22,-39,290,-130,-65,-109,65,16,128,-124,-23,284,337,295,-213,-4,-7,665,-183,137,-109,-286,30,13,218,1289,-41,-179,-116,-155,-30,382,168,2927,22,156,109,393,-169,-41,-62,-177,-82,-488,1082,67,29,-76,72,-70,118,-77,4,171,-110,66,-21,-348,148,27,-5556,-350,19,-33,-80,-105,91,71,-201,-83,-63,-50,181,338,-3342,-247,38,257,83,640,-3,-312,84,38,-85,71
// ,228,-97,124,2229,229,713,-2066,220,-198,64,-31,417,-62,360,36,41,544,-6,1218,90,-4821,-188,-345,331,1075,1635,-76,-1343,556,41,-151,160,9,286,16,-247,-58,-188,-266,985,-24,117,-343,659,82,-107,-63,-115,-105,-150,-130,-287,357,5,-110,-239,-254,-478,-89,-139,216,80,-111,-156,-107,-122,-2115,-120,118,-88,-113,-427,-198,-180,-370,20,152,-84,69,-1,-90,-182,-233,-216,-168,-44,-12,-61,76,-22,-46,-74,-348,-180,-130,68,15,-54,-64,-108
// ,-64,-7036,-2,23,-5,52,-127,44,3,-21,-61,-484,-219,-46,-77,-127,-51,-182,-598,-59,-93,-128,-77,-121,3,79,20,24,79,-173,-266,-180,94,-122,-143,-201,-103,-73,-65,-94,-95,2,-28,86,-41,-87,-341,110,-119,-131,22,-17,-151,-54,-1,-128,-225,-126,-173,-55,-106,10,48,3,-1245,-53,-64,24,-17,34,-176,-54,40,-153,26,-58,-95,-148,-246,-2,-53,-290,-201,-17,-104,-162,-182,-151,-126,-173,-8,-172,-105,-57,14,146,-63,-19,-94,-330
// ,-141,-1036,-132,373,-96,-72,-32,12,142,8,68,-533,-88,-38,-50,109,-82,-92,-112,-144,-217,-75,-151,84,-85,-178,-142,-80,-115,-14,-565,-403,-66,-26,12,-243,-102,-290,-43,-258,42,-95,-54,-96,-220,-57,11,-257,-95,-27,-134,190,-9,23,-133,-78,-245,-131,91,102,-107,-58,-304,-132,35,-214,5,-340,-161,-28,-145,58,-34,-55,1,0,-200,-106,91,15,129,-114,-150,-20,-692,46,-23,-121,-378,28,-116,-298,-112,76,-198,80,-32,45,-192,-188
// ,-17,89,-258,-86,-228,-8,-20,-299,94,-91,-4,-207,-121,-62,4,-109,-1001,-27,41,-95,-124,41,-249,-188,21,-117,-168,-11,-221,-4,-111,-167,-143,-153,-61,-585,55,-15,-205,-672,48,-113,-132,-176,-211,-92,-34,9,-282,12,-187,-100,-168,-3,-547,-10,-209,-1704,-188,-46,-160,-178,11,-148,-173,-90,15,-121,-40,-119,-150,-266,-56,-151,125,-150,0,-94,-225,-131,-24,-131,-57,-49,-131,37,48,50,-53,-90,4,14,-16,30,13,-165,-20,-169,-7,-74
// ,-75,10,-95,-909,35,-34,-130,17,-17,-36,-71,-148,-294,11,-136,-101,-27,-28,-57,-223,-307,-154,23,32,-60,-98,-440,-259,4,-101,-173,-98,-269,-139,-62,31,60,-15,-23,-77,9,-13,4,-128,55,-54,-162,-17,-98,-125,96,82,-158,-30,-158,-385,-183,-219,117,207,-124,34,-38,-153,-151,-177,-141,-593,-153,-127,-12,-72,-193,2,-164,-183,19,-81,-175,-110,-80,23,-86,-149,-65,-51,-137,-43,-90,-189,-125,-240,-192,-164,23,-22,-90,-1,-169,-115
// ,23,-279,-60,-177,-219,58,64,-93,-68,16,-120,16,-111,-36,-273,-59,-180,2,-36,-464,-122,-132,-81,-213,-86,-54,22,-92,-68,-8,9,62,53,-24,-6,-479,18,-29,-115,-3,-107,-145,-61,-173,-119,27,36,-712,-145,-104,-102,-163,-19,-4,-39,-39,-211,-165,-567,-69,-90,-70,61,-104,64,-215,-138,-155,-116,-223,-4,51,-558,10,-147,-48,-157,50,27,-80,-17,-213,-113,24,-17,-222,-37,-25,-180,-155,-77,-525,-117,-12,-191,-128,-62,-97,-156,16
// ,-185,-118,-199,-71,-128,56,-77,-21,-138,-23,-163,-15,-262,-122,-88,-35,-49,-108,-65,44,17,-38,-38,-501,-61,52,6,-48,-107,-105,-209,-76,-145,-41,-92,-155,-132,-197,-240,74,-122,-37,-788,-69,-203,21,-105,-45,-20,-168,-20,-151,-200,20,-161,58,-7,-18,-107,-303,13,-75,-203,-48,-75,-261,47,-36,-98,-159,39,40,-111,-12,-24,-53,-143,-45,-584,-138,122,-142,-249,-182,-242,-73,-90,1,-158,-59,-173,-100,-113,-142,-124,-136,-5,2,-25,-109
// ,63,-149,-186,11,-166,-285,-100,-2,-323,-13,-37,-187,-121,-310,20,45,27,-19,-13,29,-15,-117,-110,-367,-59,-92,46,-56,-118,51,-57,45,-114,-77,-84,-67,22,-160,-28,-395,-100,-22,-122,-843,-40,5,14,-110,-34,-190,-6,-135,59,-182,-68,13,1,-52,68,-57,-143,-158,-166,-64,62,56,-118,-203,-216,-284,-221,-22,-109,6,2,-104,-105,-59,-269,-304,-75,-29,18,-95,10,26,63,-158,-15,-158,-240,-10,6,34,16,-18,-531,-157,-69,-153
// ,-13,-1033,144,-170,61,-151,-60,-752,136,682,67,-446,61,-176,35,-78,-130,123,-26,-138,-917,19,-130,-165,46,145,139,-10,-53,-183,-59,-347,-129,42,639,-75,279,-45,52,187,-152,77,-56,62,115,-120,-122,-56,-117,140,-176,-289,-67,-112,-76,-113,391,-185,85,-116,138,-43,-190,-171,181,-112,-603,-92,-81,236,-173,42,-63,5,-50,81,-8,-50,-12,-24,-58,-33,-28,-25,120,10,-42,23,25,50,-47,33,107,89,100,95,357,41,-117,-32
// ,73,72,61,61,5,52,-23,-159,-589,82,-138,49,42,-135,230,78,-139,8,-107,128,-150,61,-31,58,-213,49,8,-110,-38,369,-30,-25,279,40,340,-3,146,75,26,-133,-93,125,-154,80,90,-63,-65,-104,-119,-158,1,701,953,-174,19,-283,129,7,15,77,133,80,-9,-97,-8,-18,-119,-129,140,-137,45,-1060,125,-53,161,-44,-200,-55,37,-69,34,64,-536,-108,23,-92,-53,37,-121,-168,-36,69,122,34,-102,145,90,136,-494,16
// ,-167,72,71,-104,-12,-93,-47,-72,68,-5,42,62,-532,165,102,9,-70,-24,28,-17,91,-75,-55,-130,103,-53,-13,-259,-80,288,1022,156,30,119,6,-343,45,496,134,-149,361,-101,-368,-119,550,-84,348,73,389,-1324,-4,30,-81,-120,-24,-94,131,-2283,-5,-377,159,97,-11,-4604,-16,856,-140,239,-32,-346,80,72,142,53,-97,23,3594,-135,-111,-495,-180,-788,102,115,-193,-3313,43,349,-102,-47,-7870,-59,744,-120,71,80,-51,102,-850,-64
// ,-81,29,-185,-107,-152,62,239,-297,62,54,253,-137,265,33,277,-118,-366,-105,-143,38,147,-81,925,-157,-109,-3207,54,-12,289,300,-242,142,-104,-245,174,380,-16,232,-134,-176,105,312,-332,-66,-45,85,195,-9,-66,-6,61,47,457,251,4,-130,35,41,32,-149,81,-14,100,-24,-244,-166,-14,135,-35,-74,501,-189,-115,456,-7,56,-43,96,27,235,86,7,93,-52,-39,-343,-147,360,-1538,-30,973,7,-24,-187,153,170,208,110,-118,104
// ,-1,43,164,121,58,105,148,-244,709,60,-67,-39,-159,102,-48,17,11,104,256,-4077,42,16,24,566,104,517,35,1101,174,-4,145,-37,-338,-8,-56,-705,-1,-607,-757,-12,-145,65,45,-109,188,41,-84,-193,35,29,-134,103,114,16,2054,-334,96,90,38,313,-72,115,94,87,79,-150,-71,95,2,137,17,123,186,178,-39,-249,-49,165,146,5,-257,-20,618,331,139,2680,807,50,132,42,1,98,62,-309,-108,-222,14,6,-384,3
// ,-7153,-136,770,153,-7161,122,192,46,1001,-1,-60,-12,-197,-917,-132,518,-107,-270,23,-684,-272,-83,-196,51,-239,-384,-45,-36,24,-54,-136,-186,104,-200,-140,-609,-45,-1345,-21,-48,468,-941,-83,-93,-13,-87,-1002,-204,-1,51,41,-454,-225,-163,92,-85,-453,7,-277,-123,-93,-37,-276,-552,-155,-164,-305,-125,-323,1,-113,-89,-26,-27,-174,-241,-252,-310,-375,-34,-257,-1869,-499,-129,-50,-460,-364,-38,-37,-256,-216,-569,-201,-71,-114,-20,3,135,-1828,-102
// ,-147,-156,-7,-162,-127,16,-195,22,-461,126,-246,-132,-16,-121,-110,41,-9,50,-96,-112,-592,-38,-153,-313,15,-177,181,-435,-125,-18,-75,-142,-62,9,54,-100,-170,-73,-105,-90,-286,-1134,-107,24,-212,-15,-446,-113,-142,-79,-402,-148,-364,-2,75,-33,-191,-87,-194,-152,-177,-108,-67,-307,97,-136,-98,-885,-215,25,-18,-314,-152,-298,-553,-2086,69,-66,-131,-81,4,-746,-109,-1457,-36,-150,-118,-214,63,-60,-14,229,123,138,-2084,-273,-211,-80,-155,-106
// ,-211,-197,-93,-194,76,-88,-68,-271,-180,-223,225,-853,-167,-225,-115,125,24,-140,-21,-117,-92,-174,-18,-210,-451,-64,0,-310,-260,-754,39,150,-189,-141,-77,-209,-103,-167,-449,-1636,-187,62,-211,-300,-45,-112,63,-223,-31,-421,-84,-29,-278,-20,-1546,-107,-1971,-105,10,-22,-2839,-609,-26,-73,-498,-19,18,-113,-380,-1877,-203,-1353,-145,-57,-60,-144,39,-13,-6,-18,-126,-188,-74,-22,-46,20,-509,-205,-28,-79,20,33,-215,-96,-101,-33,-269,-145,-172,-438
// ,71,1,-94,-133,-4,-2,-131,-290,-130,-64,183,-84,-132,-186,-220,236,-63,-44,-184,182,-38,115,-162,30,-329,-241,-195,-51,-260,-31,-180,-46,-180,-51,-163,-190,-47,-129,-438,-237,104,-6,-105,-250,44,-104,-85,-58,14,-284,-98,-84,-131,121,-797,-10,-41,-162,-103,-108,20,-132,-211,-65,-183,-63,-150,-236,-119,-56,-41,-30,-113,-48,-109,64,-127,-42,-172,-169,8,-143,3,419,-4,-135,-260,35,-116,-51,-34,-98,-215,-70,101,-90,-98,639,-61,50
// ,-28,-138,-422,-110,-247,-182,-52,-46,-60,-177,-232,-118,-15,24,-292,-65,-95,16,33,-225,45,-181,-71,206,-126,19,-39,-130,-9,-114,-32,-166,-21,-75,-9,-116,36,86,-117,-43,59,10,19,-462,-16,-136,-51,-339,-205,-27,-376,79,30,-43,-99,-150,40,-49,-6,-120,-178,-56,77,-42,25,-30,-280,-125,-43,-190,-98,19,35,-59,-20,7,55,53,-48,-229,-193,-259,-41,-106,42,-339,-135,-66,23,-114,-93,-30,-140,-62,-229,-88,69,-12,-100,-128
// ,-81,-86,14,-411,-146,-61,-140,-165,-427,97,-148,-93,-136,-36,-378,-172,-398,-1882,-105,-16,-531,-160,14,-148,-520,2,-124,-157,-33,-2,-218,-95,-116,2,-209,-54,-161,-155,7,-218,-77,-98,82,-75,14,-128,-34,-103,-101,-248,-95,-164,-163,-24,-156,-257,-101,-12,-15,-94,1,-126,9,-161,21,-37,38,-221,-161,-79,-73,278,-86,-76,-154,-14,-133,-140,-66,-163,-258,26,-85,-125,114,2,-59,-231,-332,-106,-212,-142,28,-261,-236,-54,-4,15,59,-231
// ,3,58,-87,-26,-26,-87,-20,-71,-97,-92,-424,-112,-38,-264,-265,-146,-155,-94,-205,-215,-452,-90,-270,68,-124,-177,30,-163,-7,-15,-104,-105,-260,-18,-87,-274,-35,-35,-76,88,-147,-244,-102,12,-28,-162,-220,-237,-264,-105,-240,-187,-152,157,-181,-205,-127,48,-39,-142,18,-188,-147,-55,-246,-57,-29,-23,-86,-47,-178,47,-7,-168,-152,-225,-31,-106,-149,-34,-130,-50,-29,-175,-159,-180,-239,-23,-237,47,-29,-232,27,-30,-133,103,26,-67,-187,70
// ,-61,-177,-240,-437,-101,-77,-17,-44,22,-14,32,-92,-61,-157,-48,25,-9,59,-55,-108,57,51,-23,-488,-12,-19,-28,34,-122,-198,15,-137,-91,-73,-73,-302,68,56,-147,-177,-145,-134,15,-117,-198,-249,-84,-62,-9,-76,-106,38,78,-7,-18,-371,-123,-49,-58,-60,27,-449,-40,-107,-521,-70,-113,-117,15,-203,-260,-307,-26,-103,-166,20,-277,-17,-4,-143,-19,-290,-68,82,32,-152,-92,-188,-17,575,71,1522,-104,-161,-5,-72,-127,48,63,-64
// ,-1080,-34,11,-248,55,158,66,34,-274,-1323,51,-4,58,95,146,39,692,-70,99,-75,27,-59,11,-131,-25,123,-48,-98,43,82,-188,-116,-117,-96,200,121,606,-127,193,-12,-156,-83,68,-118,14,-59,-1012,-33,-120,140,21,9,-90,-181,56,53,-87,51,-21,-97,15,-157,-105,-152,-19,-103,64,37,-64,-124,-160,-56,37,108,-80,-13,410,-76,-92,106,122,-123,2,152,20,-15,-90,-6,852,64,-119,-74,102,-69,-26,999,-34,-15,34,141
// ,-73,-110,-14,-14,-145,-100,-10,83,86,-280,17,-28,361,84,-395,60,-41,28,97,36,81,-3,-177,138,-67,-47,39,-16,4,-85,-118,901,1699,13,-109,-247,92,100,-116,72,135,218,-118,-1193,103,-72,137,-193,162,-179,34,-764,-45,-139,-44,103,-140,-30,-133,59,21,89,-1229,-30,66,95,14,-90,-37,92,41,-139,106,-29,61,50,-72,33,-359,22,66,-163,-109,-94,-77,76,72,31,-82,-30,127,181,-356,408,92,27,-42,-86,38,-164
// ,-111,-104,-4,-78,-11,-122,87,-872,-183,-351,834,-7,-19,41,-115,178,8,604,-83,29,594,38,-303,-22,996,0,123,-7,743,-1214,-32,-843,-77,-67,-104,116,319,782,-258,-107,6,-16,-90,-5747,-12,1329,-93,266,24,-701,-70,72,75,-93,-141,-49,-6882,-113,-93,-1137,1,-835,42,-205,-221,-3976,122,153,-117,-72,-4755,225,990,28,22,226,-77,109,-434,-23,89,-400,93,241,35,-146,266,-614,233,-8,42,-173,392,209,346,-26,-276,82,-374,110
// ,246,-244,1104,-293,37,-2697,396,111,-130,-31,-255,246,157,-288,-199,-1047,50,-20,207,-603,-47,-196,-492,-89,-107,133,-98,21,-70,15,168,-154,625,11,-38,-54,-1,-31,5,-195,19,-117,92,-168,-426,-474,-422,210,-212,-163,32,-559,42,84,403,12,3,-192,0,264,599,-10,16,-34,-233,446,-56,4,-890,-130,-249,76,158,-19,149,-35,105,-132,131,-43,32,130,-106,-441,47,154,229,-374,1655,71,-67,-165,-123,6,26,40,139,26,-58,-4451
// ,231,-66,133,583,-105,-11,280,278,-50,42,65,-227,95,-58,155,-861,-471,-326,-1731,-142,-378,83,31,-256,120,-118,66,-90,-119,56,-22,179,115,44,4324,-286,-28,-106,-109,139,-138,-167,-243,7,47,-15,-17,-123,-482,641,112,497,-53,15,-11,93,62,-352,2,115,-252,-176,121,1141,67,2622,648,121,-80,19,-96,290,38,-309,32,66,-337,147,-969,9,-4378,223,-204,-1,-6357,1935,202,-7207,-848,-130,-66,-138,-185,-48,-127,467,-176,-159,-27,-952
// ,-174,-54,23,-755,-153,-317,-206,-74,-14,-187,-180,-181,-1362,-88,-104,-581,-11,-984,-119,48,326,-2617,39,-341,-38,-36,-455,-184,155,-139,-121,-409,-276,-240,331,46,-141,-245,-80,-113,-114,11,-162,-365,-50,-135,-142,-101,-565,-106,-196,-297,148,91,-369,-40,-50,-240,-693,-56,-202,-279,-364,21,-124,-427,-315,-43,-35,-303,-358,-807,-62,-155,-211,-294,28,-121,-2562,120,-30,-20,-198,-168,-174,-103,-126,-38,-205,118,-262,-69,16,-38,-228,-74,-130,14,77,-75
// ,-480,-134,-303,-217,-151,33,-124,-744,-140,64,-171,58,-42,104,-167,-164,133,-68,-117,-33,-167,-588,70,-111,-15,56,-1328,-60,-226,-14,-307,-282,-256,-128,71,-37,-61,-8,-187,-288,-45,-116,-213,-493,268,-55,-86,-442,-76,-122,-69,-278,70,-158,-450,-1731,88,-209,-176,-316,59,-324,-36,-1102,-152,7,-8,-95,-70,-106,-198,318,-123,83,-717,-339,-199,-2,-21,8,-131,6,-210,-174,-56,-45,-109,1,-177,-74,1339,-787,-18,-183,-160,-22,-150,-37,-113,32
// ,-160,-32,-117,-93,-196,132,-72,-98,-166,-461,-205,30,-46,-263,-41,-160,128,-293,-288,368,-317,28,300,-7,-73,19,-93,-340,-113,-102,-113,-71,-255,-286,-413,-192,-242,-205,-534,36,-1737,-414,142,-366,-87,-118,-84,-52,-132,-818,-10,-4075,-120,-169,52,-365,60,29,-86,-183,-129,-41,-21,2,-56,45,-100,-81,-274,-118,-108,-123,-7,-217,-24,-139,200,106,11,-255,23,-40,-72,-19,33,-47,54,-19,-112,-19,-128,-22,-111,-36,-60,-855,-130,-145,-278,-41
// ,-381,25,-205,-42,-210,-33,25,-74,-236,-111,45,-282,-209,-15,-212,-119,-201,2287,-482,-26,74,-295,-261,-308,1,113,-146,-205,-181,-103,-387,-151,-32,-49,-204,61,-41,-113,-238,37,-39,-121,-160,-115,-507,-96,6,-45,-136,13,-86,-128,-60,-163,-119,32,-167,19,-193,25,-74,-169,-61,-387,-119,-67,-141,15,68,-99,-68,-211,-31,-25,-124,21,-132,-102,-99,-216,-12,-38,-191,9,-195,-54,-145,-167,-180,0,-134,-39,27,52,-79,-220,12,-122,-144,-86
// ,56,-229,54,-52,-128,7,-172,-288,-23,10,-122,-321,-123,-23,35,-137,-42,-162,-45,-394,-85,-157,-12,-151,-328,-1,-113,-447,-91,-77,42,-23,-32,-153,-135,69,-209,-60,-179,-40,-66,-184,111,-120,-19,-18,-232,-39,-63,-220,17,-98,-23,61,-80,-148,-65,-116,-199,-288,-294,-132,-94,-148,-112,-124,-18,-144,-96,-91,-120,-20,-159,-138,-38,187,-204,65,47,-46,112,-125,-268,-452,-145,6,-176,-23,-190,-171,355,-209,116,-90,-27,-31,-270,-1220,16,-53
// ,-522,-45,-75,-7,-307,-156,-166,-869,17,16,-30,-135,-44,-14,-161,-347,-229,24,-590,-68,-45,14,-559,-165,61,-71,22,-181,-167,-143,-39,-152,-534,33,-132,-183,-50,-105,8,130,7,-108,-33,-228,-121,-77,-150,14,-215,-403,-169,-86,6,23,-23,23,-207,-74,-213,-13,-246,-170,-116,63,-95,-105,-41,-35,-110,-36,-270,-84,-44,142,-169,-150,-172,-71,-104,-183,-105,-105,-155,-380,-26,-161,26,4,32,-95,139,82,-172,5,-67,-149,-73,-44,-43,-144
// ,-523,-86,88,-140,-67,15,-69,-29,-124,-66,-23,-105,42,-120,12,-190,35,-71,-181,1,-44,-49,-213,-159,-119,-3,-6,-238,-159,-184,23,-44,-108,-120,31,-186,-66,-119,-37,-29,-170,12,-455,69,-36,-158,-64,-19,15,7,62,-131,-157,-162,-30,-198,-19,-192,-172,-235,-145,-2,-129,-194,-20,-91,-302,-30,-188,-115,39,-343,15,-757,-85,133,-28,-98,-44,-518,-130,-47,-242,-552,-140,-128,-34,-227,-7,-54,26,-35,-240,4,8,-160,-23,-4,-97,-104
// ,-201,-135,24,372,5,16,-38,-142,11,84,-10,29,-17,-24,-26,-285,-100,-252,-93,-247,24,-306,-111,-58,-117,-107,-282,-71,-68,72,-107,-100,55,-23,5,3,-125,-52,-7,-384,-123,-117,-36,-204,-171,31,20,-134,6,-57,113,-110,41,-146,-89,34,-857,29,-36,-178,215,-1348,24,136,-111,31,-57,214,12,4695,32,1221,-27,-260,-43,-30,-438,101,-35,-82,-4140,-44,82,-225,67,60,31,-164,91,-2583,-25,-181,-6,-77,270,-175,2178,0,23,17
// ,-16,37,-108,29,135,-147,89,65,120,100,11,-243,-91,-155,77,45,559,204,387,101,-124,68,-180,24,274,-54,-1892,-162,-75,504,-9,-112,-166,-43,-98,4,23,-76,-38,-258,134,-289,70,-98,6,-183,133,-43,-109,-201,36,-48,-112,101,37,17,444,-189,8,78,-57,-134,-90,-132,92,112,-62,-93,361,-102,-26,25,-30,-28,-381,554,-102,-350,19,6,131,118,-78,126,-221,-41,60,-68,7,-1517,124,-41,272,25,-968,-131,-3,58,-140,-58
// ,-11,120,63,-87,23,-59,-116,-188,73,-61,-60,932,624,-14,113,-109,-67,11,173,-60,30,187,-34,-2927,-21,-149,19,-261,-13,-90,148,-1968,7,33,93,11,40,-89,12,-92,-286,63,-1989,1,-10,-174,-51,-70,-67,78,94,139,-163,-14,-8,9,111,43,-637,225,57,-132,72,-257,116,-122,-242,-82,-79,135,94,24,-717,-77,19,-215,6,-350,169,123,-16,20,-299,173,-106,-171,8,-2557,68,-2604,1284,62,-186,42,-58,225,-139,494,25,77
// ,711,-108,-1235,-164,1859,-163,63,-21,2653,-2744,-167,3291,-307,11,59,-43,948,-4180,-383,297,-506,-363,18,-2913,-233,7984,-21,2870,129,-1013,-505,212,-1227,-153,-614,162,-7066,-431,275,-1549,87,-1280,-57,-1087,1912,-2707,-269,-793,-883,-75,-8325,341,8643,270,-5,-245,-296,31,-213,365,1045,-963,378,119,22,167,168,-1021,360,-641,871,-590,1612,285,241,44,1,29,-743,359,837,-285,-5460,-717,-254,-1277,87,75,-620,-307,-551,274,-107,-457,-798,-1776,-25,-726,392,-721
// ,79,-1708,-1705,9,-222,-46,-158,55,-141,41,66,-286,1594,-1796,-215,-55,195,-192,-187,-387,-117,154,98,-863,2102,-819,-791,28,-790,-184,-2480,2150,95,-1787,828,132,183,-110,74,127,536,99,226,77,-458,-3378,-84,-303,-851,36,-2128,93,-278,146,187,-44,813,77,287,-218,-191,31,-240,-930,-192,236,104,-255,8832,188,-23,-1322,-87,-521,291,-74,-18,792,-272,-5840,-24,-357,89,110,125,100,-175,-9187,-664,196,-54,-614,289,-193,398,267,-1506,322,-4223,-115
// ,-306,-225,-243,-51,-63,-2,141,-388,-228,-33,-76,211,-111,-404,2604,-504,124,-348,-350,-1396,-113,-17,-677,81,-34,-64,37,304,-1632,-358,25,657,105,-477,-141,258,-61,-670,-588,196,279,-347,226,-1691,-83,-124,1653,-48,-508,223,-121,825,45,-238,-48,187,-413,141,-4753,45,-3688,468,-2091,466,-4879,-7673,-1207,240,-2271,-38,17,116,-130,-114,-42,927,-153,-305,-5,200,-151,1920,67,470,-2,-324,-200,38,-179,-151,-321,-26,-1002,-127,-83,-546,-11,-736,91,-261
// ,-655,845,-96,-243,-250,68,2985,-163,1450,29,-137,-283,-229,-84,1193,-260,-228,-460,-214,-513,14,-103,-245,-364,-44,-293,-199,-128,-188,-258,-18,-204,670,-172,-360,-76,-132,-194,-1290,-267,-261,1555,-323,8,-136,-289,-248,-45,56,-314,-347,-727,-6,-281,-134,-271,-24,-363,-1526,26,11,-233,-102,-15,-174,-165,-222,57,-158,-329,-1199,9,-127,-19,-71,-6,41,-181,-183,-244,-177,-251,-240,-155,-212,-43,-891,-53,-113,-461,-292,-137,63,-32,47,-172,163,32,-30,-119
// ,-227,-560,-80,-136,586,-151,-1428,-80,-187,35,-236,-175,-192,-222,22,-177,-199,-39,-219,-358,-182,-98,-146,-180,1835,-81,-120,-392,-97,-168,-2,-167,-31,-201,-370,-705,-264,-148,-45,-290,-48,-145,-300,-611,-259,33,-181,-185,79,-200,-88,737,-444,-82,-57,-225,-209,-59,-210,8,-53,-12,-164,-254,17,-133,-64,-177,-221,-201,283,-1270,-61,-89,-181,-344,-136,-212,-134,43,-100,-1,-146,-55,-835,-260,-127,-164,-51,-396,13,-143,-166,-205,-189,110,183,-291,-129,-537
// ,-357,-129,-130,-198,-183,52,50,-264,-27,-187,-208,32,-413,-135,-946,-157,1601,-101,-809,-145,940,-440,-190,-2276,-640,-71,-79,74,-154,-364,-33,-630,-79,-161,-55,-153,-267,115,14,85,-96,-52,-655,-244,-142,28,-133,-60,-328,-43,67,8,-11,-218,-34,-72,-1147,111,-91,-86,-100,34,111,-224,100,-184,18,-173,-132,-216,-276,1,-94,-62,-216,334,-99,-142,-70,-234,-169,-103,-161,-27,-263,-124,-56,-46,-2303,3,-133,41,3,-26,-544,-54,62,-1381,-238,27
// ,80,-216,-95,-108,-159,-26,-16,61,-144,-106,-146,-22,-14,-41,-46,-168,1,64,-37,-65,-151,-80,-143,-193,-251,-110,213,-156,-121,-60,0,-125,-31,16,-81,-88,-80,-5,-192,-69,2,-111,0,-304,-41,-121,-138,-165,131,-202,61,-80,-132,-71,-106,-84,-57,-622,-25,-91,-122,-11,-227,-50,0,-7,-104,-166,-61,-158,-161,-42,43,-125,-112,30,-58,-122,-133,-276,92,-47,-45,-506,-216,-177,-98,-82,18,-229,-329,1695,-119,-85,-131,-170,-192,-41,-167,-759
// ,-231,16,27,-303,24,58,-67,-636,-49,-291,129,-314,-27,-16,-78,-22,13,-151,-125,-85,8,-16,-97,-131,-147,-18,99,994,-94,-205,-157,-45,-150,5,-153,-89,-98,-15,8,-125,170,15,-158,-259,-32,-367,-151,-167,-131,-216,37,-87,-169,-31,-418,-82,-201,-37,33,-184,39,-65,-91,-445,-70,-369,-158,-96,-364,-60,-400,-149,30,-57,-183,-57,2265,-377,-142,-188,-197,-92,-62,-98,-135,-52,-136,-370,84,-63,-105,-93,-115,25,-131,407,-43,-125,-68,2
// ,-136,17,104,-125,-12,-222,-238,-106,-28,-144,-28,-139,-348,-37,-69,-424,-138,-133,-9,-285,-22,15,-109,-281,-23,-76,-44,-189,-190,-19,-209,95,-16,-134,-239,-63,23,-100,-179,-154,-301,-174,-126,-14,-211,-110,-11,-63,-53,46,-347,37,-222,-152,-383,34,-160,-142,-125,-154,-145,-28,75,219,-3,-123,34,-99,-100,-88,10,-213,-12,42,-104,-57,-162,-112,-79,-117,-255,-116,-22,-140,-106,57,-230,-69,9,-154,-135,-101,-205,-112,0,-192,-36,11,-174,131
// ,-92,-68,-96,-9,-158,-60,-164,-162,-192,39,9,-128,52,-46,-177,-87,-22,-153,144,-122,-174,-97,-213,-62,-39,50,-234,-45,-130,-109,-91,16,-163,18,-64,36,5,-58,-8,-184,77,-245,-172,-36,-71,-118,-288,228,25,40,48,-71,-92,29,-116,-329,-18,-239,-30,-64,-15,70,-217,-528,-117,-120,-21,-313,57,-92,-106,-107,-27,-70,-115,-36,-24,-123,-89,32,-80,-153,5,169,-58,42,16,-101,28,80,-173,11,-108,-8,-225,-140,129,-4,-63,-218
// ,7,-135,-132,-86,-169,-10,-78,-41,-8,-75,-308,138,-186,15,-3,-43,27,-7,-142,-413,-37,-36,-157,-107,-218,-151,109,-177,74,-281,-37,-231,256,-64,-121,-36,-34,-58,27,-104
// };

// long weight_i_1[LEN_LAYER_0][LEN_LAYER_1] = {
// -8,218,81,-59,23,-4,25,77,145,123,-24,-56,-81,-65,-29,101,-57,-73,-56,254,-51,-44,129,14,-61,103,-46,-81,-169,98,-24,-11,36,-17,-10,-39,-134,88,-60,30,94,0,59,17,-81,-139,22,-24,-66,-36,-78,102,-71,-1,42,-12,64,136,180,-41,17,9,-15,46,-32,-88,-19,29,-59,63,21,174,-85,171,48,2,98,-61,-22,94,29,-16,103,154,-33,141,-101,-157,47,-9,10,73,86,128,-144,70,-113,-90,96,86
// ,93,146,34,25,-27,173,-9,-47,59,64,-15,-41,-40,159,1,-31,-27,99,-4,-26,-13,72,119,149,-83,-86,161,99,92,57,-4,-44,170,77,-11,-57,-43,11,-39,79,43,-6,-100,-42,-100,-50,-52,24,-7,-138,-89,54,68,120,-127,-91,-12,-2,-84,91,-6,-42,138,94,-35,-27,-65,-46,-87,128,-22,46,-315,361,-11,25,128,67,75,86,-89,-28,15,20,-13,-70,-42,-45,-111,-155,-27,46,16,112,48,53,-61,259,-45,-32
// ,-13,-71,-98,-101,-12,-26,6,-47,-30,52,74,110,-19,35,119,88,45,25,-23,-45,97,125,-104,-96,66,17,-38,-23,27,129,41,-101,-12,-72,-26,88,-86,47,2,52,-3,-21,50,-11,-32,-38,9,89,-50,25,-35,-29,-152,-71,-101,-101,-53,-12,21,-109,76,22,-107,-2,59,42,-58,92,-71,142,-24,-86,77,104,-4,39,-14,5,12,11,-4,97,16,-23,-27,62,-31,-67,92,51,108,87,93,57,-105,-59,87,74,-19,75
// ,-85,-132,-65,149,215,-253,-66,-14,-23,-53,72,28,114,66,102,109,-48,-9,-101,-70,34,32,40,47,-20,-80,156,-228,-5,19,160,115,-42,31,12,-5,-82,-66,-33,141,104,102,15,-55,116,85,61,10,-71,17,-80,16,86,141,-14,-56,3,16,41,0,117,155,40,37,76,-41,9,46,-127,-74,44,24,-69,-96,-29,-6,8,4,104,94,68,105,90,31,121,-29,12,105,68,56,17,5,-17,-42,23,-17,-26,107,61,177
// ,-40,-70,50,66,5,-114,-8,-42,-119,-137,46,98,-29,-72,-50,-12,-113,5,22,6,-87,-33,-126,-88,149,59,-191,166,-45,76,73,110,68,49,96,139,69,75,65,23,1,-136,39,34,34,-17,5,-43,54,71,81,31,-58,-38,170,88,-42,27,71,-9,84,-115,180,73,69,113,62,44,-139,-106,65,109,0,43,-124,54,-63,-71,46,28,-274,81,37,26,93,34,13,-18,10,72,-5,56,-141,201,-86,149,-66,143,95,-37
// ,15,57,0,189,-49,290,-42,66,32,92,-55,-60
// };

// long bias_i_0[LEN_LAYER_0] = {
// -886,2821,164,133,153,57,-122,-1422,-40,-4070,-217,-4350,-53,436,297,-221,345,-86,141,-31,7038,86,-233,379,-241,453,-83,355,-729,4459,89,283,152,-98,-3546,-134,-7988,-278,-36,61,271,55,-647,-215,-1006,208,-282,171,-48,-68,-139,423,-235,40,-623,201,-1633,-318,-631,33,-221,-71,135,-345,-739,99,2119,233,-65,-1952,-204,-200,176,190,142,-357,-102,121,340,850,-100,445,-272,230,-22,424,1207,-197,-98,-34,-24,-67,-44,-112,-110,21,-1407,351,73,-64
// ,-190,-22,68,31,-57,-78,-18,284,-1163,305,320,0,315,-40,373,-2260,-29,488,-478,-112,-322,-55,-56,-356,-916,-255,-64,-58,150,-844,-92,-9,-989,-61,2606,-61,-36,-186,-161,67,-743,-80,-404,-29,-46,-85,75,348,9,-268,-199,-171,-11981,-306,-121,272,22,125,-318,-117,-93,-567,-611,2548,16,75,-57,-173,-76,2,-10,-421,195,-412,-74,56,-373,-20,-451,170,341,-214,3138,-92,160,15,106,-128,-202,-87,-182,156,59,-78,0,-55,-93,73,-5668,739
// ,-215,202,103,158,-24,40,275,-193,-43,-128,-81,-230,-1601,220,-38,-215,2,774,-54,-184,-1,117,65,-341,-524,9,-99,-955,-109,1177,-201,15,118,-387,-115,-720,-60,-103,-77,-188,152,-7,-2125,-74,-4619,-433,768,-352,-3516,2645,160,11598,1324,-71,-147,-64
// };

// long bias_i_1[LEN_LAYER_1] = {
// 1374766,-1061064
// };

// long weight_i_0[40][256] = {
// {-169,3,-74,0,-71,-123,-1,78,146,-76,0,-444,-406,-90,67,226,12,606,-109,-150,479,12,-93,37,254,67,179,292,-418,131,-156,-107,40,12,168,119,54,-24,199,139,-242,453,-14,143,125,58,29,-60,110,7,79,-138,-6,-94,-239,61,-29,-12,132,140,-100,-100,39,-6,58,188,-177,40,1,158,-109,65,-5,92,79,-277,-147,80,-803,-59,107,286,73,520,-72,113,458,-257,-20,-2031,-34,-225,111,-133,-15,8,1054,72,117,-47,-20,-35,-74,-149,35,76,-110,-137,173,78,-175,-61,62,-57,-71,-69,434,-13,90,-126,72,13,405,-13,80,-113,78,-71,-24,-103,9,-47,-83,-86,-128,-443,-424,145,121,-101,-77,-326,381,-55,-66,-322,-30,135,-100,-216,84,195,-28,-76,-219,-154,-1337,-65,-21,-112,-184,-73,223,69,77,124,79,125,-28,56,-64,-57,-109,-98,82,156,-131,-177,-23,38,99,80,40,-434,35,-160,-69,78,-84,78,87,201,-165,194,-83,55,142,-39,151,77,-121,-33,-79,192,-115,-3,-3,93,-93,546,-95,25,640,-574,288,-110,342,100,-306,4,-341,-155,221,87,-59,42,-44,92,-575,47,67,-16,-57,-75,-73,-159,406,-311,-699,-11,81,133,-213,-58,-59,64,72,12,-78,13,-115,-73,27,-639,46,17}
// ,{296,-66,25,-102,-40,37,23,-58,292,-123,-19,-255,111,-184,-100,64,-93,29,-1821,6,-593,61,-1194,-141,-342,-76,-91,-126,144,-226,-169,-76,-172,-337,-16,-116,-267,-2805,312,-42,-48,-443,-30,-117,44,-70,46,-27,-407,66,-27,-70,8,35,73,-263,-19,39,-153,-114,-278,50,-452,-143,-127,-303,-67,-183,32,-109,-5,-135,116,-221,-92,126,-116,-6,25,-152,-184,25,-3,-97,-105,-110,273,-49,-78,-654,17,-462,3,-126,-151,-89,44,-110,-68,-156,31,-99,69,-85,-123,87,-49,40,-96,-317,-27,127,-97,82,-211,-170,-502,-75,-23,-19,-36,101,-378,11,-147,-49,93,-24,-27,-54,-12,-54,-69,13,-50,-127,-258,232,-6,-28,-188,109,30,102,27,-494,-414,96,-126,28,267,-26,-93,-31,414,359,-712,72,-210,-83,-440,-80,-161,504,-275,449,-10,-18,-21,-225,-22,-256,-301,-143,-115,-428,-758,-169,107,336,104,-183,-503,-15,73,540,58,65,48,-294,-13,-90,32,-1194,-57,60,-175,44,-214,-158,-138,-18,-356,-49,-92,-115,-165,-394,-136,149,-100,137,-26,-360,-230,-90,-191,-93,135,-34,-300,-218,24,88,31,-102,-129,40,-333,-31,150,-322,-106,-151,201,-101,-488,-85,-324,-61,-114,-129,239,-47,50,-241,-7,177,-44,-491,1,-148,-153,-18,1,-169}
// ,{-309,-52,-85,34,-97,-89,-90,-47,-190,86,-55,-224,57,-102,-117,-82,-95,101,-459,-93,-525,78,76,-118,-228,-18,-149,-11,63,9,-190,-288,-179,-189,-177,-95,99,76,98,-13,5,80,-94,10,-51,-15,-168,-115,-201,39,-177,-83,83,-135,-36,44,-68,-60,-105,-45,18,-173,-428,-95,-176,-95,-5,-38,-36,-140,-71,14,-78,-117,-145,-129,-3,17,-29,5,-106,-44,-152,-342,9,-219,-183,-26,-81,-49,-153,69,-167,2,5,-174,-92,-151,-146,-161,-165,-254,-160,18,-70,-317,-276,-163,33,-56,-100,74,-130,-120,-127,-135,-60,-177,-160,-14,-133,-82,32,-88,-51,-336,-39,33,-123,-89,-81,-129,-202,2,50,14,113,-65,-26,-39,-106,20,-120,-300,74,104,37,-50,-155,-213,65,-92,-30,-69,-135,398,-89,-48,21,2,34,2,-117,-241,-232,98,-163,-76,-153,77,-116,-158,54,59,-65,53,455,47,-46,49,-657,46,-720,-19,-18,-128,-31,53,-96,97,-156,-154,-50,-364,-111,-10,-132,-15,-143,-169,-119,-19,-128,31,67,11,-360,-157,24,22,-257,-53,0,5,119,24,81,-76,-24,-36,-28,-85,-115,39,1,0,-121,22,71,12,58,-81,-67,-158,57,-206,-364,-35,18,80,-75,-118,81,82,-122,158,54,-373,49,263,-49,55,38,63,-159,-61}
// ,{5,-150,-104,55,16,-124,20,26,-268,4,-81,-47,-33,-16,75,-91,-192,-67,59,-148,29,-6,-204,-243,-96,-63,-59,-48,57,-235,-111,-335,-163,-83,-16,31,-107,-420,-17,-141,-240,8,-128,13,27,71,-142,-22,-98,-96,-57,-157,-94,-146,61,36,111,-12,-16,-299,-221,30,-41,-46,-129,-52,-182,-221,-207,-11,-20,-17,-250,-11,-88,-119,-120,-65,-36,161,-81,-96,-151,9,-85,-156,42,-39,-3,-8,-162,-49,-159,-16,-108,-53,-120,54,-3,-94,-169,-232,-26,-1,-142,-49,-148,53,-30,-45,-94,5,-66,136,-183,79,5,-188,-22,-31,-235,-22,33,-43,3,-163,-51,-129,-168,-94,-135,-78,-71,-20,-58,-92,-44,-170,-147,-150,-58,52,-72,205,29,-343,-495,-144,42,60,-252,-129,-114,-150,45,-444,-7,-154,-40,-154,57,117,-81,-97,-256,-58,-156,-167,-88,-123,-87,-189,53,-97,-27,-101,-863,9,-131,-15,-531,-6,353,47,-186,-50,-105,-80,-106,-864,-183,-338,-243,59,-37,14,-95,84,9,73,-208,-9,22,51,-42,-52,111,-40,-139,32,-18,-124,-28,145,-101,-29,-88,-261,-167,-129,-86,-20,21,-84,-140,-193,29,-237,-88,-42,63,-16,-17,-187,7,-105,11,101,19,-114,-50,-164,-113,-125,-17,-176,-171,65,-31,23,-53,-186,5,13,-151,-130}
// ,{-302,93,135,-158,86,-56,46,97,206,104,-237,-440,-1319,52,-13,296,8,660,-26,-237,542,-64,179,-143,377,192,38,187,-791,269,105,172,-165,219,-40,-40,135,-56,215,379,-112,1010,14,-38,372,83,62,-98,-64,323,125,-178,31,-112,-159,21,91,-163,171,224,95,-51,32,149,-74,-63,-342,-273,540,67,149,124,122,256,91,-145,-149,385,-2735,-164,93,-67,-2,253,-129,-50,422,-292,15,-1764,-59,-519,39,32,91,-15,884,-7,-56,-40,35,-70,-29,-66,92,264,-26,-24,-65,-1,-256,320,-45,75,-131,74,216,-209,127,64,-129,23,1008,21,-96,-41,100,-80,-15,5,-68,22,-4,21,121,-802,-219,246,-50,-95,-71,-212,400,195,48,-269,-51,19,-129,-289,759,37,68,103,-27,-60,-641,83,53,170,365,8,-64,-194,210,199,-160,135,108,99,150,11,-111,88,25,-283,-17,-118,-146,96,-50,3,-136,-493,-67,230,-38,34,-101,8,64,126,35,183,-254,-473,46,-78,-42,164,-27,137,50,-314,-26,126,-34,-76,11,-264,-103,34,74,-239,733,-42,255,48,-268,-66,-431,-57,227,-45,14,115,107,-10,-93,108,-678,-511,109,-162,-31,-52,259,-597,-912,15,1202,71,-54,-77,-47,266,-207,53,-80,320,-179,159,-9,-454,-182,-65}
// ,{190,-29,-45,83,-108,-87,-188,-123,363,26,-80,-172,51,-55,-129,-85,39,72,-1846,-210,43,2,-976,15,-314,-8,8,-807,-84,-100,-25,-13,-174,-210,90,-95,1,-1201,-389,49,158,-512,22,24,-83,-33,-65,-132,-392,-133,48,-94,-32,-47,37,-101,162,-41,-105,-143,-70,-25,268,-11,-313,-139,-179,-52,31,-19,-203,-29,-137,-121,-152,174,18,-43,-61,105,-111,34,-124,13,-55,-95,-64,-176,-54,-733,-96,73,-58,20,85,-159,98,101,-146,-187,-20,-160,8,-121,-51,-32,160,78,56,-149,-74,-87,-123,-178,-25,47,50,160,-65,-79,-55,-103,-354,-83,68,-304,15,-48,68,-74,-203,22,-61,-90,49,-123,-248,82,113,-100,18,-172,11,478,67,-145,-278,-139,-34,-10,-217,-68,143,61,-957,-598,-71,-12,-139,-65,-9,-223,-179,428,46,159,-68,-45,-129,-28,18,98,-291,-136,306,-323,-788,-49,-55,383,-307,-164,-456,11,52,-336,-64,-36,76,-253,-129,-72,-105,-846,-43,-21,-35,-92,-192,2,-225,-172,-394,54,-6,-34,-83,-303,-47,-58,-163,-113,-17,105,-94,-165,-206,-64,162,-105,-446,-144,-330,-26,-156,-6,-118,114,320,39,-96,-294,8,79,433,67,-200,61,-217,60,30,-47,68,5,-119,3,57,-56,77,-157,99,-24,50,-49,-169,-215}
// ,{-261,-38,35,74,-16,-102,71,-153,-35,-82,43,-347,38,-490,-55,-169,-114,-195,-480,-94,-194,-78,172,-47,-322,-65,-12,-140,-37,-33,5,-673,58,-314,-94,-113,92,-192,-353,-10,-173,-127,24,-108,-211,1,27,-174,-125,-181,-33,-222,-87,-86,72,4,47,-81,87,-90,-107,53,367,-80,-132,-168,-3,-39,-162,-300,-94,-7,106,4,-147,-268,-25,-98,4,-3,71,-124,-135,-174,-47,-413,-276,-152,-144,-27,48,60,-172,-59,24,65,169,-95,81,-170,-89,-387,-7,-10,5,-220,-262,-43,31,117,-19,-72,-87,-25,-106,-11,65,-207,-120,38,58,-80,-11,28,-77,-375,60,-144,10,-9,-86,-166,-177,36,-123,-13,39,-75,1,17,12,-21,-136,-36,39,50,-535,30,-109,-188,-404,-54,-42,-1,-768,176,170,25,-19,30,-24,-51,82,-125,-169,67,96,-138,53,-120,-166,-22,-90,-157,34,20,-277,1,-21,-133,11,-92,-356,8,-24,213,16,-26,14,105,-22,35,-216,-158,-108,29,-36,-58,-124,1,-131,-171,-265,4,-116,71,-332,78,-168,-8,-128,-238,11,101,-199,-244,-89,147,-45,-41,20,-7,-303,-42,-88,-124,-82,-164,-89,-8,37,-100,-54,-96,-40,-82,-254,-143,-83,29,-31,-109,-69,11,-51,-251,-23,-52,83,-156,-79,-135,-61,20,-113,96}
// ,{-128,-167,-64,-93,-223,65,-39,84,-167,-111,54,-239,-45,-45,-162,0,-74,201,-43,264,-171,59,-109,-186,-131,16,-181,-163,78,59,-121,66,-144,-65,14,-45,96,-437,34,-194,155,-238,18,-28,131,-58,14,-28,-74,-117,-100,38,-150,-129,-32,39,-6,42,49,-25,-279,83,27,-54,-242,-7,-269,-70,131,41,-54,-85,-75,-84,-89,-41,-107,91,-55,-8,-35,-80,-69,34,-169,-179,29,-252,-129,27,13,-217,-115,-114,-123,-87,37,-155,-69,-89,-43,72,-136,-211,27,64,173,-210,-4,-6,-63,340,65,-3,-55,-63,34,78,-43,-24,-66,-97,33,-152,-100,-56,-66,-25,83,-45,-52,39,-195,-132,-23,-15,-285,-86,-98,-96,-6,38,-101,161,-146,-240,92,-73,-83,-343,-40,22,-177,-24,-22,-152,79,-169,-122,42,44,-234,-197,53,-134,-83,-124,-67,-154,-14,-150,-163,-190,31,-89,-438,152,-26,21,30,-558,-141,-1466,-29,-131,-135,-78,-144,31,-132,37,75,-131,-48,-89,19,-135,-139,-63,-218,-133,-128,73,23,-1,-50,-211,-555,-122,33,-368,-192,-47,130,-2,-88,-37,31,-35,-45,244,-243,-19,-124,38,25,-139,2,-29,-74,117,-43,-100,-93,-217,-90,-184,41,-22,-58,-91,-17,330,-31,6,145,-50,17,-80,-427,201,-250,-108,-30,-38,30}
// ,{-147,66,-129,-111,13,14,-51,82,27,2,-238,-261,-3090,34,-109,52,26,618,-15,15,471,52,-31,52,-121,10,99,74,-1202,219,-55,170,56,121,140,41,57,37,-5,558,-81,562,-24,101,1034,-201,-5,43,182,245,-7,-28,-104,-49,-270,-103,40,84,21,37,-159,88,-116,95,87,-84,-167,-66,673,200,-42,-87,78,95,-79,-146,-164,267,-2491,54,-60,-33,-71,239,130,8,294,-184,10,-1030,9,-256,-94,24,119,29,859,10,-56,-76,11,-42,47,110,68,176,25,75,231,-1,-233,908,53,27,17,-82,-145,-53,-56,-38,-36,98,117,152,-134,-33,135,62,6,113,30,110,114,71,113,-1058,-301,902,-18,131,-125,40,153,75,195,-147,92,-56,-68,-278,836,51,13,23,-252,-30,-575,-55,-61,240,-99,54,56,10,-133,762,-125,-26,41,41,-19,-142,21,-168,551,-32,-119,-53,142,-16,-187,-90,-140,-583,2,-250,-134,-88,67,-96,113,80,-26,127,-255,-1592,22,76,-43,-1,124,137,-42,-429,-47,95,5,-73,-119,-661,-3,21,58,-784,322,51,217,72,-1,28,-438,-27,-51,71,40,-78,-21,1,-232,24,-1274,-714,-71,-115,90,-69,365,-437,-1111,-95,953,122,24,109,29,48,-45,24,-9,56,-354,53,22,-542,-38,142}
// ,{28,140,3,55,-78,34,-118,114,287,-13,-134,-158,323,-16,8,-190,-16,108,-1046,55,-296,19,-966,134,-297,-125,-263,-168,-142,-153,1,93,125,-439,-39,-62,-40,-1569,14,-85,-190,-66,115,-192,-725,-113,-97,-58,-295,-150,-113,-72,-78,-35,-55,-16,-359,-145,-9,-85,-115,-42,153,-56,-203,-16,78,-217,-278,-40,59,13,-58,21,90,-118,71,-232,-108,93,-127,-41,-75,-69,-28,-180,61,-147,-51,382,-19,61,-22,77,-47,-45,-2,41,57,-32,65,-357,12,2,-138,117,131,-98,-169,-155,-46,-125,94,-228,-123,-10,-61,196,37,-21,-128,-129,208,-75,88,-273,91,-15,82,-80,-184,15,-22,-104,-65,-87,138,-291,7,18,-59,-137,68,347,-138,123,-193,-117,-116,34,-185,60,-67,-25,-775,-271,244,-72,-209,-132,-136,-157,-44,465,24,-632,39,-128,-123,-46,20,42,-259,57,-296,96,-615,-74,-171,291,-432,-24,-354,-94,-4,-160,-181,36,-133,34,-26,59,-222,-139,-118,72,-144,-33,-76,74,-17,-8,-105,-10,-40,-1,-40,-271,-104,-76,-200,-89,72,-245,188,-135,0,-62,149,-6,-522,-238,-159,83,66,27,-12,-29,-473,61,-35,-746,-23,-38,-757,-80,-260,106,16,-21,283,51,-195,-88,6,-79,28,153,-161,-113,111,34,-100,-230,14,-125}
// ,{-56,41,34,-64,15,78,-23,-133,19,-124,-32,-201,55,-248,-59,-64,-229,107,-13,-205,-412,6,168,-114,-750,-143,-234,92,-78,-49,6,-129,81,-240,-49,-24,-165,-159,125,-213,-22,-100,-13,-126,-574,-192,-126,-44,-39,-91,-114,-228,-7,-20,-231,12,-264,26,98,158,-234,6,27,-121,-32,-44,-123,12,-146,-31,-111,-40,55,77,-54,-7,-51,-258,22,159,58,-115,-78,-523,-158,-160,-508,-268,-121,48,-78,86,-34,-146,-81,62,-74,-30,6,-286,-157,-253,-130,39,-136,64,-256,-48,-141,149,26,-267,-239,-314,-9,-38,52,-109,58,-57,-23,-79,63,-18,-70,-175,-163,24,-273,-24,-37,-130,-45,-56,42,17,-101,-499,3,-136,-183,-92,-150,-306,-132,12,-339,-42,17,-109,43,-34,71,30,-205,-338,52,-13,-130,-17,34,-32,-61,38,-207,-264,-21,-54,-70,-16,-79,-105,-192,-112,-324,-94,-963,55,-65,-141,89,-134,-34,-3,-84,92,-89,-111,-25,-982,-19,-70,-81,-279,-94,38,-73,68,-87,73,65,17,-20,-15,-138,-4,-249,64,15,4,-85,-101,-27,-14,41,-190,-78,-32,-320,-3,-35,-89,80,-118,-115,-266,-77,7,-15,-52,104,-108,19,-186,100,-233,-268,-106,-39,7,-14,38,-189,18,-140,-112,-15,-120,-49,283,-143,-46,7,-92,6,59}
// ,{-597,-39,-82,-40,-3,3,35,-148,-249,-93,-83,-171,32,-216,41,-32,-13,-73,-508,151,3,-243,66,-199,103,-106,-65,-391,65,19,121,-478,-84,-148,-9,-171,59,-549,-150,-175,-32,-55,-11,-50,130,-38,-116,-126,-165,-90,-167,-97,-116,73,-74,34,-46,-155,-92,-247,81,-122,-17,-83,-224,-32,-174,-14,49,-255,34,-137,-79,5,-116,-73,35,-189,-18,-264,16,-12,89,105,-20,-41,-18,-12,-61,25,-23,-290,-57,-25,-93,-102,79,21,-141,-137,-151,-7,99,-57,23,-218,74,-31,-184,-825,-86,118,-23,219,-112,-190,2,158,-88,17,-9,-12,42,-59,64,-22,14,-42,-73,-38,3,15,37,0,-114,6,-334,-72,-125,-125,-78,75,53,88,-28,-193,-118,-13,62,89,-143,-14,-160,-78,-133,-70,164,-157,58,-11,58,-67,-8,191,-113,109,-16,-163,58,-270,-59,-39,-59,23,38,-89,-123,-116,-257,-127,-68,-55,-439,-1,-150,-130,-144,3,4,276,-108,-291,-34,-89,-107,11,7,-175,-231,-65,-155,-38,76,12,-184,-29,-8,32,29,30,-192,-47,-17,-18,-107,54,5,-116,82,25,17,-222,-445,5,-163,-27,-119,-192,15,-151,89,-44,31,25,6,-47,-43,-61,-87,22,-33,-184,92,-141,-59,-142,-39,83,-83,192,-106,-112,-114,-89,-4,-7}
// ,{285,59,104,-123,-121,-38,-138,18,-1045,-24,-261,-236,-2049,-40,-176,65,84,456,60,246,231,108,19,52,-164,150,-37,189,-1784,-19,-126,246,-20,26,212,86,33,62,18,433,-261,-412,246,36,100,-35,-118,36,95,-11,-29,-249,-77,129,-38,-372,59,-151,-88,217,37,123,632,-20,104,29,-183,-252,581,-30,127,-23,78,183,-122,66,-81,285,-2027,-97,35,32,47,168,-84,-207,153,-175,139,-1200,-152,-239,-82,-133,73,-120,288,159,-151,-102,152,19,-10,185,-209,578,-66,6,-5,33,-117,369,59,177,98,-134,-447,97,62,-66,-29,-75,-604,153,-23,-119,144,-15,24,-105,-96,133,-74,-46,-133,-1888,-208,200,-138,-115,-162,127,70,99,127,21,118,130,-79,-75,388,-14,95,110,-345,6,-643,115,-25,154,-274,35,-72,-624,8,-334,-8,-119,-109,51,165,-198,-12,-128,281,-284,-129,56,87,30,-148,101,-48,-217,-97,-658,-90,-20,-119,83,125,158,103,-23,-172,-1848,-18,170,-29,261,-100,112,-15,-26,-77,7,-153,-1,58,-86,-32,-134,-162,-832,-51,148,156,243,79,-100,-499,-40,19,15,86,54,-141,-41,-290,-105,-1835,-439,24,-2,76,35,52,-23,-931,12,160,133,-83,-125,1,246,71,66,-173,292,-262,133,-15,-90,-73,112}
// ,{-171,54,-3,-57,-185,-101,-178,-81,611,258,-310,-16,-908,56,-61,103,24,322,-185,-156,429,5,-83,255,-538,-102,-244,-37,-921,16,-61,72,191,-423,-28,-19,57,-1234,-920,76,153,756,-54,-168,417,68,-43,-9,-170,-20,10,-210,-158,-133,87,716,-325,-117,65,-142,-12,69,861,47,-99,-43,-187,-442,144,283,122,-241,75,14,72,-184,37,162,-819,168,-89,-723,-87,108,-29,-165,-208,-265,11,-486,37,267,-447,-66,100,115,338,-29,-135,-339,17,-773,-45,-10,-12,-16,-157,-69,-137,-369,-84,311,-141,-71,-32,-131,-672,43,66,14,-14,14,999,-138,-115,-293,46,-93,74,-39,-106,-2,-77,86,-50,-680,304,545,-131,44,-174,93,50,38,16,565,-279,71,-64,180,-27,-101,-123,-4,110,314,-839,22,-202,35,-626,134,71,-530,156,-496,-66,-230,-34,43,-166,265,-195,-183,411,-916,-275,-103,122,-485,-542,-44,-370,298,-162,-689,24,-63,-160,102,20,-11,-242,-442,-110,-886,-80,-91,-142,-11,-154,93,113,984,-203,-155,-9,-509,18,-899,-106,-158,876,-634,240,-7,23,26,-2,-25,731,-17,-73,-134,46,-130,73,145,-996,-191,-847,-905,-100,-116,-407,-47,-98,708,-635,-106,972,-40,-185,-182,-91,35,56,22,-111,225,288,155,22,142,88,-30}
// ,{-33,68,-119,-154,3,-128,-95,-188,335,-81,-204,-87,-106,-222,-86,-65,-136,50,68,-27,82,-72,-1080,-180,-372,-157,-94,187,-22,-2,-119,79,31,-70,-108,7,-95,-189,-169,14,-19,64,-10,-27,366,-1,68,-115,-178,-23,-134,-66,-185,-143,-283,123,-26,35,-150,-45,-140,-78,175,55,22,-38,-133,-64,-16,52,-138,1,-124,61,43,-120,-74,-27,-186,-564,-142,-112,-7,44,-136,9,-857,-214,40,-52,-121,-411,-25,-182,-17,-9,19,-59,-174,-139,7,-361,11,174,-173,-344,0,6,-160,-242,-105,-13,-269,-161,-129,53,-94,-175,-65,-90,-117,-248,141,-85,-7,36,-248,-109,-166,105,37,-124,-98,-47,-7,-14,-435,267,11,31,-93,-117,-132,-566,34,-827,-537,-95,-155,80,-194,-89,-71,-13,290,-872,14,-35,-19,-49,-330,-8,-17,-561,-327,-171,5,-21,-5,-1,33,-261,-151,-207,-11,7,-757,-112,-191,-146,187,-13,-143,437,-100,102,-105,59,19,-69,-38,59,-30,-653,-163,490,-17,-44,-201,64,-94,7,-38,235,36,-40,-5,-249,-27,-557,-11,-34,-687,-112,-63,-26,58,-231,-343,-100,217,-213,-122,-102,-20,90,-147,-112,-555,-44,-79,-157,-108,35,-619,-214,-313,-70,-40,92,315,-55,-51,38,-163,-126,-56,-107,-135,-101,24,-32,12,326,-136,-234}
// ,{309,41,-16,-2,-50,-167,-157,-71,-116,-117,68,-43,25,40,20,104,-23,-1033,-249,98,-200,-224,147,-271,-129,-4,-15,-176,-43,-234,-1,-101,15,-105,24,7,-130,-273,234,-19,-92,-30,98,-56,-360,-218,-192,-14,-134,-28,7,-284,-150,-37,29,53,-65,-124,23,44,20,-27,26,43,-248,-111,-60,-24,-356,-281,26,-102,-125,-72,-71,-131,-32,-16,-79,-353,-175,-26,-134,-3,-56,-160,-171,-212,-181,-50,-65,-388,-52,20,-23,47,-701,-66,50,-267,-16,-155,63,-330,-73,107,-136,36,-115,141,-121,-628,100,-85,-62,-92,-3,49,-150,-36,-98,100,46,-158,-67,136,-47,-41,-171,-110,-140,-91,-144,-59,18,40,7,-91,-102,48,-99,58,-36,-118,-58,-397,57,36,-51,40,70,-173,-16,-48,221,-497,109,-66,-200,-132,40,22,-100,-572,17,11,-171,-62,-4,30,-175,95,-85,-153,-109,120,36,-13,-21,47,-1,-117,-78,19,35,-26,-62,-147,-54,96,-194,-26,-169,284,-37,87,-162,-50,-220,-182,-125,-118,44,59,-116,-61,-32,59,-81,-24,-2,37,-78,-49,-189,-81,-133,46,122,-180,-168,-28,129,-82,-34,-6,-125,-105,36,6,64,-16,-90,-109,-229,-26,55,28,-42,-117,-62,-41,-396,-124,-6,-324,-134,75,25,-187,-943,-173,-102,155,-163,-27}
// ,{-139,192,-74,-126,212,-53,-41,-44,1234,-582,50,-414,754,-362,-99,-66,-41,-404,-50,-62,502,66,-115,-60,477,-36,-88,574,412,-300,-143,-212,-196,32,-67,-306,-216,81,-89,-174,-173,-25,21,258,-737,-84,114,115,291,-250,52,303,63,144,-360,-1290,24,282,19,98,61,6,-1308,-55,-56,-129,-129,734,415,-671,-321,532,-126,59,-97,-78,-117,-656,720,-31,-48,1499,133,15,41,162,291,-349,133,20,129,-360,911,-93,29,-593,61,155,-120,543,-40,171,-24,-77,232,355,-149,-8,-53,153,31,-310,73,133,-85,-97,1244,-43,44,171,67,-105,-1051,33,120,-50,400,238,5,-125,110,90,14,89,-116,138,-469,-993,-66,28,-68,-458,-170,199,145,-366,17,106,-16,-548,-191,417,7,-62,-1084,133,194,125,245,-565,957,-241,116,-389,-340,-1224,91,219,-38,-187,71,-92,87,-46,-1262,35,-14,125,-130,327,173,9,6,-691,9,288,40,-6,-19,-151,65,-379,32,-50,38,1234,-49,63,322,-395,-5,-39,-481,-899,-88,47,-179,124,-116,1495,53,-56,-420,396,-466,77,-107,21,-290,119,-454,-146,-139,90,6,242,14,14,158,367,452,637,122,24,37,69,233,-1563,-98,1,-1886,28,-120,70,-129,28,-227,-76,-51,42,-523,-84,-160,-1037,-330,-61}
// ,{-780,-282,-30,49,117,39,-16,-6,-2050,-394,67,-2007,780,-438,-168,-51,-79,-228,-441,-813,-375,-124,-304,-258,-45,-165,-162,473,382,-268,-83,71,-340,-156,-55,-243,-204,-1101,-1436,-142,-420,-371,-157,56,-812,-97,-50,-120,-4,-195,-43,-18,-157,12,-472,-1113,-452,147,-263,-208,-4,62,-1218,7,-66,-253,107,396,-233,-213,-179,147,121,-31,120,-448,-1,-509,961,121,-102,469,34,37,-19,-62,-431,-304,85,623,-50,-1002,384,112,-8,-502,69,-70,87,315,-65,-518,-192,-239,142,-325,-287,66,-11,-416,129,-458,38,-363,10,-174,416,-159,43,-83,-6,-35,-984,6,-153,-333,-197,46,-66,123,-46,1,67,-84,-130,375,-713,-1076,-116,-34,-2,-741,1,238,-198,-1051,-242,-149,-136,-924,-665,88,-111,101,-1649,293,272,-116,179,-387,562,-412,-188,-399,-533,-2221,-18,51,-14,-367,-142,-119,-97,-95,-954,306,-298,48,-385,-507,197,-28,-130,-4941,117,400,-153,93,19,84,-64,-294,-245,-454,146,758,35,-63,81,-296,-33,-87,-626,-1353,70,69,-238,-397,67,966,-64,7,-967,552,-257,-268,-130,-222,-524,-86,-2631,-223,-751,-40,-6,26,-74,-146,-80,-58,567,228,41,47,-258,36,200,-981,537,-1,-841,-57,-528,-126,-76,19,48,22,-44,-402,-644,-234,-36,-4198,-242,90}
// ,{-314,-328,31,-110,52,-72,17,33,-1789,-37,-109,-477,201,-32,6,-153,-199,-170,460,-747,-993,-117,18,-143,154,-11,-216,-1763,7,-130,-6,25,-19,68,-223,-99,-107,405,-247,-154,-229,-95,-36,27,119,-114,-83,-32,111,-93,-54,-53,-160,-28,-1489,-63,-331,-157,-33,-233,-40,89,-219,8,-2,93,-215,-135,-178,-124,-21,-104,-175,-108,-94,-369,49,-40,121,19,-256,-69,-139,-161,-118,-7,574,-357,-10,25,-104,-33,-78,-64,43,-64,-1,-117,-135,10,24,203,-38,-82,-98,-563,-502,-113,38,-139,-46,-903,10,-191,-121,-80,64,-443,-138,-107,-68,-123,-63,-71,-127,-113,-218,45,-6,-105,9,-156,82,-153,-131,110,-142,-207,-164,-178,11,-812,-189,371,107,27,-57,13,-152,-238,-332,-33,-259,-106,-66,116,213,-107,-191,-130,384,-63,-90,-268,-131,-341,44,-143,-12,-136,-67,-271,5,-55,-488,156,15,-114,-29,-68,-176,67,166,-505,6,-51,0,-59,10,-107,87,70,-276,553,85,-921,-37,-11,-48,-6,76,-38,-243,-252,-28,-17,-87,140,-14,581,-19,63,640,198,-138,-32,-130,-3,-920,-39,-731,-272,-273,-82,48,-270,79,82,499,2,128,47,51,-138,184,-324,-502,-1082,96,-4,-311,155,-576,-83,-2,-204,19,-133,-102,-166,-289,-301,-43,-547,-135,-67}
// ,{139,-13,-138,-36,-96,40,-83,-108,-186,-35,-158,3,18,-295,-122,38,-30,-805,609,-192,-22,-230,-356,-111,-9,-147,3,-267,6,-136,-201,-60,10,-40,28,-8,-82,197,-343,54,-182,-59,5,-33,-112,-203,21,-73,118,-49,82,37,-138,-112,-43,18,76,-33,-278,30,-161,-97,-31,16,146,-65,-26,-171,-445,-80,22,7,-11,-143,-166,87,-56,-86,-13,-511,-3,-200,84,-230,57,113,-1,-103,-70,-18,-48,-242,-92,-191,-105,-65,-414,-83,-117,22,-50,132,-90,-233,-89,74,10,-157,66,101,-142,-404,-126,150,39,20,-13,-107,47,15,-11,-110,5,-123,-33,-69,115,-59,-29,-56,-98,-15,23,-111,-144,-23,-207,2,15,-91,-166,-177,-165,-153,-120,-110,-224,-118,-103,7,-11,-18,39,49,-4,444,112,-10,-40,-78,151,-117,-170,164,-312,106,-152,-125,49,-114,-202,96,49,67,-74,-268,201,-142,31,-253,-140,-172,-761,-8,24,-130,-33,30,-185,104,43,-209,0,-232,-47,-76,79,-144,3,-42,13,-54,-154,-10,-82,-87,-117,-203,2,86,74,65,29,87,9,-119,-31,-146,-68,-6,-89,155,-252,-18,-51,-199,4,-196,-165,-66,24,-4,32,74,-161,76,-542,-110,19,-166,-52,-96,-256,-157,-18,-9,-88,-119,49,142,-701,-65,-123,32,-336,-73}
// ,{1048,-268,157,181,301,97,39,-117,-123,-582,84,769,960,-193,-28,-204,-67,123,609,1179,-87,9,-235,632,-55,-118,363,1359,587,-349,-436,-126,-558,289,-28,3,-71,954,211,-138,-170,-630,83,-15,302,524,-110,-93,-248,-394,71,84,-150,28,725,64,-303,128,-422,-239,-133,-60,436,112,-87,-53,72,489,-414,-349,-316,336,38,-57,-25,403,25,-275,1136,39,-38,791,-107,-705,45,49,-385,789,-116,-509,-107,293,243,-118,-134,-734,-645,-68,24,430,-123,-353,-174,-515,191,-137,812,-95,6,-270,357,-15,49,-334,73,85,641,-777,-47,-35,38,-13,-1131,-104,8,152,-407,147,42,-126,-60,-54,21,29,3,-241,855,-81,80,21,98,955,-216,227,41,393,-114,-111,15,-40,-133,201,57,-148,-1105,-203,-973,44,-31,-314,865,-381,-188,92,-422,-50,-88,-59,108,-449,-143,93,-80,56,290,78,187,146,-581,34,-524,32,-118,291,17,96,-81,-102,49,-8,-71,-311,28,-4,67,-410,-42,-139,-96,-276,119,-166,-388,-2164,120,-60,-333,445,-140,1335,-95,-114,-868,-44,-436,-386,-36,-185,389,-31,894,330,142,43,50,117,-108,113,909,5,476,80,107,0,-314,65,-87,452,485,28,744,-127,-299,122,46,-36,-49,-134,-69,-747,1567,-169,-116,487,70,82}
// ,{314,-487,-38,-80,-8,73,-17,34,253,19,3,68,776,-73,-132,-31,83,197,164,358,336,-111,-408,445,-81,-488,75,93,-1328,167,-115,317,-827,-69,-36,5,-124,-204,-283,-248,408,-1938,-26,214,-551,155,13,69,-195,-517,-54,-125,-4,-112,-248,-2340,-135,37,-766,-694,-92,73,-736,15,-194,-77,-67,43,28,-165,-74,85,50,191,-145,103,-64,-6,323,-131,-19,137,142,203,-5,-130,365,240,34,-2726,91,26,-87,87,65,-803,-366,135,-75,37,-231,-110,-129,-179,-76,235,140,122,-135,-119,-22,-614,127,-187,25,48,-953,-621,141,95,50,-153,-2116,25,-112,-82,-29,127,-39,82,-143,-152,-129,-31,-96,-3203,232,-104,-39,-83,12,962,118,-1240,-103,100,180,113,-102,-623,-507,35,-116,-77,-282,-1195,-677,60,76,-169,-293,-980,-51,-619,-1017,-759,-64,253,-152,-652,-89,267,-10,106,-3,135,17,-47,-769,-74,97,68,50,134,-41,-3320,-40,-111,-63,-39,15,4,-91,-754,-128,66,118,-40,93,-89,-148,-197,-109,-1108,12,62,-495,92,54,454,-47,-51,-40,-205,-563,-310,-54,44,397,74,374,461,-491,-137,-14,133,38,121,411,255,-2408,-1520,-45,33,-1233,-169,-44,519,-2447,-178,72,-104,-284,19,-134,-135,-185,-234,-111,-776,437,-24,62,-23,-79,57}
// ,{23,-357,-96,-58,-188,-131,-194,-118,-78,-151,28,-162,105,-362,50,51,-18,-298,-3469,301,-134,-106,-87,-113,-227,15,-126,57,-201,44,-31,-463,-127,-66,-55,-27,-140,-536,236,-99,-29,-36,-121,55,121,-46,-53,63,-1030,-82,-39,-202,34,-2,171,-185,198,-72,-167,-146,150,-174,-15,-58,-134,-65,193,-2,53,-131,6,-97,-45,86,-167,-56,-123,-59,31,-235,-66,-68,-152,81,-209,-409,-1,335,17,414,7,-103,85,-6,21,-107,-184,-204,76,-18,-22,-400,-46,-99,-12,63,-70,-148,-22,-238,-292,-26,-275,225,-10,23,873,-116,-165,28,-124,-87,-39,8,-89,-104,-183,39,-123,-36,-11,-122,-226,-138,-174,-336,89,96,-161,42,-12,315,-174,-25,-71,-17,27,23,-43,2,-132,31,-47,-107,24,176,213,-93,-185,-119,-69,-96,-125,-55,-291,52,-42,-15,47,-81,-151,-190,-43,3,-12,-185,-143,4,-90,-11,247,29,-460,101,-82,-291,-151,13,11,-491,20,-6,-228,-2336,-157,23,62,60,11,-122,-348,-97,-242,-71,-239,-51,-108,-182,99,57,-88,-209,16,48,-66,-28,22,-105,-274,5,-151,-166,17,13,-186,-175,-44,-108,285,-41,-1623,31,-4,12,273,-12,-223,13,-518,-46,5,-107,181,-149,-294,-81,-18,81,-261,-53,172,-212,-1,-257,-167,-221}
// ,{-78,127,-144,-83,-49,-50,-58,-73,139,-139,-173,-14,28,-62,-68,-130,-37,-14,-200,-28,-103,71,-427,-243,-287,-59,-15,23,42,67,-212,117,-29,-97,19,0,-385,184,-45,-59,275,42,-169,-109,1,-249,41,-170,-155,-132,37,-118,-116,-46,-9,12,94,33,19,-178,-13,-87,-5,33,-11,28,-145,-33,-183,-20,-6,39,-114,-64,-36,-165,28,-109,2,-513,-263,-129,-168,160,-180,-78,-39,86,-158,74,-162,-185,-92,-187,-102,-75,-59,-24,31,-102,-95,-136,-158,-74,24,-35,75,-102,-129,-636,23,-14,-116,-3,15,-122,48,89,-85,-74,8,-50,15,-170,-149,17,-89,-139,-53,74,-5,7,5,-79,-152,-30,-74,14,-153,-9,-181,-22,83,19,-10,17,41,67,43,-69,99,-55,-98,16,16,-476,51,-54,-127,-162,2,-30,-190,88,-16,-8,44,-153,-36,-31,50,-78,-56,-96,-111,57,35,-35,-2,205,-84,-254,-53,20,-129,-34,20,-36,-44,-62,-65,-3,-14,-270,-62,-4,-142,-128,-32,-168,25,-86,-68,-2,-70,-154,42,-192,-24,19,-16,-76,-22,42,-77,-52,-65,-11,52,-59,201,-119,-177,23,-188,-27,23,-154,-69,-132,-87,-10,51,3,181,-69,57,24,-42,-128,-52,-43,-137,-29,17,-97,-264,154,-182,-115,56,67,-39,-27,-77,-184}
// ,{-99,-36,-46,-8,-59,-142,-127,-109,-124,-61,-57,-71,37,38,-135,-102,80,46,-208,-117,-39,5,-508,-315,-41,-216,-158,-101,-2,-125,-107,-380,-141,-88,-114,-168,-143,-156,43,-199,-28,-36,-151,-182,-15,9,3,-131,-34,-1,-72,-117,-268,-137,-157,33,-69,-27,16,5,-12,-173,6,-133,-175,-116,-176,-19,-116,-67,-268,-54,31,35,-48,-201,-91,-132,-6,-892,-209,-114,-86,138,-115,-191,-44,19,16,15,23,-191,-101,42,-20,-159,-116,-56,-119,-144,79,-163,-97,-62,-38,-51,-43,-130,13,-65,-54,39,2,-111,-155,-68,6,141,77,-132,-24,50,24,33,25,-28,30,-129,-14,-136,-114,38,-149,-195,41,7,-254,158,-203,44,-43,38,68,-539,-135,-88,-3,-166,-125,15,-130,-103,-97,-174,-83,232,68,-107,-231,-98,34,-32,-261,-20,-25,-65,-4,-155,-114,-150,51,-234,19,-72,-43,-9,62,-112,30,-244,66,-22,339,36,-141,65,-30,-44,-77,-632,-46,-123,-25,-14,-7,-11,-7,-86,-67,74,-116,-96,-223,13,6,-134,16,-118,-110,8,-61,-67,-6,-1,-98,-204,-145,-105,-140,-13,2,-167,-142,27,40,-112,-79,100,120,-160,46,-8,-55,75,171,-19,-215,-52,22,20,1,6,80,-4,-13,76,-342,-70,-71,-273,-47,48,-128,-33,-61,-83}
// ,{353,-13,-103,19,106,-124,-184,-42,219,-215,-61,598,951,-36,127,-11,131,1816,-152,254,-420,70,211,676,402,-173,44,1061,439,49,151,43,-36,163,164,5,67,-199,-826,-286,771,-757,35,171,896,0,-29,123,-100,-211,-77,-72,-56,123,1243,-619,174,-162,-280,-230,371,-3,-93,113,-128,-124,6,238,1080,62,-217,75,-107,-186,114,342,32,-276,587,-47,318,574,-133,955,-18,0,1125,202,29,-1085,121,720,125,-59,-25,-216,1451,-164,-156,413,17,-546,119,29,-143,-160,679,-19,-170,224,154,1683,-146,254,47,20,1689,1388,116,-12,-61,183,-616,-83,-2,365,-378,140,426,-73,-53,-64,-91,83,-84,-1117,-150,447,-100,32,33,181,38,-331,5,1084,-111,-73,-7,532,-62,-40,23,128,973,24,-343,66,181,169,872,-676,1,-45,-336,-250,-9,57,54,150,-85,355,163,116,324,-1057,-160,136,-474,109,-428,-150,80,546,-16,-631,-45,133,-121,40,57,-251,312,-241,119,242,-123,6,-65,-375,37,-162,295,71,8,45,-266,458,18,1175,-150,1,137,540,-195,262,108,-169,832,15,535,205,-344,-11,-63,206,-27,178,210,186,-1391,537,-144,-34,-121,-69,429,890,-824,-148,-1113,6,1087,36,-56,37,145,566,-109,1089,-396,70,107,586,358,-128}
// ,{442,-248,-158,-58,-8,-102,43,-133,259,-229,181,27,654,-405,-36,-235,-63,582,118,171,353,34,230,253,-114,-580,-46,387,-760,-350,-38,6,-256,-70,-26,-266,22,-223,-665,-440,423,-1856,-41,14,-122,21,-155,96,-45,-753,10,-6,43,-150,235,-2779,467,81,-837,-845,-86,-17,-1123,-25,-81,-243,14,65,268,-222,-111,-3,110,-213,-100,285,-95,-282,324,-227,182,213,95,594,-122,17,559,341,-113,-2857,-121,403,72,142,-91,-843,638,3,49,265,-43,-259,-16,41,131,-377,-53,-92,-64,-53,-46,437,-33,244,-114,-170,-1520,742,-8,1,-34,48,-2068,146,-136,-115,-20,90,369,113,4,-141,-127,-44,22,-3609,424,-1255,-79,-148,-120,92,-48,-2161,-211,428,-110,-54,-114,106,-1049,84,-110,18,459,-912,-1015,-13,21,-75,-353,-1127,-251,-1964,-1152,-1510,-80,-67,17,144,-20,372,-125,-2,198,600,-3,-42,-1139,-112,136,-4,-148,275,13,-3115,-46,-55,193,91,21,-51,250,-85,-25,55,-99,-47,168,-540,-26,-246,186,-107,-166,-55,-785,547,19,495,55,54,19,-465,-647,81,12,-329,168,-29,310,527,-794,87,25,193,-60,-189,-562,207,-374,-1029,-142,-56,-3356,0,-94,-34,-1814,1,-804,-92,322,71,93,-209,128,-109,-108,354,-519,-325,57,415,293,-97}
// ,{-101,91,-133,-164,31,-114,-149,-6,42,-107,37,-164,361,-449,-45,-32,-130,116,-2436,14,77,-139,91,-147,-326,-116,-282,111,-191,24,-137,16,-69,-205,48,22,-108,-2924,114,-25,-468,12,24,-193,56,-216,-96,13,-373,-51,-128,-224,-63,-124,256,97,23,-184,-151,64,44,-55,12,-147,-282,-34,-26,-87,-45,-122,-248,52,-127,-141,-127,-93,-29,-116,24,-367,-80,-87,-122,51,-154,-316,-32,-110,-165,709,130,-139,43,-74,-96,3,-14,77,-150,-115,-141,-1104,-13,-49,-40,125,97,-119,-10,-758,-116,-14,-195,174,-9,-92,-562,-169,-104,10,-140,46,-173,-14,-62,-246,-287,-38,-71,4,-113,-148,99,-21,-104,485,164,33,-61,24,179,-55,-150,-889,16,78,-205,16,24,-73,-123,-17,-3,53,50,-851,-335,34,-264,-108,-1365,-94,-19,-28,-270,67,-79,102,-72,-109,-69,-168,-71,29,-70,62,-241,-493,-70,-27,-743,-81,-844,-76,-95,-1670,45,-113,-74,62,-180,-113,106,-1962,3,-19,63,-79,-248,-74,30,-49,-379,-204,104,-133,-56,-84,-51,16,-345,-9,11,-477,-66,-8,-61,-91,136,44,-111,103,-78,-112,-134,-44,-43,14,216,-19,56,100,-118,-55,-905,-69,-74,-101,890,-44,108,-15,58,-196,-238,20,35,-409,100,113,-265,-81,-178,48,-109,29}
// ,{78,23,-22,1,-160,-148,-160,-40,-87,-106,-215,-31,20,-96,-1,-26,55,-95,-130,28,-2,39,236,-66,-139,-202,-64,29,-20,-120,-138,-374,-126,-174,-122,-173,51,31,101,62,-162,62,-172,-118,18,-96,-52,27,-27,-126,-25,-47,-47,63,21,35,-139,-64,-20,153,-211,-90,2,-88,-50,-62,-43,-102,-75,0,-47,0,77,-208,-97,2,-7,-93,-41,-726,-65,-153,19,-426,-185,15,-107,-232,69,70,-183,111,-85,-49,-77,-105,-273,42,-123,-6,-79,-363,-68,-138,64,141,-92,-28,73,95,-153,-45,-82,44,-114,-141,-55,-28,-169,-137,-53,-122,18,-219,8,-67,-38,42,-66,14,1,16,-164,-24,18,45,-128,-177,-44,-158,-78,-162,-146,-95,-96,-1,-86,24,-158,-110,-150,-84,-108,-17,-43,-548,-2,32,-51,1,-113,-81,7,-211,-34,-30,-63,3,26,-35,49,-218,-130,-20,-17,-20,-136,-12,-33,-472,93,-164,-33,-17,-115,-104,-14,-11,-74,-390,-169,-28,-114,-87,-68,-17,-121,81,-68,-52,56,-155,-37,-18,37,-46,-283,75,-163,18,86,-118,-23,3,-58,-20,-13,-156,-16,-143,75,-47,94,-75,64,-259,-206,-21,6,-61,49,24,-83,-48,59,-149,-122,-94,106,-96,21,47,-57,-155,-167,-93,-191,59,35,-18,18,-185,10,100,34,5}
// ,{-463,84,45,-52,79,-114,-197,17,-237,-52,12,-102,23,-39,17,-110,-108,-111,-80,-524,42,29,-1079,-168,-43,-18,-15,-82,-65,24,-27,-625,-109,-142,-48,-39,-380,5,21,16,-272,-256,-101,-103,53,38,7,-92,-55,-60,-8,-27,47,49,113,25,-237,-130,-81,-168,-97,-96,19,-91,-160,89,-53,-142,-93,-131,-29,-65,-95,-217,52,-145,-27,-76,-23,-312,-47,-91,-99,100,-96,76,-11,-134,-29,-6,23,-143,-152,-4,-119,-13,19,-14,-16,-76,-119,141,59,12,-67,112,120,6,-189,-607,-147,42,-124,-336,56,-83,-15,5,-101,-35,-23,32,4,63,-80,-411,-236,-110,-107,-51,-154,25,-216,-145,-88,5,-305,-27,30,-129,-78,118,-70,-189,-12,-33,-444,-152,-72,-107,-134,-49,-11,-131,-76,63,-6,21,3,18,27,-36,-10,201,67,26,11,-73,-63,-147,-27,71,-110,-50,-19,-99,-1124,-73,-51,-192,94,-134,-431,-8,95,7,-154,-157,-101,-556,-28,-297,-75,100,-73,-3,-97,-102,-118,-15,72,-24,241,-20,-231,-91,-69,-503,-85,9,-162,-65,17,32,-137,-141,71,-79,-156,-81,-1,-43,-136,-67,-56,-54,13,-118,-27,-81,21,-25,-3,4,-185,-61,-106,-83,56,-120,51,-159,128,10,36,-110,-113,-115,-159,-99,134,-218,-128,-8,-15,48}
// ,{433,1276,43,13,70,-130,-15,111,-15,-68,149,631,874,-58,3,120,-123,1175,-19,666,-173,246,52,884,192,-455,423,1797,-871,230,335,48,158,160,139,-69,-1,-356,-732,-229,932,-516,29,130,851,-131,80,-85,-626,-194,40,192,145,-42,1398,-1038,-7,-49,-180,-298,275,54,-185,113,125,103,90,223,703,27,-94,19,-33,-112,71,722,-153,-539,614,-92,423,360,-96,598,38,193,712,538,-79,4,-43,1144,280,79,83,-2,-416,-224,-45,145,38,-517,163,114,26,381,498,151,-163,-173,-77,1815,-150,198,-26,93,1377,351,-94,25,192,92,-691,185,-133,280,3,-37,242,23,14,-100,29,-132,61,-129,592,565,-101,-44,-72,815,-113,-671,60,1512,73,-45,117,704,-337,-19,354,102,-840,-18,-3151,-91,-91,-33,473,-325,13,-297,-100,367,-119,136,77,-149,-38,751,133,88,505,-1249,148,-103,-249,-107,8,4,-108,425,-11,-955,102,32,-174,51,37,-387,325,-121,-113,606,-51,-122,-107,-9,-61,-182,997,283,-65,-40,-71,531,86,842,-204,-231,-20,739,254,199,66,-232,887,63,784,871,-365,-122,-24,-60,-126,-61,315,78,-2199,-407,62,153,-1703,-14,216,327,-1369,114,-333,58,802,83,89,154,-116,744,-189,819,572,471,-152,717,334,-129}
// ,{313,532,123,-7,100,123,-121,122,185,-217,176,255,444,-207,139,69,167,528,-469,117,204,26,-311,293,445,-765,-131,475,-1390,-41,181,15,-37,-4,54,-117,-6,245,-1059,-60,456,-1821,90,96,-886,8,-42,-126,96,-621,-20,34,84,-70,303,-2429,-488,132,-791,-992,63,113,-1009,-147,-30,-127,-151,-2,466,-49,-98,22,62,-149,-141,229,7,-684,1114,-246,-293,80,-51,167,-68,35,458,178,65,-3427,-43,358,294,-67,-62,-380,-145,21,-31,149,-198,20,76,12,119,-38,94,25,-271,-35,35,254,-9,14,115,-237,-1260,200,-8,-70,-118,-14,-2296,-63,73,452,-89,100,166,12,4,-226,-113,-145,33,-4078,354,-1067,10,-178,73,178,-31,-285,-125,407,26,54,-90,-43,-1243,121,193,0,-1242,127,-566,-136,123,62,-273,-1272,-103,-69,-1130,104,10,130,143,-22,-17,449,-63,-39,-106,520,172,7,-829,148,70,-168,-114,261,-51,-2501,-46,-22,-65,19,-10,-695,44,-109,-72,-6,64,-138,218,-445,-114,-238,263,-145,8,129,-694,332,37,325,-102,-124,61,-940,36,85,160,-260,349,113,510,462,-513,-7,209,361,-29,-126,-836,29,-232,-1978,72,106,-971,-161,354,406,-1624,-31,71,56,290,-51,-35,251,72,253,108,161,-29,392,9,498,195,94}
// ,{-208,144,-119,-19,22,-46,-89,14,-48,29,67,-31,-557,-190,-90,60,-229,89,-3088,-342,-2,-218,-61,-29,-100,-13,-162,-19,872,-154,-14,46,5,-281,-67,-20,5,-522,202,-94,121,-132,-32,-188,-3,90,-79,-57,-891,-62,65,113,-205,-133,-296,-169,-34,20,-91,-27,-185,-111,-40,-114,-173,-92,9,12,-111,-108,-62,138,-10,-159,50,16,104,-11,701,138,-126,-172,-242,-209,64,144,211,32,-70,-464,-77,-145,52,-79,0,-36,6,-223,55,-71,-24,-630,-95,-151,-65,-256,-192,-56,-65,-206,-14,13,-156,-125,23,-31,-343,-346,-119,-64,-48,-57,-133,11,25,24,22,-73,-236,-51,-197,-92,-86,-210,-53,-668,98,205,-180,71,-4,-96,-132,-434,-100,126,-366,-170,-73,47,-34,-59,26,4,167,-282,238,61,-66,-81,211,-35,-195,-128,-334,247,-23,-93,-39,-68,54,-115,-186,3,24,79,-697,44,-135,-289,-728,-142,-190,-16,59,-31,-54,-138,-14,0,-234,-85,43,-1861,147,-37,-61,-130,94,-158,-85,-126,49,142,11,-28,-86,137,-100,-47,62,-38,-9,-1328,-108,2,-174,63,50,-34,313,-153,-5,-114,-108,55,-7,-8,-1304,-63,-87,393,75,-135,168,-41,0,211,245,-11,73,2,-471,65,177,-27,-199,234,-210,-18,4,19,-22,31,-102,-155}
// ,{66,-61,-123,-129,-58,-103,-102,-180,-197,-26,-141,-189,-50,-112,-126,-126,-167,30,-131,24,-74,-150,-95,-320,-126,-30,-262,10,-16,-112,-34,-369,16,5,-6,20,-161,38,-114,-95,-125,-170,-69,-20,5,-164,26,77,-82,2,-191,65,-13,-134,83,17,-71,38,15,-108,-25,-14,11,-105,6,-189,72,-87,-85,-32,-36,-67,-31,-220,-78,-52,-3,-104,23,-64,23,-41,-86,124,53,16,-39,64,-84,-54,-44,-77,38,-86,-13,-130,109,-32,-28,-109,-62,-314,-58,24,-20,281,-104,-48,-30,-499,4,-18,-40,-550,-10,-5,-24,-88,34,-136,-158,-36,10,-10,-185,-192,26,-181,19,-51,39,-67,-113,-35,56,-91,-198,-55,28,-120,-131,-135,-45,129,-68,-137,-20,-82,18,-161,-59,-59,-105,-29,98,-273,25,39,-95,3,23,19,83,-244,-70,-6,61,20,-8,-40,-187,-94,48,-143,-13,-144,207,-13,-113,50,-445,-160,-23,20,-156,17,-29,-38,-42,-162,51,-111,-134,-197,23,0,48,-39,-30,-124,-248,7,-62,16,-138,-6,-96,86,23,23,-267,-21,-21,-148,-34,-222,141,-49,-409,32,-93,-52,-111,-132,12,-231,-37,-32,40,-146,14,28,-150,-138,165,-54,-4,137,62,-100,1,38,47,-182,-26,-296,5,-365,-150,-171,0,-11,59,18,0,10}
// ,{-211,-83,2,-41,-110,88,-109,-126,-74,-211,-35,-173,27,102,6,-30,-114,-22,-198,116,-226,-25,-279,85,-180,-9,-108,-116,1,-160,2,-112,44,-107,62,67,-105,454,32,-131,136,-28,-38,-48,50,-131,-164,-23,-77,-131,32,22,68,44,107,0,135,-139,-40,31,-163,-72,-10,-159,-144,-259,-156,-125,51,-91,-24,1,-51,87,61,-189,-158,-85,-7,-96,34,-7,21,-23,-78,-332,-60,-156,-86,35,-58,-79,-46,-152,51,26,66,-171,-86,-178,-44,-607,-47,-21,-99,27,-213,-3,16,-27,9,6,-42,-84,-237,55,11,-182,-131,-170,36,-119,7,21,-88,-32,-179,-14,-198,-129,-52,21,-114,-41,-136,-50,-423,-189,-45,-121,-159,102,-62,37,-154,-56,-281,-151,-30,-93,-58,-141,25,-23,-49,178,55,-26,108,-22,52,-103,18,-470,66,-16,-163,-99,-249,3,-79,-27,-107,13,-55,-111,-335,0,-40,-215,-89,-33,-992,-21,-48,24,-31,-93,-64,-442,47,14,-48,157,29,15,-141,-90,-139,-137,18,5,-38,-9,-41,-125,-68,-168,18,19,-117,-196,4,26,-60,-124,-196,31,-28,-40,-78,-57,-126,-124,5,-66,18,6,-77,-116,10,25,2,-115,-223,74,98,-97,-3,-63,-42,-169,-76,52,35,-46,0,48,-88,-34,35,33,-74,-19,-275,-98}
// ,{1040,580,-7,60,-55,136,-12,132,194,-64,-151,724,629,0,-129,-33,65,-922,-56,1381,-71,158,57,789,646,-188,573,1227,519,107,-99,-55,163,-148,109,10,-84,-18,-634,-70,-203,-626,-139,360,-880,-66,-65,-24,-554,-182,-134,-67,-3,-20,-90,-193,106,-242,164,-237,-185,8,-617,-118,59,4,-172,21,-413,109,-135,-115,95,35,1,558,-7,-55,564,53,282,196,19,-159,-106,-275,1171,739,-178,-585,43,330,43,-108,-107,-106,-241,-146,146,34,-196,-302,27,-13,-143,-120,1164,-113,-8,48,-284,129,120,911,11,135,1094,436,-132,-139,18,-72,-992,164,-53,-120,-253,144,122,-92,-65,81,4,107,84,-26,928,21,-167,147,56,1331,-39,-215,-104,1046,71,46,87,411,426,-2,269,30,-193,-12,-341,-49,-114,-5,228,237,67,-42,-430,667,-173,117,38,383,-184,8,-158,-1,355,-360,180,-83,-292,-320,-191,161,-34,789,29,-1573,-109,140,123,19,113,-313,299,-45,-32,279,7,69,-53,-174,-76,28,787,821,-116,32,-156,-270,113,880,-220,-7,-159,-49,-47,-231,9,-130,645,-20,1259,575,-375,-1,39,363,160,-76,962,27,-533,-198,-91,41,61,157,-14,997,-330,-59,440,68,1140,-28,-406,11,97,127,-34,1281,501,4,9,973,144,-80}
// ,{177,-82,107,73,-65,-26,33,-81,528,-426,-262,314,710,-135,-61,-97,34,-317,-498,415,257,255,-464,231,464,-791,413,578,-368,-78,-98,51,-7,277,-67,-44,-187,-999,-880,-233,225,-1905,26,37,-1770,136,29,-7,163,-716,71,271,166,121,-69,-2241,-500,14,-245,-734,-28,-71,-1172,4,-31,-401,70,175,-88,-293,-37,-33,73,-143,12,302,24,-386,284,-320,-203,178,14,-657,-45,319,334,231,7,-2664,15,417,139,-17,82,-602,-30,59,-77,156,-90,327,-181,87,-16,-962,553,161,-22,-81,155,151,88,171,-190,-5,-504,219,-79,-49,-145,22,-2283,-102,107,292,39,-21,38,-94,-6,-110,129,-34,8,-3076,289,-790,103,13,-195,227,-142,-905,-215,338,30,-18,45,1,-1176,-24,93,-150,-1664,-1019,-2776,68,-2,-155,127,-70,-230,-1318,-1427,102,-34,234,-180,50,-153,352,76,11,-89,-895,389,21,-1089,301,36,-180,85,300,-134,-1590,24,-5,9,191,35,-251,173,692,26,168,-46,-5,-115,-451,-105,-17,171,-314,-65,-118,-879,-675,11,574,124,-4,45,-354,-674,-433,-156,-466,421,97,282,174,-849,1,-108,-245,62,-55,-615,-252,-497,-1447,-25,41,-1763,104,318,412,-3144,-157,412,-127,312,-30,115,172,172,-57,-82,371,78,-326,90,381,13,112}
// ,{-65,-445,-51,-116,75,-73,-56,-91,-53,115,-44,-28,-495,-278,-121,-22,-203,-273,-685,50,103,-87,-579,-41,-65,-106,169,-13,-598,-47,-40,0,-28,282,-34,-105,-97,-1956,50,-152,-822,-13,-112,79,-50,-151,-117,-98,-220,0,38,101,-167,-136,-25,-90,-104,-78,-138,-73,81,-7,34,22,-360,-54,110,-3,-261,-106,-7,-163,-71,-60,-70,-195,-71,-69,143,-263,12,-87,-128,116,-129,229,-85,-271,63,-403,-179,-23,-270,47,-23,-125,-281,-321,-52,-24,-88,-1147,-93,23,79,13,28,-11,-45,-680,93,-73,-278,-169,-16,-36,-99,-394,-139,-7,44,-31,-156,-80,-155,13,-410,64,7,-19,102,-96,-23,-24,-53,711,307,75,-47,-40,-293,11,-2,-1267,-43,8,-510,-122,12,-25,-66,-36,-109,-13,148,-716,-1372,-142,137,44,56,-64,-57,-791,-359,135,-55,-151,-47,-62,97,-323,-378,-7,125,-67,-965,-277,-102,-385,-238,-215,-741,-9,-139,491,-135,-3,-194,-49,-58,10,-240,-1318,-21,52,-89,-101,38,-144,160,-108,-99,7,137,-135,29,111,-158,56,110,161,27,549,-25,-193,-56,-84,-636,18,-435,226,-31,-63,61,-167,17,-78,-1343,-42,-25,730,-50,-104,-1666,-35,-116,295,-814,-77,-33,-52,-152,2,-58,-79,-151,-270,117,185,92,74,12,31,-118,-198}
// ,{-123,57,52,-78,-25,-41,-214,-65,-84,64,-178,54,-38,-22,-62,-112,-171,-25,70,-82,-71,-158,134,-114,-60,-149,-303,-15,-58,-63,-114,-66,17,-99,-178,10,-126,-15,-82,-83,83,-55,-166,-159,69,65,2,-63,-99,-7,-44,-108,-70,-136,-347,8,-75,25,-242,-189,-105,67,-8,22,-39,-114,77,-33,80,-21,-79,-161,-179,-111,-56,-118,-50,-71,-8,-40,-210,-65,14,-166,52,93,-22,-227,-8,-61,-164,-63,-3,-124,86,-84,-156,44,-172,-56,36,-137,-18,-98,-109,24,-373,-220,-179,-317,2,56,-14,-64,-47,17,-37,-106,-7,-168,-3,-11,5,66,47,4,15,-75,-132,-131,-201,-92,56,3,-156,63,-154,-12,-26,31,-34,-195,-108,88,-124,-94,-159,32,-38,-28,-106,-59,-32,-67,11,-332,-118,-28,1,-71,30,-144,7,247,-10,47,11,-51,-129,-112,-103,-78,-180,-91,-45,-43,-38,-173,-23,43,72,-49,-26,-2,-41,79,-19,-196,-12,-770,-130,-20,55,-261,55,32,44,-14,-127,-75,-81,-26,-122,-8,-38,56,-79,-313,-87,16,-236,-56,-10,52,-78,-106,-138,-33,1,-160,84,-154,-68,-70,-155,-76,-114,-103,-98,-95,39,51,-145,31,142,23,-78,132,-57,-191,16,-232,-1,-163,-134,-54,28,-185,-179,-127,-149,-77,-95,67,-106,-81}
// ,{-46,-50,-174,10,-101,-103,50,-119,-192,-50,-43,-35,-5,-385,12,-5,-57,75,200,54,-80,-66,193,-208,-156,51,-42,-116,-1,93,-93,54,-78,-41,-120,-68,-40,-522,7,-47,-80,-211,29,-55,28,-237,16,-119,-19,-73,-189,-31,-47,-159,17,26,110,-76,-90,-150,-43,-157,10,43,61,-152,46,-41,-192,-68,-154,-82,-181,-48,-38,-454,-115,29,-22,124,-102,-69,52,-68,-85,-286,16,-275,-119,-1,63,-212,-115,-49,-112,71,-162,-25,26,-44,60,-218,-158,-105,-31,-148,-153,46,-169,14,5,42,-205,102,-54,-146,10,-515,25,-43,-178,-41,5,-34,-80,-73,-281,-175,-262,-72,-45,-99,-111,-42,-155,7,-112,-190,-159,-98,19,-11,-47,55,-156,-52,-708,-143,-77,-58,-99,-122,-18,-155,71,152,-34,-71,-39,38,85,-56,-75,-29,-339,25,-66,-133,-60,-170,-96,-226,-211,-159,-51,-134,-2341,-21,40,-122,15,10,-226,14,65,-27,-162,4,-35,83,-28,-13,-4,150,-44,26,-109,-60,-15,-72,-235,-38,-326,-4,-26,-147,-207,-189,-106,8,-79,-46,2,-43,-51,89,-174,-96,-37,-107,-203,79,-73,8,-157,-377,-176,-98,-4,-113,71,4,-77,-99,-47,16,-98,69,-3,-208,-43,-47,-265,-83,-101,-163,-89,-307,-18,-166,198,-6,-29,-5,-70,-183}

// };

// long weight_i_1[256][2] = {
// {95,111}
// ,{119,98}
// ,{61,54}
// ,{-131,-122}
// ,{-130,-98}
// ,{-94,-50}
// ,{-65,-46}
// ,{-58,-31}
// ,{-510,428}
// ,{-52,-34}
// ,{56,142}
// ,{-49,-61}
// ,{51,103}
// ,{28,139}
// ,{18,38}
// ,{-16,45}
// ,{117,57}
// ,{123,-48}
// ,{-153,211}
// ,{36,3}
// ,{-342,352}
// ,{-112,-74}
// ,{17,182}
// ,{1,-9}
// ,{-43,52}
// ,{53,29}
// ,{53,-5}
// ,{-277,415}
// ,{60,139}
// ,{-25,-66}
// ,{-131,-97}
// ,{-176,394}
// ,{-41,-17}
// ,{-39,195}
// ,{-69,-68}
// ,{-64,-45}
// ,{-30,32}
// ,{-44,211}
// ,{79,15}
// ,{55,-2}
// ,{-42,-57}
// ,{113,50}
// ,{119,13}
// ,{-15,21}
// ,{75,4}
// ,{101,74}
// ,{39,42}
// ,{47,122}
// ,{-51,16}
// ,{60,-1}
// ,{-89,-42}
// ,{-60,132}
// ,{60,0}
// ,{-33,-63}
// ,{143,-88}
// ,{155,-82}
// ,{-80,-83}
// ,{-77,-37}
// ,{-4,-37}
// ,{27,-106}
// ,{-31,-20}
// ,{19,52}
// ,{207,63}
// ,{-73,-46}
// ,{-125,-114}
// ,{-48,-31}
// ,{41,62}
// ,{86,104}
// ,{35,77}
// ,{-2,72}
// ,{45,59}
// ,{-9,-10}
// ,{28,61}
// ,{29,17}
// ,{59,87}
// ,{107,161}
// ,{-109,-130}
// ,{82,58}
// ,{65,143}
// ,{-312,223}
// ,{24,7}
// ,{71,106}
// ,{-6,10}
// ,{52,-11}
// ,{61,41}
// ,{-205,195}
// ,{-181,117}
// ,{1,-34}
// ,{68,88}
// ,{-80,39}
// ,{-10,55}
// ,{6,-54}
// ,{-26,12}
// ,{-21,100}
// ,{-67,-4}
// ,{17,59}
// ,{33,-38}
// ,{17,30}
// ,{11,39}
// ,{-28,29}
// ,{-33,-46}
// ,{9,94}
// ,{28,16}
// ,{71,97}
// ,{-113,-95}
// ,{-19,-79}
// ,{103,81}
// ,{-21,17}
// ,{-78,-77}
// ,{-123,261}
// ,{-61,-37}
// ,{178,54}
// ,{-13,20}
// ,{-59,-122}
// ,{37,-6}
// ,{-69,-61}
// ,{-54,74}
// ,{146,-74}
// ,{-117,-111}
// ,{55,71}
// ,{-67,-73}
// ,{37,-23}
// ,{194,-55}
// ,{12,56}
// ,{-128,-87}
// ,{-70,84}
// ,{57,-65}
// ,{7,-8}
// ,{-80,-51}
// ,{-110,-21}
// ,{-93,-52}
// ,{15,-22}
// ,{-5,50}
// ,{94,68}
// ,{-100,-74}
// ,{-13,109}
// ,{0,-52}
// ,{39,42}
// ,{-77,-113}
// ,{59,99}
// ,{-51,-51}
// ,{-14,-115}
// ,{47,32}
// ,{-62,56}
// ,{117,57}
// ,{105,-119}
// ,{74,170}
// ,{-63,-29}
// ,{-105,96}
// ,{34,69}
// ,{27,13}
// ,{70,123}
// ,{127,110}
// ,{53,-30}
// ,{86,-11}
// ,{-72,20}
// ,{-34,58}
// ,{105,-34}
// ,{127,76}
// ,{-61,-40}
// ,{43,127}
// ,{-1,8}
// ,{121,100}
// ,{-81,52}
// ,{-51,141}
// ,{99,29}
// ,{-14,-13}
// ,{88,96}
// ,{-59,-33}
// ,{58,89}
// ,{-61,-42}
// ,{158,119}
// ,{60,95}
// ,{11,-30}
// ,{76,168}
// ,{-282,502}
// ,{-255,200}
// ,{41,40}
// ,{110,123}
// ,{-220,166}
// ,{-65,120}
// ,{12,-33}
// ,{-399,356}
// ,{148,-248}
// ,{-49,-17}
// ,{-119,-33}
// ,{82,42}
// ,{-88,-92}
// ,{30,-4}
// ,{-358,488}
// ,{-30,-8}
// ,{67,-28}
// ,{-42,-47}
// ,{-44,149}
// ,{-4,52}
// ,{-27,191}
// ,{-7,-4}
// ,{71,-103}
// ,{14,69}
// ,{57,110}
// ,{69,127}
// ,{-57,-116}
// ,{65,22}
// ,{150,68}
// ,{-10,-27}
// ,{50,-4}
// ,{13,53}
// ,{-359,148}
// ,{-129,120}
// ,{-31,197}
// ,{-185,-37}
// ,{-7,-2}
// ,{551,-263}
// ,{42,126}
// ,{124,113}
// ,{82,27}
// ,{-39,6}
// ,{-127,-116}
// ,{110,108}
// ,{79,92}
// ,{63,-46}
// ,{-38,-70}
// ,{34,-20}
// ,{-109,-137}
// ,{35,94}
// ,{60,75}
// ,{-84,-43}
// ,{36,92}
// ,{-47,135}
// ,{20,-16}
// ,{-37,56}
// ,{13,171}
// ,{32,-36}
// ,{-88,-66}
// ,{-40,80}
// ,{83,101}
// ,{-29,85}
// ,{62,16}
// ,{-95,40}
// ,{41,-69}
// ,{154,78}
// ,{50,18}
// ,{39,-39}
// ,{-33,66}
// ,{43,53}
// ,{67,67}
// ,{-58,-42}
// ,{-1,-82}
// ,{-36,-36}
// ,{122,74}
// ,{79,-43}
// ,{-82,-56}
// ,{-146,-107}
// ,{148,-187}
// ,{70,79}
// ,{-34,-16}

// };

// long bias_i_0[256] = {
// -373,-265,-37,-91,-196,-55,-86,-46,66,145,-167,-259,295,227,-20,-51,-79,197,346,-46,-34,-64,84,-288,-239,40,-208,61,-653,72,-4,49,146,-316,-24,27,31,301,327,16,-319,696,-51,-250,826,-125,-65,-58,50,55,-50,-222,-35,-72,-35,1549,-59,-233,53,29,-139,-46,1267,-57,-3,-40,-219,-507,12,163,80,-252,-43,-18,-66,-261,-65,181,-910,-13,-87,-538,-43,-185,-61,-202,481,-404,-74,-907,-86,-473,-482,-65,-25,278,-131,-115,-48,-469,-37,200,-53,65,-183,-100,-160,-66,-38,-57,-188,291,-86,-103,-84,-37,-576,-172,-65,-84,-63,-76,1589,-44,-62,-89,-101,-116,-160,-34,-121,-54,-82,-84,-60,-1002,-389,663,-95,-48,-137,-135,-81,350,-34,-445,-153,-70,-71,96,123,-350,-29,-30,401,247,45,-58,-236,121,48,255,-55,31,428,582,-94,-283,-23,32,-80,-184,-84,-64,301,-244,111,-151,227,-81,-153,-90,114,-465,-43,-183,-97,-73,-118,-19,-62,157,-137,598,-151,-935,-73,-59,-223,115,-136,-24,54,1193,-128,-66,-2,-111,-26,-454,-88,-128,-679,202,200,11,-60,-21,-192,-146,-286,-209,64,-20,-98,-118,-67,-31,170,-232,395,-1862,-44,-52,130,-175,1,203,-222,-39,283,-84,-94,-66,-102,-29,-115,-172,-84,119,180,-178,-64,-635,-47,-53
// };

// long bias_i_1[2] = {
// 524260,-200407
// };

long weight_i_0[31][256] = {
{-56,73,-153,-234,-98,-98,36,-9,-415,-227,29,-29,30,-54,-130,8,49,-91,45,38,-900,-72,-100,-116,-10,-66,-354,-72,-12,74,-30,9,-81,19,26,-101,-29,-285,-31,-116,-52,-21,-105,86,-167,-79,-83,-83,-95,100,-200,-205,-2,-157,-295,-290,-240,-2,15,-154,-207,-2,92,-46,-136,11,-4,57,-244,-198,-48,-63,-81,20,-307,-81,-99,-196,-58,-50,-73,-219,-102,-113,19,-216,-88,53,-37,89,-48,-37,-172,-790,39,-199,-198,-36,-134,-2,-53,-130,58,-150,-315,-55,-147,-8,-101,20,-21,-44,-122,-65,-86,-63,44,-83,76,-84,-41,-163,-91,-77,-731,-275,53,-55,-72,-164,-661,-63,-65,-170,-20,-238,-76,-163,-28,-140,-132,-214,-225,-19,-45,-77,-54,40,-87,-167,4,15,-118,77,-99,-23,137,-48,33,59,-185,36,110,-47,28,158,-419,-41,23,-139,-23,-98,52,-81,-26,-127,-123,-114,-175,-154,-162,-27,-27,-123,-140,-53,-110,-38,-115,-249,-126,-69,101,-785,41,-11,-207,159,-142,-150,-111,-82,-58,-205,-49,-137,-65,-142,-171,-465,24,-151,-13,-655,55,-162,-24,-66,-71,-329,-579,-51,46,-319,-48,-207,12,-158,-100,25,-141,-174,-27,-158,-101,-6,27,-13,-159,-356,22,20,14,-97,82,-5,-131,-188,-21,-176,-706,48,77,-220,-48,-95}
,{-20,66,-89,101,-19,-109,7,-171,-228,-263,26,-38,-10,-272,-79,-208,-150,-129,-136,67,-158,-15,-27,-255,-10,-8,-554,-98,-122,86,51,-158,-41,-128,-104,-26,-10,44,-172,-164,-62,-92,40,-22,-156,35,-207,-180,63,-178,-173,-100,-69,-111,-820,-93,-35,-153,-2,-157,-233,-147,-93,7,-205,-21,-203,-42,-206,-81,-36,-130,-29,-72,-181,-186,-8,30,10,-34,-25,-183,-48,-21,-68,-2,-237,-89,-31,30,31,-57,-80,85,-114,-118,66,-55,24,-107,-88,-235,-30,-98,78,-124,-217,-72,-383,7,-79,-47,-111,-37,-146,-51,-35,34,-2,-135,-88,-34,25,-55,84,-45,-10,2,-31,40,-155,6,-53,-331,-129,-80,-86,-147,-24,12,-130,189,-262,40,-24,90,-95,-123,1,-97,-65,-50,1,-233,33,-134,-200,-1,-14,-194,-159,77,16,-194,28,63,146,-78,-24,-36,-30,-16,-135,-81,-31,-103,-104,-16,42,5,-77,-76,-40,-130,6,-127,-105,-130,-248,-260,-69,52,68,59,-1,-60,-132,-262,-109,39,-5,-62,-19,-36,-72,29,-53,-178,-38,-99,-367,-68,-74,72,-107,28,-51,-110,35,-320,-297,-38,-59,244,-10,-188,-148,42,-16,26,-47,83,30,-77,-35,82,-139,-96,-278,-146,55,18,-23,-138,-26,-24,-109,-218,51,50,-370,-5,-94,-107,-23,-102}
,{-118,-163,-159,24,27,-130,9,10,-24,-5,1,11,-8,-154,-54,-181,-149,20,-102,21,-14,-11,-43,-202,-15,24,-236,29,-10,-78,-2,-212,49,0,-176,-202,-72,-276,-154,39,-41,-147,58,-119,-185,8,-182,-197,-218,-86,-52,-68,25,-24,-208,-7,122,54,-1,-129,-195,-132,-71,-11,-38,10,-59,-28,-191,-106,-31,-139,-185,69,54,14,-5,-105,-41,49,-46,-123,-1,-96,95,-181,-97,62,26,33,-98,-22,-107,-100,-115,-32,-18,-117,-160,46,27,-172,-48,-75,67,-95,5,-126,-126,-64,-150,-35,60,-171,1,-28,-80,-161,49,-20,-229,-116,-107,-35,-67,-87,-158,-21,-116,-185,90,-105,-108,-168,-131,61,-141,-120,-92,94,-1,-285,99,-21,-15,-128,-111,-257,-154,-56,-107,-26,33,24,-7,-151,137,-141,-12,-100,-88,-3,-149,-267,-11,83,-235,-95,-70,-28,-77,-20,-89,-139,-51,-165,31,-80,-54,-92,-90,-64,-175,16,-60,64,-90,-238,-70,-83,-177,-146,-48,-17,-203,-14,-6,-281,-90,5,-103,-130,-18,-109,-40,-92,-97,-104,57,-4,-191,-75,-157,-65,-25,-151,-29,-11,-36,-154,98,-174,-40,-177,-154,-77,-27,-56,-85,-91,-12,-162,-112,-148,-15,-1,-123,-182,-28,162,-40,5,-49,-43,-9,-25,-75,-115,-128,36,-38,37,16,76,-82,-12}
,{1,-62,-71,8,-27,-102,-151,-153,-255,-239,74,21,-74,-311,135,-86,-41,-45,-81,-194,-953,-136,-292,-157,-39,-116,-244,73,23,-87,60,-35,-56,104,55,-55,-20,-186,-72,85,-181,-36,56,33,-184,84,-68,76,-187,53,-121,-336,-54,-79,-493,-254,-97,-152,-1,-197,-411,124,51,36,-28,-175,-47,2,-257,-28,-118,-175,-160,74,-13,-99,67,-298,-17,-91,28,-156,-58,14,30,-203,-47,-33,-166,-128,6,-17,40,-581,-93,312,15,-85,-78,-11,2,-135,-169,-235,-144,-22,-129,-119,-261,-174,-114,-45,-2,-192,-97,-2,-171,53,-17,-103,79,33,60,-13,-1158,-139,-161,-91,-100,-156,-207,-2,-53,8,-66,137,-155,-86,-117,-119,-54,-177,-625,54,-45,-29,-61,-108,-103,-267,-97,-166,-26,22,-205,-302,155,-155,-115,26,31,-155,76,-48,-89,-133,-456,87,-4,42,4,35,-133,-190,-1,-117,-95,-10,-106,13,-88,-153,-91,40,92,29,64,-90,-136,-132,-68,24,-237,-1099,18,58,-28,157,19,-145,-157,3,-45,-192,60,-219,-160,-173,-168,-877,-289,-190,11,-490,-162,-163,-98,-40,-164,-409,-599,-83,53,-281,-82,-94,5,-134,96,28,-22,-16,-28,-166,-57,-132,26,-172,-65,-463,-54,15,7,25,-71,25,-193,-50,-98,-88,-555,-17,-91,-346,29,-28}
,{85,-35,-290,-158,-37,-1,-164,-32,33,-271,17,-90,-8,-295,39,-123,-25,66,-133,8,61,-34,-170,-272,-34,87,-446,-105,-8,-175,8,-155,2,-70,-143,-87,-77,90,-151,-125,-128,-88,-163,24,-123,-129,-96,73,-80,-252,-121,-142,14,-101,-451,-241,-215,77,3,-235,-277,-61,-124,3,-129,-22,-68,-73,-198,-47,-3,-173,107,-40,48,62,-62,-36,-34,-143,-51,-83,-82,52,-138,59,76,-120,-33,-193,-257,8,-97,-481,-186,-109,-102,-3,54,-42,-214,-239,-67,6,-36,-167,-35,6,-373,-29,-111,6,-61,39,33,-123,45,81,-1,92,-76,-29,-46,-60,1,-127,-48,-117,-32,27,-49,-2,-112,-178,-167,255,-21,-187,104,-60,-56,51,-28,19,41,-57,-121,-134,13,-237,-76,68,-39,-203,-175,-375,-150,-27,-154,85,-153,17,16,-131,-104,-134,-373,-155,-195,-69,-87,15,-117,-7,-116,-29,-185,-132,-171,-218,-156,-106,-49,-201,59,-44,-38,105,-335,-236,18,-121,45,-204,51,-116,-9,-167,-234,-87,-141,-39,-150,205,-55,-217,-244,-224,33,-173,-206,-136,39,-72,44,10,1,-79,-73,-195,-443,-143,-108,221,-81,-278,7,-5,10,-104,-37,22,-28,-134,7,-138,16,-34,-229,-145,-86,14,-29,36,-46,-83,-105,-46,-208,-162,-494,-27,-49,-38,-124,-115}
,{82,66,-133,-41,-55,-126,-58,40,-153,-133,12,27,-28,-171,-82,-85,8,-85,42,46,-82,-125,-101,-113,-233,-144,47,-91,47,-131,-26,5,27,-71,-81,-129,-59,127,-49,-137,21,-158,-83,-137,-169,-2,-110,-81,-74,-202,-54,-80,-206,-93,-76,76,-163,-26,3,92,-73,-32,53,-96,-53,-105,-41,-144,-105,19,32,-145,-34,43,-163,82,43,2,-33,45,-10,-113,-27,-27,-12,-180,-173,-88,147,-32,-66,-22,-7,-38,-24,147,-133,-5,-25,-31,-107,-184,-4,-87,-293,-137,105,-39,-59,-95,-69,-27,-108,-236,-79,-67,-16,35,-71,46,-113,63,-137,-19,-87,-189,-19,-92,-60,-127,-58,-104,6,-131,-50,-110,-140,-48,24,3,27,30,-402,28,-265,-39,-34,-177,8,-99,-141,-46,60,-150,-82,51,-147,-199,-168,-74,-84,-115,-47,-13,-157,20,-153,-34,-206,-56,-32,-27,-153,-149,-114,-55,-24,-158,-24,-193,-169,-76,-21,-74,-104,-46,-46,-65,-62,-59,-139,-34,-176,18,-55,-75,-162,-237,-78,-139,-10,-70,-203,-313,-137,-198,12,-266,-140,-172,-159,-24,-230,-285,-204,-68,-29,-13,-122,-148,92,-90,-145,-732,-124,-274,63,-69,-136,30,-45,-173,-80,-55,-61,-221,6,-51,-53,246,19,-94,-21,-214,53,4,-134,-33,-153,76,-16,-15,-4,146,-53,-56}
