
/* Trace */

/**
 *  updated on 09/02/2020 15:02:01
 */

#ifndef __W_SDF_H
#define __W_SDF_H

char name_sdf[] = "Trace/sdf";

long weight_0_T_sdf[256*31] = {
-203,-82,-133,-184,28,-129,-197,-158,-122,-121,24,-24,229,-96,-100,-76,65,11,-46,-51,39,18,39,-155,-13,3,-38,-4,-158,-102,22
,-211,-163,-75,-205,-188,12,279,-141,5,-166,-176,42,690,-1322,-301,24,322,253,-30,118,124,-498,-171,186,341,84,-260,4,136,-157,130
,73,97,95,34,-25,-98,132,-36,-12,18,-128,-246,-135,-48,-207,-174,22,30,-63,-153,-21,19,126,-188,92,-49,-15,-223,-71,76,-76
,-139,-69,-283,-51,97,27,11,-497,127,-191,-38,-230,1032,-274,289,-112,211,-119,-387,702,-264,-990,-163,-144,-741,272,51,302,-324,-589,-322
,-10,2,44,112,-32,-180,-81,-58,-37,208,-56,-118,-466,-54,-27,-143,16,-30,10,1,-35,-15,-35,-98,-136,-94,8,-157,-25,-159,-80
,-1210,102,-28,-1291,-96,37,-1189,-94,48,-1138,-64,-83,2165,464,14,147,-53,-38,-98,-23,36,-22,-139,18,114,-25,-142,138,-76,-223,-88
,-60,490,-73,432,-242,180,100,321,-172,902,-397,-178,-2261,-8,-70,-169,-407,-229,-106,166,-60,-51,168,-345,-140,316,-89,-858,136,-69,-199
,-167,52,-3,-605,-52,11,-163,-26,-16,-874,-206,20,2780,521,52,313,28,-74,-17,399,24,-16,23,322,-6,-27,49,872,-20,-21,25
,510,78,-389,-707,288,-147,-423,29,-103,-935,370,-300,-929,-217,-157,247,40,-116,336,105,-54,-47,-222,-311,-396,55,-126,-284,-305,7,146
,-290,-191,-861,73,250,-16,-1404,-64,106,-594,-721,190,-886,-73,-32,-311,140,-6,-5,240,148,158,65,-201,145,135,-388,-86,270,-314,-309
,-682,-323,-284,-32,-22,-400,-1314,-97,-113,-1056,-373,116,-2984,-657,-68,173,-156,121,221,119,227,-350,2,546,62,122,292,620,135,-36,10
,-1162,417,-29,-541,-184,-27,20,-205,-66,-514,-24,-619,-1214,-10,-304,79,259,-248,-219,-99,217,73,-316,-322,160,-376,-76,-90,-267,-23,381
,4,-125,-161,48,-3,11,46,28,50,28,-68,-52,27,-123,-93,-109,-117,-62,-81,-27,-147,-68,60,-109,-47,-137,-104,-43,-115,-6,-124
,-980,332,-524,-125,385,56,-740,110,-338,-285,52,-516,625,-121,-244,62,167,-446,25,-759,-570,-279,12,-517,328,83,234,-34,221,111,-209
,-3,-57,2,102,-6,26,87,74,13,-72,90,-37,-31,49,-94,-83,19,-87,13,-33,-68,-100,-43,13,30,-127,-97,-110,-34,-156,-163
,-42,-122,-17,-6,-73,-117,-14,21,9,-189,-118,-90,417,48,-33,85,-2,15,32,-123,-53,-115,21,93,-104,-46,1,42,-94,-126,54
,-137,166,-627,-224,185,7,271,-182,181,486,-495,-257,345,-435,23,-65,-129,-50,-322,-231,-106,-368,-53,845,108,52,-8,9,-241,11,-72
,-65,-160,-88,99,102,-136,-10,-107,-100,89,79,-177,-30,-84,-141,-26,-55,-73,-105,39,-112,-81,-24,-180,-132,-78,64,21,-96,-31,-134
,-1725,-451,128,-112,142,80,-20,676,29,-2167,-363,192,-8,59,-33,741,-340,89,-530,-645,-151,-98,-7,23,-228,244,340,-867,-293,-456,-642
,227,-636,450,396,490,107,248,-87,-217,379,-42,-165,-833,-125,-33,151,87,36,-390,128,337,-23,-258,-8,-661,187,-146,-983,-227,-104,-1
,-416,-625,25,49,-575,183,248,-1040,63,-307,280,-703,-96,75,-82,50,-64,101,206,540,135,-321,-281,41,-230,-181,-830,226,45,248,171
,114,-55,-98,-23,-115,76,-66,-54,-189,-270,11,23,385,-1,-77,-26,-29,-142,-22,-41,10,-45,25,-89,-112,14,-82,53,-8,-78,-111
,745,-481,-284,538,159,-40,268,280,-266,371,-219,228,412,118,80,387,-376,83,-15,172,437,-173,-584,-23,68,94,-244,-103,66,150,-104
,252,260,-128,120,182,-89,-74,-184,-202,621,85,196,-47,-517,-178,-184,-339,351,39,-278,74,149,-319,513,134,114,-323,-465,77,-784,-140
,-8,-166,-121,-116,-82,-9,-151,-165,-110,-146,-154,-152,148,90,5,-42,-34,-35,-36,-2,-129,-6,-12,-63,-117,-39,43,69,-148,29,-9
,-353,279,-41,-399,-500,57,8,-6,191,182,211,-182,-430,-154,155,86,303,179,-48,-593,-289,-165,-479,-488,187,99,-535,-443,-363,30,-189
,293,-247,-678,-11,47,6,-750,220,-260,-1045,-229,103,892,311,-49,-226,-31,-175,54,-103,114,-388,-121,-274,-205,-386,207,-676,-60,153,112
,-38,61,-29,88,-110,78,-32,-61,-90,-29,12,-128,70,-15,52,86,-139,-175,-152,12,-74,-68,-72,41,15,29,-180,-94,-158,-61,-107
,-748,131,-339,-526,420,-305,-337,-623,-485,-563,334,-216,-281,-178,217,-434,-41,-451,147,-279,-132,274,158,-151,-12,127,-74,-58,-101,-162,-70
,40,-69,390,-79,-2116,-615,38,-566,-560,0,64,-86,40,-1322,-45,-726,29,-152,-144,-238,133,-629,386,-330,271,72,152,-1036,-480,-336,-133
,68,-81,-110,252,-592,-36,245,31,239,-318,-250,211,-253,192,-484,156,-258,8,179,-471,34,-160,-327,-196,-53,-130,-342,-243,95,-44,-221
,427,-31,-122,427,137,152,183,-213,81,-370,459,183,-251,15,-251,323,289,-288,-295,560,-18,-635,-327,183,-806,-117,106,190,-22,-78,-187
,-104,410,157,-79,-179,97,-335,-362,306,-153,124,-695,-1133,414,273,-655,-46,44,-631,-667,-104,-331,-80,323,-581,-298,55,-46,-1048,-521,134
,-315,-170,-5,-133,120,-113,-55,-88,36,-323,-36,19,339,-49,-219,-157,90,10,-107,18,-235,32,-118,-68,-196,49,-25,-11,-116,-102,-132
,-110,1,59,-74,17,-44,30,62,-60,-11,-133,-50,30,-10,-82,-15,-136,-86,-58,67,-19,-15,-128,3,57,-138,-108,66,0,-106,53
,520,-190,75,356,33,-149,201,-454,-103,-570,150,207,-1132,520,-125,103,-162,-394,-12,464,-162,104,-120,463,-459,40,293,-1384,-361,-195,46
,339,-178,-335,272,133,-276,445,216,149,727,21,-105,-1506,5,107,-88,18,-401,-43,0,-39,45,195,-95,41,-233,131,-298,-103,-332,-193
,19,-15,2,53,61,-71,-50,-129,54,131,-126,-190,-73,-80,-112,-6,-138,-15,-13,-47,-121,-65,-136,47,-193,-144,-119,-118,-127,-73,67
,421,25,119,474,-71,-16,-349,257,12,785,180,156,-3075,-838,-66,-253,73,74,49,-165,-33,26,55,-556,-59,17,-29,-342,-24,66,-36
,4,263,244,182,-259,-167,-226,-176,331,-524,244,82,-698,-205,-15,-143,-257,-246,51,511,-90,-490,-226,-317,181,-180,-262,-1206,85,-29,-57
,277,-98,-870,356,-114,294,219,-206,-210,250,567,-409,957,-1033,19,-58,232,-466,24,-86,339,3,74,-877,16,-213,-446,-436,94,-119,-271
,-447,358,150,54,65,112,94,-18,42,411,-260,-256,-549,-40,-91,-182,-365,-469,-233,271,-718,-217,-149,-158,79,260,220,-608,174,-346,231
,51,-349,-65,411,-377,226,154,-17,-413,-46,491,-709,-156,-97,-97,-474,133,-212,276,313,-1,-308,-123,444,47,-385,284,-205,173,-1020,81
,1,-144,-312,-773,108,24,-803,-96,38,-272,-238,192,-2829,-868,-54,330,204,-156,-205,251,47,54,47,322,-3,114,-172,713,-232,-47,-115
,-3,-75,-29,-14,-178,-90,-26,-51,-87,110,-53,-40,36,-65,-30,63,-111,-85,-42,38,-160,-151,-75,-82,42,1,-176,38,63,-15,-187
,580,295,-191,483,-414,-322,-246,275,-175,-226,-188,-442,-12,287,-54,-287,493,-135,309,325,-91,-325,-271,310,221,-92,-347,-127,-309,154,-15
,-16,-122,60,-59,84,-88,-82,-135,-150,-138,-41,-30,-89,-54,-62,-94,-59,-153,-119,-85,54,-151,-29,93,-80,-111,-97,49,-146,46,-27
,148,363,35,-39,-357,-413,174,-461,57,168,-469,-303,-192,518,-189,243,-343,-1174,26,281,-5,-270,197,146,-297,-972,107,153,-248,-93,156
,-522,387,103,-358,74,74,215,-347,-135,663,-76,-398,-613,82,66,-611,-255,90,-149,-552,37,-175,85,-257,264,-375,-183,24,455,-14,-500
,630,-21,-311,104,-353,338,61,197,-9,1027,315,38,-2245,508,23,-700,65,-50,232,111,42,-1,-111,-815,-51,-94,-303,-536,-167,36,-114
,-111,119,-74,23,79,-24,-25,4,-58,-14,-76,-154,-199,-86,5,40,-74,20,-104,-39,7,-188,-78,-169,1,30,-58,92,-6,-151,39
,-19,-46,-52,318,-23,-14,113,-155,-248,-181,-405,-250,686,416,-4,-366,-213,7,176,221,-8,-69,-243,508,175,32,-52,924,8,22,-91
,-637,-1263,-123,-791,439,-546,-265,182,62,-560,69,-815,1100,61,265,-1372,424,-222,-61,547,-451,116,-103,10,-539,4,75,217,54,-180,-219
,-253,74,-173,-614,-459,114,-55,-91,-70,-353,-49,51,-495,112,-368,389,-245,-217,-31,-67,476,-11,12,428,162,-464,194,456,370,-580,-230
,-811,-524,-156,-752,-550,31,201,185,-189,-295,50,126,106,313,-164,-587,-94,-491,285,-512,-113,197,28,408,-38,-129,-254,26,313,-430,-482
,141,-72,-90,208,4,-185,70,74,-168,95,-150,-8,-1090,-281,-64,-63,-50,-121,-62,-215,-73,-39,-177,-30,6,-88,-73,53,-51,-31,-10
,-1476,137,442,-891,185,69,-714,-15,-351,-664,-82,-829,291,407,3,176,35,-68,-14,-198,52,82,39,-1339,116,126,-431,709,-4,-325,-431
,-14,0,-82,-1297,237,-331,-1051,38,-299,-722,-185,164,1431,285,56,-207,-109,-534,238,316,359,-72,-219,-219,-363,51,169,-696,315,-66,139
,48,-10,-340,-65,-101,223,-113,-1351,-356,-107,-1250,-90,274,-671,22,110,-1537,186,167,-768,-588,-407,-135,-391,-208,266,-37,-478,127,98,-8
,-134,27,-389,-440,7,96,-362,-19,274,-1020,-218,140,368,-227,-177,163,419,326,156,-162,-92,-308,-321,231,-72,32,-394,298,-105,-625,-918
,-41,-63,16,38,-95,23,-76,52,43,-69,-45,-76,-107,16,16,-82,34,-28,-154,88,74,-53,-138,53,-8,-168,-54,-76,-102,-31,-151
,-346,-269,76,45,-10,-300,51,36,-298,-76,-32,203,-711,-51,56,-478,-286,-111,393,284,-156,-54,223,226,-47,-520,25,149,233,-586,-180
,165,50,-409,160,-344,-469,-198,-415,364,-29,-281,-742,-1206,567,-84,-96,-36,-308,186,-716,-133,-103,-137,-427,-1,-69,248,-864,-246,-35,-874
,137,136,54,311,-58,-425,398,400,103,395,-5,-4,-1353,-107,-67,91,-1220,-273,169,103,63,-43,-45,-31,-101,-90,14,-301,-111,-60,81
,132,-184,149,-433,-119,26,320,6,-317,443,-129,227,-762,376,-69,185,-564,-58,-326,-1652,336,41,-264,-5,-38,-29,-156,-356,266,-456,-20
,-186,223,-244,-61,179,51,135,161,-17,489,-688,-165,-1285,-181,6,445,-181,-67,236,111,-322,-140,129,560,-62,106,-65,-567,-465,101,-265
,-653,-349,-578,-541,-239,-167,-1073,-195,30,-816,-48,-149,-230,588,81,-641,161,-580,-835,240,-12,306,249,-415,-7,265,-103,359,224,-123,-215
,-1416,-138,262,-1854,-17,-40,-1515,-216,-343,-2116,-611,-120,540,469,226,388,212,-316,-405,366,80,80,-200,137,-83,-170,90,21,19,-47,-251
,-93,-92,13,77,-62,89,57,46,-258,-71,-138,95,82,90,-85,-105,36,-50,-144,41,-45,-56,-65,-82,-165,-109,-78,101,-93,-75,-167
,-50,66,-59,-7,65,-4,-230,132,-4,124,-167,-138,-231,-57,-82,72,1,-143,-139,-104,-10,-228,-192,44,-168,-13,-61,-155,35,14,-47
,-2596,233,-272,-1048,15,-66,-1397,153,-90,-475,-202,-336,1523,47,-63,-242,-55,108,-422,50,173,143,10,-468,-194,-21,-18,-142,423,-104,430
,59,-200,-93,456,-390,131,299,256,21,59,150,-599,-1391,-392,-201,-282,127,-25,187,-380,-357,-275,-37,488,241,135,-298,149,256,-166,-104
,-106,-544,34,-144,-1219,-245,-118,-366,-494,-103,-747,-110,1339,-52,-106,-95,-1314,26,190,-924,191,323,-596,106,476,20,-72,-382,71,-201,-20
,24,-72,0,129,-17,-11,-24,-114,-79,18,-39,-180,-429,-181,-81,17,-49,19,-32,-236,-45,-47,-99,-269,-148,-162,-8,-36,-81,49,-170
,282,-158,-399,336,-135,-307,294,-162,0,-15,151,-279,-996,74,-132,226,74,-422,-157,-457,26,-191,-58,214,316,388,-660,66,93,156,7
,-69,12,-85,-100,-76,-247,9,-133,-135,-7,-8,6,-271,27,-54,82,-34,2,-204,-82,-80,-28,-30,-8,-2,-160,-13,-8,-220,-223,56
,-220,74,-77,-19,-2,-64,318,17,-33,-177,-66,22,1468,104,-105,357,205,-35,-189,450,157,-55,-276,-296,-150,-201,54,305,6,-16,-60
,-313,376,-120,-298,268,-718,107,14,-22,-2,88,86,-1163,-186,10,-424,302,-217,177,-20,209,-799,-267,-518,-18,202,-107,-49,33,-11,58
,-256,87,122,-67,17,-14,-253,137,284,-581,-20,32,888,-133,-517,-72,149,-77,-76,67,-543,171,-376,25,-506,-340,-191,-409,385,-414,-104
,-163,111,80,-112,-66,-50,13,73,-158,-93,16,-41,94,-36,-138,-53,73,-57,-28,-6,-91,22,-3,14,-74,-44,-96,45,-59,-131,-99
,528,-190,-416,-146,150,56,30,170,37,-458,-126,123,-1277,-387,3,-68,-398,-188,-195,286,261,255,-235,-365,-463,-258,-288,571,21,231,212
,-164,23,-214,-149,-138,-22,2,11,-98,-66,-190,-51,-26,-20,14,-122,-136,-6,-147,36,62,-85,32,16,17,-96,-21,-183,58,-27,115
,-213,34,-66,-345,-191,-72,-338,-15,68,-271,-262,-16,-39,41,-169,161,15,25,-5,176,-139,-110,3,82,-218,63,-267,156,-77,-23,-31
,-192,-22,38,-224,-71,-120,-260,-214,13,-273,74,52,-1647,-338,-78,-66,13,-22,-75,194,15,-169,-41,-181,1,-90,-196,54,-133,-121,35
,-1098,34,-45,-2604,402,-94,-1080,-449,85,-1528,290,185,-148,61,-4,27,-677,-147,-29,56,-149,-547,-198,-190,306,-84,200,581,281,-217,-181
,-156,-356,-844,-425,141,-174,-182,1,-185,213,-195,-57,-42,198,258,448,-358,-417,-389,180,23,-391,142,22,-94,137,-169,851,188,-414,309
,324,-55,75,-131,413,153,-161,-125,47,639,-171,-62,-2873,-93,-25,-151,-47,-7,285,-549,149,47,-173,-329,-133,-240,-7,825,-122,119,-113
,-718,249,-360,-202,120,-197,-1832,407,99,-915,-108,137,-853,49,-144,-250,198,141,-769,89,-100,-408,-243,-277,151,74,16,-104,249,-230,-210
,-640,-538,-92,-520,291,-243,-651,252,-59,-452,-24,215,-48,186,129,-823,-165,-283,91,382,-354,43,-676,160,10,-255,-391,500,243,-281,13
,-656,-712,338,-484,-746,-46,-653,-376,-384,-492,224,-454,13,103,-17,203,-541,227,-58,67,-515,-238,171,186,-241,-215,308,260,101,-19,-53
,952,275,-318,665,-59,127,-213,-116,-174,-149,275,-263,-1335,-108,16,-167,154,77,-715,-740,93,140,-13,-667,-440,150,268,-176,-166,-237,98
,171,-64,321,129,193,-335,120,-284,-165,181,-733,51,-137,83,-23,-53,-101,-486,46,-202,74,-207,153,-561,97,183,2,-30,-164,-80,-448
,-373,353,306,-414,-192,333,-540,67,62,-400,-726,122,770,430,-10,-1355,-440,-588,-35,-322,-332,-498,-34,269,-281,-547,-132,332,-389,66,285
,-451,27,228,170,-313,-268,-767,110,-47,-1559,-111,264,-2223,24,43,259,-19,290,-47,417,25,-199,-74,247,-669,-563,-343,162,-48,-67,247
,121,77,153,3,224,18,-510,-235,344,-51,-1355,-160,1802,-72,-132,-555,-641,110,123,-446,199,-407,-439,-889,39,-215,83,142,53,-107,-74
,154,-197,102,112,71,-159,180,-161,-77,-55,16,-194,-293,66,-76,-55,-131,-70,-66,-219,-99,-33,-87,-114,63,13,-27,-106,-52,0,7
,-391,-244,-14,-304,-205,-984,-376,135,-680,-222,238,102,19,122,-442,409,-739,21,44,-1779,377,-323,262,235,120,-77,-1442,171,-75,174,-116
,130,-218,32,-117,318,-27,-152,-980,302,-39,-113,287,-507,320,-64,-1132,221,-306,-767,-481,133,-353,-229,-577,-433,142,-277,-720,-319,-1292,-279
,74,321,-302,-1082,377,-109,-68,106,-254,-261,-602,-79,73,-246,-141,40,-97,-50,3,-121,53,267,-149,-123,145,-194,-219,-841,194,-232,-117
,-1599,252,410,-656,-418,-423,-633,-138,-233,-923,-160,-130,-1468,408,-327,881,-181,-507,260,-608,-82,-211,-241,120,410,117,-192,-295,-561,98,-98
,-373,-833,-200,54,-47,108,-176,-824,-209,-242,-190,-456,166,171,-174,-471,327,-1212,-725,-427,217,175,-5,-147,-124,-258,-247,-260,155,115,6
,-177,114,74,-323,-234,-706,-209,323,-611,-1607,244,278,200,114,97,220,128,-99,-453,-34,214,-203,-41,111,-180,-260,166,225,-296,-640,321
,-75,-19,-176,536,160,68,10,-84,-309,-141,137,-285,-1728,111,129,436,-52,-468,79,-246,262,-165,-46,-89,-497,268,-43,-509,158,-124,-579
,66,122,-137,-270,20,-41,-411,88,2,-313,-139,48,-740,-216,-40,119,-197,1,-290,-105,-8,-86,-106,-115,-170,10,-42,-92,1,42,-110
,-137,234,-76,-265,-137,-234,-125,-44,-220,58,-454,-22,-611,-244,-178,-468,467,-207,-80,187,46,-486,-224,-104,384,234,44,385,-221,-361,164
,68,-543,109,134,-386,189,172,1,-341,180,137,-60,9,244,67,-546,-42,-255,-697,-593,6,-66,124,-259,-329,-49,-2,15,32,-838,178
,-381,179,-640,-29,205,66,-471,262,-260,-821,-67,164,-1066,-163,-105,17,250,-38,-427,245,130,-94,-200,-65,64,-341,116,-303,-75,119,-470
,505,-727,-29,66,-958,-11,-87,-579,-89,196,-78,-405,-2091,359,-32,-946,-273,-47,189,-646,-358,-108,220,-932,54,-385,-388,-1022,205,26,29
,78,20,-141,19,52,92,29,-104,-185,-68,-148,-89,46,67,-99,60,-33,47,-48,36,-108,-16,-155,-63,-152,43,-118,-85,-13,-113,-93
,-1288,-43,2,-2822,25,-230,-1206,-642,130,-3281,197,56,-214,417,-66,646,12,-100,92,22,148,105,-120,-300,-123,155,131,552,-567,-40,-116
,988,216,98,24,70,-236,-40,-98,156,343,-27,-291,-2563,662,39,-1204,-41,-4,233,-505,-66,-98,31,-481,-238,46,7,-1207,47,-136,-87
,-164,21,-120,-20,39,28,18,15,-316,-402,-18,-114,1898,-104,141,12,-42,42,91,-148,-207,26,-85,115,103,-21,68,129,-100,97,-138
,-2382,-129,-166,-2255,-558,350,1270,-102,70,-1354,136,-82,1273,288,26,-775,-376,165,-124,-566,-38,227,-150,-112,-57,-215,-282,993,209,-396,-82
,-125,-12,-36,-5,-119,17,109,-149,-155,-9,-64,-4,82,40,-189,-174,-109,-165,47,11,-29,-37,-84,-103,-64,-177,-216,-147,-137,40,-166
,67,-134,-182,-94,-10,50,-42,-87,35,28,84,-146,164,-38,24,-127,-12,-65,10,-54,-47,-22,-96,30,6,-153,6,-62,-87,82,-80
,757,84,129,-249,31,-97,349,-1,206,-1406,527,155,-1478,-182,114,122,-21,119,-328,-142,-194,-113,-314,-451,62,7,259,-786,-211,-144,-36
,-1009,-194,121,-807,60,-98,-917,127,-199,-592,328,-254,-190,5,213,88,-33,219,-197,543,-916,110,-216,524,-659,-301,-190,540,80,242,-1
,-71,-550,-132,-206,-369,-97,-34,-141,-226,-188,280,157,-360,328,52,317,-90,-91,-253,-990,293,-168,113,359,-427,299,-402,377,84,-31,-471
,-264,-661,-611,-112,-143,-658,-595,249,-311,104,58,-182,-411,417,-176,-15,-105,66,-25,275,87,-211,-376,329,34,-361,12,101,-211,324,427
,-288,-368,85,-424,159,110,297,132,-118,-706,86,-89,1670,136,-18,-119,-145,27,75,143,-29,58,201,-105,-169,98,-17,-128,70,-20,-377
,-93,66,-55,-201,190,-160,-495,227,129,-57,-484,-27,-865,166,18,-1331,265,-226,142,-770,-19,-219,80,-383,139,128,-266,-659,-481,-221,-262
,707,143,-37,-1247,-293,-333,-848,-404,122,382,415,-13,-2918,-217,-132,40,401,-348,-103,73,-169,107,184,313,-180,-271,4,11,135,337,-207
,-451,-34,-72,161,-277,6,-764,261,-8,-707,444,-597,-1213,-101,2,-267,133,-262,-49,-549,-396,65,97,-485,-6,273,-766,504,-12,100,-33
,-776,-1565,-102,-663,-305,233,234,555,-54,-1577,-842,81,250,411,42,-266,-1491,273,182,646,-632,149,-338,486,-79,-356,-184,-479,-55,-272,-80
,-609,544,53,359,-85,-63,-338,383,116,-298,-141,509,953,-134,-263,-1,-768,-163,-866,-198,15,-190,-254,-66,-429,281,-288,-472,-453,-204,-24
,78,25,9,320,31,-20,167,158,-43,-679,283,111,-2462,-646,-91,-63,30,3,51,-138,8,0,-34,-503,-48,38,-123,-570,-71,-19,-51
,-634,226,-296,527,147,-829,-365,357,227,-726,-216,80,145,118,17,-317,-157,227,320,-864,122,-624,-17,8,-122,-111,-4,145,-93,245,-349
,-2089,-130,175,-1909,-591,-134,-2921,-99,28,-1634,511,-86,1349,179,9,-379,-287,52,5,-1669,-124,-149,-49,589,-90,261,-4,838,76,62,128
,-90,95,-75,-36,-115,-55,-139,-15,-1,10,-168,-55,-225,-211,-49,-159,-146,-67,11,-63,-68,-76,-71,15,-96,-4,-87,23,-10,-6,-16
,76,-34,-108,200,50,-134,7,50,-88,75,-111,-149,-960,-78,26,-220,27,-24,2,-42,-13,-195,-91,-121,51,-111,31,-181,-122,12,9
,50,188,57,254,-91,228,-462,282,-252,582,36,-186,-3127,-899,-168,-57,286,-111,126,119,144,-231,7,424,243,-183,11,-211,4,-52,-135
,-105,-289,-260,-30,-609,-102,-252,263,492,-495,-448,-795,343,318,-260,74,34,-1006,-88,-164,-102,-162,-340,597,129,-67,-386,304,69,206,92
,166,-150,-65,42,117,-35,-583,43,312,-559,-41,-427,-476,299,-113,1,298,111,-66,556,12,-1058,68,-789,101,-21,12,-238,-496,-136,-52
,-834,-73,-364,130,-113,-33,-1446,59,-9,-1015,374,-365,218,-62,101,-129,76,-238,99,48,382,-392,-214,-387,305,-183,76,139,90,222,-765
,-1,-1088,140,73,26,-1259,-6,-23,-135,197,-888,59,-473,11,-294,-163,75,197,-269,-451,238,6,-47,-465,166,-401,-521,-386,39,-592,-445
,-218,440,-137,454,332,-211,217,589,30,295,-69,-112,608,-119,-309,-279,-398,-143,-121,-227,104,332,-142,-72,-9,-96,-42,-595,24,-539,186
,-655,37,89,-386,-111,60,-432,-70,-47,153,556,-781,-2056,-17,-586,-643,178,-60,26,159,100,85,-267,-320,118,38,203,-98,71,-87,-130
,49,31,-139,-108,387,-228,247,-215,26,140,-95,159,-746,-421,-105,-375,-249,241,197,-70,-21,-747,-108,38,79,-117,224,27,-338,136,-138
,275,-98,-7,67,57,34,86,72,113,250,-40,3,-366,24,-67,-317,130,-82,-109,-51,-38,-151,-71,-201,-216,-109,-29,-184,-139,-119,-93
,262,281,-287,583,254,52,273,-308,328,530,-396,162,-1430,-43,-14,-12,-255,-277,-143,-471,-328,58,-290,-376,55,-65,-760,-406,30,-36,289
,21,-64,153,17,-18,-57,-89,186,-179,-145,423,192,18,-500,-278,333,-216,-80,158,-640,-458,-159,-433,485,-234,-36,-32,-53,-349,172,28
,-1153,27,-85,-1302,-126,-62,-2932,-309,-4,-3188,-474,14,-510,708,74,358,96,-40,1,326,37,-68,10,697,130,-30,-40,389,170,-22,-54
,117,4,-83,-30,-127,-44,-42,-127,9,99,66,-3,-766,-211,6,121,-34,-103,-170,-196,-73,68,-144,-264,-159,-123,-10,-284,-58,18,-58
,-582,168,-17,26,-407,13,-132,156,-216,-222,399,265,61,-83,-392,412,-341,-131,-425,111,-330,-388,-110,215,-229,-43,-401,174,-1108,29,536
,39,-145,26,-5,-58,4,73,36,-133,-107,-140,-24,-28,-77,7,50,-68,-46,-59,58,-16,-80,-107,-95,78,-9,-138,89,-26,-99,19
,699,-250,-173,-21,214,297,64,483,-53,22,-15,-262,-362,-304,-105,-118,-232,312,-193,-968,-368,257,-566,-558,185,-311,-12,335,-6,-123,128
,-804,84,-222,-426,-427,-8,-260,88,-190,-854,292,-140,616,-23,43,468,-316,-831,-13,143,-741,337,132,284,-266,138,-471,479,-21,217,-72
,-966,-372,-1,-1208,-462,96,-874,-999,105,-1257,-844,9,-426,-365,-140,667,416,130,-180,-82,116,-258,-22,60,296,138,-273,618,56,-138,-395
,510,47,75,-1019,417,-97,-402,13,-388,170,-298,-165,-417,-62,-89,-321,335,140,-111,-559,189,-47,-59,-404,75,-44,128,129,-461,-671,-169
,453,-357,-204,-31,191,-130,-142,74,-261,-270,150,121,-860,131,282,173,186,-224,-548,-70,78,-309,-170,-170,-255,81,-137,-475,-81,150,-111
,-504,33,-1242,-474,156,-76,-370,417,56,-322,-171,74,801,-1276,-302,-300,145,-571,73,352,-16,179,-1021,305,-246,50,-121,-212,234,-207,129
,128,-58,-50,33,48,35,507,91,-59,-254,-170,-16,2486,-233,-106,51,181,164,214,211,-32,108,41,85,80,-153,47,320,20,13,127
,-115,19,1,77,22,18,71,36,-7,-69,-108,44,-85,-70,-115,-134,12,19,-204,-22,-182,-59,52,-129,-15,-186,-76,-20,-73,19,-121
,71,49,15,-310,172,-653,-109,-689,-91,-68,-50,-206,656,261,-182,131,-339,-63,-635,305,69,29,2,104,217,-83,-224,169,110,136,108
,-133,-55,-177,-380,168,-5,-12,-101,-552,264,66,-133,181,48,11,77,-360,141,330,-514,36,40,92,-108,17,-852,-153,-255,-128,160,-18
,-260,-275,148,102,-324,-280,-183,-298,-786,-378,-467,152,780,423,-9,-37,457,-208,-164,-295,190,-33,-219,329,-98,-164,-26,-93,354,-31,-945
,-1060,-117,-55,-916,42,-497,-1085,-19,126,-1454,-185,-201,-59,472,-202,469,127,-90,-72,192,-215,-300,-377,314,-33,-75,-425,238,60,-95,-230
,405,-279,242,-372,-515,-195,-267,60,-45,-292,199,-94,-269,569,92,163,158,-442,217,-70,-83,-604,379,597,-466,-66,-440,-919,228,-887,-201
,-113,30,-106,152,3,-211,37,-17,-37,175,-78,-154,23,-119,-2,114,24,-75,-196,5,-63,-162,-165,-66,82,-200,-89,119,-64,29,71
,103,-98,-86,52,48,-91,1,35,38,-103,-89,32,-85,-36,-6,-74,-7,-166,-66,21,57,3,-58,-29,5,44,-144,-33,-96,-111,-115
,74,-204,-22,-121,-6,-115,96,-66,-48,76,-1,-125,19,-259,15,184,-147,-87,-119,17,-10,-139,109,50,-26,25,-134,115,-51,-264,-83
,195,-254,59,195,-65,131,-8,219,31,32,107,282,-159,-666,-95,-779,1,-256,0,207,-14,-452,-283,355,-142,130,-11,404,-155,-274,-78
,53,-194,-30,91,-151,-228,5,149,30,-99,-207,-32,166,-91,-73,72,-94,73,-71,148,-35,39,-189,232,-209,-130,-421,232,-120,71,-74
,-409,-79,19,-96,40,5,-819,-275,130,-569,-118,-126,-4223,-1003,63,19,60,-12,-5,-54,-6,-34,8,601,16,148,110,233,66,-5,81
,59,-20,-128,-77,-26,-93,-107,-67,-77,-55,-134,63,-47,-44,-108,-27,139,-91,-137,-199,80,-9,-60,38,-131,-24,46,-92,50,-139,-135
,61,-118,-173,83,-33,31,-128,-55,-145,-164,135,-70,-420,-149,-26,-37,-14,37,-188,-95,-265,-59,-77,-19,64,-47,-116,-25,-79,-53,35
,-153,-457,79,-228,-14,-568,128,-861,-174,-44,-945,-261,-782,427,70,-563,350,-29,-81,-715,-284,40,189,-804,-724,-268,26,-600,-630,-32,124
,22,576,-30,85,-461,-131,-56,-56,38,329,217,-222,-665,428,9,222,-592,-65,-28,-191,-344,-482,-264,-4,170,377,-44,-658,-59,-442,197
,-23,5,-12,24,-85,-182,-62,-124,-1,139,-18,-163,-74,-162,-114,-137,-184,-156,-6,15,48,47,-56,23,58,-133,-109,146,74,-115,-27
,-447,71,-95,-39,62,-141,-383,130,151,-54,174,-67,341,-568,-421,340,187,-244,-605,327,-69,-81,-1022,-67,256,-49,51,262,-568,319,-69
,-1075,-830,-500,-536,-478,-55,96,-774,-924,-558,117,248,-2371,513,123,-717,87,76,-148,371,-501,-193,175,-257,14,53,118,134,-72,-144,26
,-93,-14,-21,82,76,-91,-134,-78,2,-97,-32,-106,123,84,45,26,-137,-147,-121,114,1,-14,37,53,103,-82,-152,96,-147,-120,-139
,-2466,-370,-250,-656,66,108,-1016,-158,-47,-2421,-2,-185,-829,253,-115,447,517,-169,-106,221,86,-360,223,156,252,175,-219,250,145,89,-292
,-95,206,-619,-98,-46,286,229,-64,-29,-230,73,168,541,143,-159,-1073,-116,-98,-353,-838,-661,33,45,179,-91,-71,-247,-53,267,32,79
,-328,-596,-159,-226,-242,-147,-240,-381,255,-231,27,7,-482,38,-39,35,-433,-458,-237,187,-50,-91,-162,7,294,47,302,288,-209,33,-265
,42,186,-408,306,332,153,390,-162,-529,-127,-924,-360,202,152,-47,369,-236,-99,-63,138,-274,156,-135,323,443,-20,209,235,-338,-461,-177
,414,37,79,-895,518,-161,-186,82,87,-211,-570,400,14,414,39,315,-353,-462,53,-88,-469,-80,159,-191,-1109,63,18,-285,-492,-439,-88
,-1555,-172,67,-1303,-114,-3,-1183,-121,176,-1896,272,81,314,-2006,108,-877,73,-13,22,-91,-44,51,-16,-238,-62,-26,175,-1478,-180,-28,-43
,-401,220,-504,-404,94,-110,-649,226,-59,175,-235,8,118,403,63,-600,5,280,-120,-433,-450,27,-139,291,-151,-129,328,381,-265,-159,-436
,95,110,197,259,156,-324,-355,154,-387,213,309,-162,-1864,-392,-284,-4,-165,110,-301,16,-85,333,13,114,54,-338,-147,-22,-89,-65,-124
,172,379,85,334,141,-440,564,-171,-377,177,-61,148,-1600,-303,-240,-513,-124,-77,10,493,162,-233,58,-555,129,-82,-89,-25,-14,252,289
,-122,27,-64,-26,66,-124,31,-74,-139,138,230,-161,-436,-70,5,-10,-11,-11,-201,-52,-119,-106,37,15,-136,-103,12,-125,-142,-202,50
,-108,45,-100,-169,-127,-163,-164,-114,-58,-349,-142,-32,525,36,-58,-63,3,-92,-111,-136,-10,-132,-4,49,17,-148,-15,6,-204,-263,-27
,-41,9,-139,-140,73,-58,-32,-164,-103,116,-217,-106,175,-158,83,72,-68,-99,-160,40,-136,-116,-34,51,73,-25,-151,-18,92,-18,-102
,-147,-301,198,-811,69,-69,-347,85,303,-1044,381,87,261,-128,-141,-540,-166,146,-364,-140,69,-164,-286,53,2,-8,-417,99,-301,-115,-376
,-112,-286,-340,-280,-13,-106,-95,124,31,44,-172,-169,-672,286,86,-1737,370,-308,-112,-395,142,-349,23,267,19,-200,29,-12,379,-133,-316
,-547,-1321,26,-410,-910,277,-323,-79,-65,-665,258,-250,185,140,-135,-1117,146,12,-211,-172,-27,-99,-607,275,215,143,-503,-1001,452,-217,-697
,432,-127,-108,552,215,117,159,34,-56,-147,402,-31,-2351,-263,-36,305,-379,7,-670,-149,-135,-254,-76,-90,-279,133,102,-80,19,-332,289
,254,-341,-79,336,-98,-231,348,-82,-371,181,-264,79,179,98,120,-133,97,-320,-258,254,10,-40,-110,128,-589,-536,165,166,-423,-6,-14
,12,-6,39,-384,82,-44,-145,35,-125,55,24,3,-1007,-52,-62,-428,26,53,-93,-183,63,-120,-161,-397,62,-109,-216,-202,-122,-137,37
,599,-134,31,355,20,43,259,18,88,653,45,56,-3149,125,-88,-31,-353,-229,-196,-231,91,229,4,-307,184,-96,-11,-459,-140,-53,-44
,63,76,79,81,44,-44,61,-140,57,96,95,-159,-590,-104,21,-185,-112,-182,-114,-174,-13,-174,-44,-48,-164,-84,-70,-234,92,-20,-7
,-243,-319,-114,386,263,267,190,-11,321,15,197,118,-1905,-261,-11,550,-104,56,-136,-188,-74,129,-201,646,-250,-120,147,-482,-103,-572,-19
,-585,232,66,-179,-795,-559,-860,-174,127,-1301,249,-311,-730,311,48,183,33,60,-189,-520,-310,-161,-96,-186,359,9,180,54,-779,-791,175
,-84,50,-349,-181,-111,-199,12,28,341,116,-114,-472,279,44,-46,352,-760,-69,154,312,-188,-35,-268,400,-683,8,17,711,-172,-407,-148
,15,-282,151,11,-209,15,-54,-123,-119,36,-31,-60,-1125,-623,-214,-150,-158,-86,92,66,33,375,-169,468,231,-126,-216,-60,71,-77,-35
,-21,50,69,-248,4,-113,122,-24,20,-240,-173,57,-1298,-428,-349,32,126,-47,35,137,21,220,-183,6,122,-443,-122,-257,10,20,-396
,-1015,445,195,-719,-33,-42,76,194,70,319,-19,77,-796,187,-18,-421,-517,-394,-395,527,-73,-130,117,-433,-128,140,-247,203,-521,-308,160
,54,-71,-13,-44,-117,-149,-123,-41,-491,275,-8,34,-734,-291,-5,-313,61,-117,72,-576,-12,389,-296,-144,-423,71,112,542,223,-16,-505
,807,34,-95,41,214,374,-138,-138,-225,-832,355,-127,-800,-180,-54,-339,246,267,-453,-402,-382,-317,-106,-659,-372,-37,-8,-946,262,91,-10
,-233,34,-113,238,-608,209,-216,-327,6,-322,-861,-287,-165,413,38,-12,479,-147,-98,467,-400,-416,-1352,-676,21,102,124,-213,-785,-500,101
,-102,-68,-270,67,-212,-149,-706,49,-239,-74,103,25,-343,-93,84,-201,-573,-216,-564,238,-22,-81,112,-328,192,162,243,324,51,298,-644
,-698,-208,84,-666,-367,23,-1034,-139,-209,-962,-279,0,-3162,-523,-17,859,-101,-65,-54,240,60,-49,-96,480,158,-42,89,590,267,-238,72
,-208,-55,-204,-180,23,-352,-140,279,-252,430,57,299,-852,114,15,347,-625,-208,-417,-524,400,-139,-81,-1092,-73,-126,267,-371,-14,254,107
,-2,-105,16,65,-133,-266,351,209,-420,612,163,-170,-392,140,58,-600,272,148,-103,-1228,414,-357,-54,-288,-260,44,-180,-689,159,-145,-70
,255,-412,-114,-348,-317,214,-243,288,21,432,70,87,-53,7,104,-103,310,-68,3,-16,-922,-135,-211,-269,-507,-214,-96,-464,-353,308,-66
,284,27,-250,-137,158,-60,151,196,189,-200,-323,-113,-1232,-388,-99,33,-637,16,88,-296,1,-90,-304,292,377,-276,54,-312,178,-55,-360
,441,-573,99,-19,-596,-261,18,-37,58,-101,288,307,-68,311,-88,-95,-338,109,-32,-661,-132,-166,-431,-706,-41,-27,-315,-517,-99,6,150
,302,69,137,-236,-177,-20,-487,362,-167,314,-7,-710,-2412,-316,34,-66,-170,30,-49,-316,58,-272,241,66,176,-389,135,-326,-333,249,-338
,81,-67,-100,-127,-149,-111,-163,-36,-131,15,-70,-190,24,-50,80,85,91,-123,-200,-89,-154,12,-98,14,7,-67,-45,123,-37,-133,-45
,-71,-61,-122,-267,32,-24,-249,64,-52,-117,48,-48,-23,21,-109,5,6,-26,-87,15,6,-147,-67,-170,-212,-67,-67,-18,-47,67,-120
,-1540,-329,-105,-734,427,41,-1031,103,148,-149,-68,198,58,293,-333,-740,-250,72,249,-135,211,6,-525,-437,-728,-236,-740,-1029,69,171,71
,-27,38,-61,-81,-72,-77,-58,4,-190,-145,-13,46,-43,42,52,29,37,-172,-61,-132,58,-137,19,-6,-107,-114,-67,-35,-88,-111,82
,192,-252,51,85,-373,-34,90,127,-46,244,-375,120,141,32,-122,-38,-370,-244,-111,48,-574,-65,-217,171,105,-86,47,49,-288,6,11
,154,393,13,-671,-122,-20,-754,5,46,500,120,-62,-2655,-1127,-187,377,126,83,-71,71,-221,-144,132,-186,-208,-182,-173,213,132,202,137
,-454,-135,-150,-716,-134,-56,-173,33,6,-1149,-39,116,1173,584,-48,477,-32,-189,40,424,14,-191,-26,88,-66,114,-285,550,84,102,-11
,619,46,-346,-486,256,154,-548,268,197,-61,-641,138,-1249,264,-44,-353,75,-266,89,82,134,-104,-142,-772,87,-165,175,-1415,-281,-14,-496
,43,96,-103,-68,-175,-237,-22,43,-59,-203,-118,-104,62,27,-13,-113,95,24,113,22,-12,-11,-90,-178,48,-164,-115,-22,-163,-18,-97
,-115,13,29,130,-90,-13,-55,-131,-81,-13,-7,-15,75,-72,-6,-90,75,-71,-168,-38,-39,6,-78,51,-87,-41,-117,-128,40,-69,-26
,-196,423,146,404,-76,-640,410,-506,320,-348,318,68,104,-77,-210,133,263,-562,-53,-140,-28,188,-442,173,211,-617,-278,-62,-62,160,-809
,20,324,237,-878,-363,138,-836,-222,202,-1142,-580,-266,432,323,110,207,376,149,-174,445,206,-4,-344,129,-257,0,-111,-49,25,37,-164
,114,259,-150,278,184,94,158,267,-538,-134,-57,-28,-7,115,-49,-15,-56,-395,-99,61,-858,116,-387,150,61,-624,113,117,32,-342,-135
,-358,-113,-44,-361,-38,43,-157,50,-36,-442,-104,-40,1208,112,-72,-86,74,-30,-125,-47,-114,36,-3,34,-37,-164,34,-216,37,25,-30
,-107,140,104,-943,283,163,-333,-814,-157,564,235,-8,-2594,-84,-6,-737,-105,-604,-106,-703,157,-504,-2,123,53,-159,220,187,-89,-121,309
,58,524,57,-429,-493,340,-421,-276,93,-251,-178,182,-1189,-545,-27,251,-331,-164,-112,512,-260,-18,222,-86,-1043,-39,-144,-166,-320,20,-39
,515,-62,39,162,-115,-627,-476,154,375,-470,-188,228,0,-54,19,327,108,-372,94,48,-38,-154,-331,3,14,-351,-86,-139,163,-630,89
,-25,-90,-155,-29,-63,42,-19,97,-185,-39,-163,-43,88,-46,32,79,-47,62,-114,43,-12,45,-29,-98,-58,-41,-61,-9,-101,-165,-56
,354,99,335,522,-526,-240,-291,392,-22,-438,465,123,925,-185,-495,269,-458,243,-436,177,-374,90,-145,-116,-14,-426,-219,-67,30,-271,36
,629,135,-879,-471,34,214,-68,343,-76,-16,-222,-157,-458,-120,51,-765,25,-243,-37,-228,-362,20,231,-280,-343,-212,93,405,197,-231,311
,132,-112,-166,134,-107,-237,256,-60,-94,217,-367,-204,255,-120,-128,13,-28,-73,-153,-49,-40,-122,-129,-117,-95,-132,-197,-155,-95,-279,-283
,-184,602,-16,350,-158,161,-287,-828,-196,-86,-312,62,417,-48,-30,117,183,-77,-349,-236,244,216,95,-800,-397,-254,-270,-1003,-118,-181,-186
,-574,192,-578,27,-936,106,-922,90,-105,-67,5,-13,-629,99,82,-427,-405,-210,22,71,330,-19,-202,44,79,-161,-112,-875,485,27,139
,-121,288,89,196,-61,260,423,161,-6,662,-270,-63,-1301,-277,-603,-471,-140,-216,-124,323,-277,259,145,-190,209,-210,41,-219,-657,-42,-94
,244,-411,224,-15,-372,103,155,238,-426,74,179,-708,246,-365,-930,200,151,121,-194,-195,-389,39,-188,127,178,-446,144,-147,56,111,-588
,161,73,261,327,210,-40,-921,568,-44,868,-421,-341,-457,-38,-73,-939,-182,-356,343,-386,-5,-93,-285,-646,-161,-48,-272,-315,19,45,34
,72,-58,91,487,-95,-155,-1059,-135,79,-606,316,-332,-3304,-159,122,-252,-24,-119,-153,219,-392,-373,365,97,40,-275,81,600,41,-397,291
,-388,-12,-62,-589,-119,-26,-290,-225,-40,-1056,-320,26,1751,253,49,213,52,-96,52,211,92,-119,6,307,-2,39,-51,277,-59,-77,-142
,-442,-80,-295,-464,-169,-62,554,-227,98,-242,-208,-196,-900,186,-163,-491,-110,-243,-200,139,258,-4,147,217,264,-171,-77,-357,-418,155,372
,32,46,-113,70,-94,111,17,35,-161,-7,-89,-25,-109,69,-106,-77,-64,45,-118,55,-55,36,-143,-8,-2,-64,-32,-261,-135,34,-42
,21,-160,-189,-106,20,-44,42,-143,0,-81,-18,-149,-70,-68,-55,-148,89,38,-91,-140,-56,-45,-46,96,40,-134,-26,31,-151,41,88
,10,-226,-20,-166,-183,76,-187,-198,41,-71,-118,25,-18,-14,110,37,9,-24,76,59,7,-142,-191,-80,-45,-179,-87,18,-149,-24,-25
,-107,-36,-204,-72,-17,-210,-153,-32,-196,11,-34,-151,-15,-75,-68,-62,-48,-12,7,-227,-131,-22,-118,-216,-12,55,-12,-36,-18,-127,65
,73,-278,-218,-987,210,-334,20,223,43,108,-50,221,-1452,-374,23,553,2,98,153,-223,25,-149,-492,194,193,-137,-270,-137,-336,367,-241
,-89,25,-143,-92,-73,-186,623,-176,516,352,218,-243,-1627,-375,123,5,183,114,-7,-292,2,45,-347,147,-643,-275,-154,223,27,-40,-305
,8,-175,-111,-105,57,-73,31,-12,-269,-10,-119,51,190,-115,-65,-92,3,-245,-26,38,-62,-74,-209,74,-78,29,-48,-210,115,40,-76
,86,52,-42,239,301,-109,-186,102,-84,29,-383,419,-552,-389,-153,-406,-46,-27,-308,578,-208,-176,153,291,-80,202,321,-470,-436,-153,-402
,-394,-559,-11,-699,-140,-16,-969,255,210,-252,-197,24,-1174,-244,-172,312,68,-114,70,305,62,-24,-356,-614,-385,26,-533,550,-624,107,351
,-33,-340,-116,22,-235,106,467,57,100,448,-400,-376,-504,-343,-33,749,183,77,-13,294,115,97,-242,399,52,-39,39,-1245,-244,16,4
,-406,-4,-8,-430,-157,-330,-577,-307,-830,-460,-1007,-128,-1102,467,-100,-1317,-295,-221,-757,-611,218,204,-396,184,425,-53,-85,-541,146,1,220
,44,-103,38,49,-86,-79,141,-139,40,92,-72,-79,-109,-92,-109,-59,-145,-132,-13,108,-107,1,20,-25,-102,-8,-110,-70,-110,-132,-108
,-274,181,-179,290,-559,-21,-371,282,-267,-13,-140,-50,-1410,342,-44,-441,-145,195,34,-109,-93,13,21,-1288,-19,182,-242,-1038,-101,-10,384
,-5,-124,-132,25,-53,-46,-62,-60,-131,-31,58,31,62,-31,21,52,-157,-74,-105,20,-30,-72,-160,49,-22,82,-132,-170,7,-41,-157
,277,-68,55,227,-245,150,253,190,-132,570,-130,-203,-1476,90,56,-125,-6,237,-188,144,-203,120,210,-228,-150,-165,-254,-237,-69,-262,-554
,285,-129,-187,-55,-17,-16,-115,86,-37,-22,97,-111,-792,-61,-149,-61,-28,-1,-75,89,13,-156,-52,-254,-162,-33,-17,-68,-27,72,81
,40,-244,-315,186,145,-166,-84,-292,82,98,-293,270,-84,262,4,-159,3,-567,-150,-200,-42,29,-17,-116,-7,-765,172,-1,-64,-108,-159
,-940,222,424,-1094,61,269,558,-582,-392,-1362,203,-100,93,171,-113,290,-203,-254,-560,-1212,267,-131,-45,-248,-113,-97,314,332,-686,-246,37
};

long weight_1_T_sdf[256*31] = {
-203,-82,-133,-184,28,-129,-197,-158,-122,-121,24,-24,229,-96,-100,-76,65,11,-46,-51,39,18,39,-155,-13,3,-38,-4,-158,-102,22
,-211,-163,-75,-205,-188,12,279,-141,5,-166,-176,42,690,-1322,-301,24,322,253,-30,118,124,-498,-171,186,341,84,-260,4,136,-157,130
,73,97,95,34,-25,-98,132,-36,-12,18,-128,-246,-135,-48,-207,-174,22,30,-63,-153,-21,19,126,-188,92,-49,-15,-223,-71,76,-76
,-139,-69,-283,-51,97,27,11,-497,127,-191,-38,-230,1032,-274,289,-112,211,-119,-387,702,-264,-990,-163,-144,-741,272,51,302,-324,-589,-322
,-10,2,44,112,-32,-180,-81,-58,-37,208,-56,-118,-466,-54,-27,-143,16,-30,10,1,-35,-15,-35,-98,-136,-94,8,-157,-25,-159,-80
,-1210,102,-28,-1291,-96,37,-1189,-94,48,-1138,-64,-83,2165,464,14,147,-53,-38,-98,-23,36,-22,-139,18,114,-25,-142,138,-76,-223,-88
,-60,490,-73,432,-242,180,100,321,-172,902,-397,-178,-2261,-8,-70,-169,-407,-229,-106,166,-60,-51,168,-345,-140,316,-89,-858,136,-69,-199
,-167,52,-3,-605,-52,11,-163,-26,-16,-874,-206,20,2780,521,52,313,28,-74,-17,399,24,-16,23,322,-6,-27,49,872,-20,-21,25
,510,78,-389,-707,288,-147,-423,29,-103,-935,370,-300,-929,-217,-157,247,40,-116,336,105,-54,-47,-222,-311,-396,55,-126,-284,-305,7,146
,-290,-191,-861,73,250,-16,-1404,-64,106,-594,-721,190,-886,-73,-32,-311,140,-6,-5,240,148,158,65,-201,145,135,-388,-86,270,-314,-309
,-682,-323,-284,-32,-22,-400,-1314,-97,-113,-1056,-373,116,-2984,-657,-68,173,-156,121,221,119,227,-350,2,546,62,122,292,620,135,-36,10
,-1162,417,-29,-541,-184,-27,20,-205,-66,-514,-24,-619,-1214,-10,-304,79,259,-248,-219,-99,217,73,-316,-322,160,-376,-76,-90,-267,-23,381
,4,-125,-161,48,-3,11,46,28,50,28,-68,-52,27,-123,-93,-109,-117,-62,-81,-27,-147,-68,60,-109,-47,-137,-104,-43,-115,-6,-124
,-980,332,-524,-125,385,56,-740,110,-338,-285,52,-516,625,-121,-244,62,167,-446,25,-759,-570,-279,12,-517,328,83,234,-34,221,111,-209
,-3,-57,2,102,-6,26,87,74,13,-72,90,-37,-31,49,-94,-83,19,-87,13,-33,-68,-100,-43,13,30,-127,-97,-110,-34,-156,-163
,-42,-122,-17,-6,-73,-117,-14,21,9,-189,-118,-90,417,48,-33,85,-2,15,32,-123,-53,-115,21,93,-104,-46,1,42,-94,-126,54
,-137,166,-627,-224,185,7,271,-182,181,486,-495,-257,345,-435,23,-65,-129,-50,-322,-231,-106,-368,-53,845,108,52,-8,9,-241,11,-72
,-65,-160,-88,99,102,-136,-10,-107,-100,89,79,-177,-30,-84,-141,-26,-55,-73,-105,39,-112,-81,-24,-180,-132,-78,64,21,-96,-31,-134
,-1725,-451,128,-112,142,80,-20,676,29,-2167,-363,192,-8,59,-33,741,-340,89,-530,-645,-151,-98,-7,23,-228,244,340,-867,-293,-456,-642
,227,-636,450,396,490,107,248,-87,-217,379,-42,-165,-833,-125,-33,151,87,36,-390,128,337,-23,-258,-8,-661,187,-146,-983,-227,-104,-1
,-416,-625,25,49,-575,183,248,-1040,63,-307,280,-703,-96,75,-82,50,-64,101,206,540,135,-321,-281,41,-230,-181,-830,226,45,248,171
,114,-55,-98,-23,-115,76,-66,-54,-189,-270,11,23,385,-1,-77,-26,-29,-142,-22,-41,10,-45,25,-89,-112,14,-82,53,-8,-78,-111
,745,-481,-284,538,159,-40,268,280,-266,371,-219,228,412,118,80,387,-376,83,-15,172,437,-173,-584,-23,68,94,-244,-103,66,150,-104
,252,260,-128,120,182,-89,-74,-184,-202,621,85,196,-47,-517,-178,-184,-339,351,39,-278,74,149,-319,513,134,114,-323,-465,77,-784,-140
,-8,-166,-121,-116,-82,-9,-151,-165,-110,-146,-154,-152,148,90,5,-42,-34,-35,-36,-2,-129,-6,-12,-63,-117,-39,43,69,-148,29,-9
,-353,279,-41,-399,-500,57,8,-6,191,182,211,-182,-430,-154,155,86,303,179,-48,-593,-289,-165,-479,-488,187,99,-535,-443,-363,30,-189
,293,-247,-678,-11,47,6,-750,220,-260,-1045,-229,103,892,311,-49,-226,-31,-175,54,-103,114,-388,-121,-274,-205,-386,207,-676,-60,153,112
,-38,61,-29,88,-110,78,-32,-61,-90,-29,12,-128,70,-15,52,86,-139,-175,-152,12,-74,-68,-72,41,15,29,-180,-94,-158,-61,-107
,-748,131,-339,-526,420,-305,-337,-623,-485,-563,334,-216,-281,-178,217,-434,-41,-451,147,-279,-132,274,158,-151,-12,127,-74,-58,-101,-162,-70
,40,-69,390,-79,-2116,-615,38,-566,-560,0,64,-86,40,-1322,-45,-726,29,-152,-144,-238,133,-629,386,-330,271,72,152,-1036,-480,-336,-133
,68,-81,-110,252,-592,-36,245,31,239,-318,-250,211,-253,192,-484,156,-258,8,179,-471,34,-160,-327,-196,-53,-130,-342,-243,95,-44,-221
,427,-31,-122,427,137,152,183,-213,81,-370,459,183,-251,15,-251,323,289,-288,-295,560,-18,-635,-327,183,-806,-117,106,190,-22,-78,-187
,-104,410,157,-79,-179,97,-335,-362,306,-153,124,-695,-1133,414,273,-655,-46,44,-631,-667,-104,-331,-80,323,-581,-298,55,-46,-1048,-521,134
,-315,-170,-5,-133,120,-113,-55,-88,36,-323,-36,19,339,-49,-219,-157,90,10,-107,18,-235,32,-118,-68,-196,49,-25,-11,-116,-102,-132
,-110,1,59,-74,17,-44,30,62,-60,-11,-133,-50,30,-10,-82,-15,-136,-86,-58,67,-19,-15,-128,3,57,-138,-108,66,0,-106,53
,520,-190,75,356,33,-149,201,-454,-103,-570,150,207,-1132,520,-125,103,-162,-394,-12,464,-162,104,-120,463,-459,40,293,-1384,-361,-195,46
,339,-178,-335,272,133,-276,445,216,149,727,21,-105,-1506,5,107,-88,18,-401,-43,0,-39,45,195,-95,41,-233,131,-298,-103,-332,-193
,19,-15,2,53,61,-71,-50,-129,54,131,-126,-190,-73,-80,-112,-6,-138,-15,-13,-47,-121,-65,-136,47,-193,-144,-119,-118,-127,-73,67
,421,25,119,474,-71,-16,-349,257,12,785,180,156,-3075,-838,-66,-253,73,74,49,-165,-33,26,55,-556,-59,17,-29,-342,-24,66,-36
,4,263,244,182,-259,-167,-226,-176,331,-524,244,82,-698,-205,-15,-143,-257,-246,51,511,-90,-490,-226,-317,181,-180,-262,-1206,85,-29,-57
,277,-98,-870,356,-114,294,219,-206,-210,250,567,-409,957,-1033,19,-58,232,-466,24,-86,339,3,74,-877,16,-213,-446,-436,94,-119,-271
,-447,358,150,54,65,112,94,-18,42,411,-260,-256,-549,-40,-91,-182,-365,-469,-233,271,-718,-217,-149,-158,79,260,220,-608,174,-346,231
,51,-349,-65,411,-377,226,154,-17,-413,-46,491,-709,-156,-97,-97,-474,133,-212,276,313,-1,-308,-123,444,47,-385,284,-205,173,-1020,81
,1,-144,-312,-773,108,24,-803,-96,38,-272,-238,192,-2829,-868,-54,330,204,-156,-205,251,47,54,47,322,-3,114,-172,713,-232,-47,-115
,-3,-75,-29,-14,-178,-90,-26,-51,-87,110,-53,-40,36,-65,-30,63,-111,-85,-42,38,-160,-151,-75,-82,42,1,-176,38,63,-15,-187
,580,295,-191,483,-414,-322,-246,275,-175,-226,-188,-442,-12,287,-54,-287,493,-135,309,325,-91,-325,-271,310,221,-92,-347,-127,-309,154,-15
,-16,-122,60,-59,84,-88,-82,-135,-150,-138,-41,-30,-89,-54,-62,-94,-59,-153,-119,-85,54,-151,-29,93,-80,-111,-97,49,-146,46,-27
,148,363,35,-39,-357,-413,174,-461,57,168,-469,-303,-192,518,-189,243,-343,-1174,26,281,-5,-270,197,146,-297,-972,107,153,-248,-93,156
,-522,387,103,-358,74,74,215,-347,-135,663,-76,-398,-613,82,66,-611,-255,90,-149,-552,37,-175,85,-257,264,-375,-183,24,455,-14,-500
,630,-21,-311,104,-353,338,61,197,-9,1027,315,38,-2245,508,23,-700,65,-50,232,111,42,-1,-111,-815,-51,-94,-303,-536,-167,36,-114
,-111,119,-74,23,79,-24,-25,4,-58,-14,-76,-154,-199,-86,5,40,-74,20,-104,-39,7,-188,-78,-169,1,30,-58,92,-6,-151,39
,-19,-46,-52,318,-23,-14,113,-155,-248,-181,-405,-250,686,416,-4,-366,-213,7,176,221,-8,-69,-243,508,175,32,-52,924,8,22,-91
,-637,-1263,-123,-791,439,-546,-265,182,62,-560,69,-815,1100,61,265,-1372,424,-222,-61,547,-451,116,-103,10,-539,4,75,217,54,-180,-219
,-253,74,-173,-614,-459,114,-55,-91,-70,-353,-49,51,-495,112,-368,389,-245,-217,-31,-67,476,-11,12,428,162,-464,194,456,370,-580,-230
,-811,-524,-156,-752,-550,31,201,185,-189,-295,50,126,106,313,-164,-587,-94,-491,285,-512,-113,197,28,408,-38,-129,-254,26,313,-430,-482
,141,-72,-90,208,4,-185,70,74,-168,95,-150,-8,-1090,-281,-64,-63,-50,-121,-62,-215,-73,-39,-177,-30,6,-88,-73,53,-51,-31,-10
,-1476,137,442,-891,185,69,-714,-15,-351,-664,-82,-829,291,407,3,176,35,-68,-14,-198,52,82,39,-1339,116,126,-431,709,-4,-325,-431
,-14,0,-82,-1297,237,-331,-1051,38,-299,-722,-185,164,1431,285,56,-207,-109,-534,238,316,359,-72,-219,-219,-363,51,169,-696,315,-66,139
,48,-10,-340,-65,-101,223,-113,-1351,-356,-107,-1250,-90,274,-671,22,110,-1537,186,167,-768,-588,-407,-135,-391,-208,266,-37,-478,127,98,-8
,-134,27,-389,-440,7,96,-362,-19,274,-1020,-218,140,368,-227,-177,163,419,326,156,-162,-92,-308,-321,231,-72,32,-394,298,-105,-625,-918
,-41,-63,16,38,-95,23,-76,52,43,-69,-45,-76,-107,16,16,-82,34,-28,-154,88,74,-53,-138,53,-8,-168,-54,-76,-102,-31,-151
,-346,-269,76,45,-10,-300,51,36,-298,-76,-32,203,-711,-51,56,-478,-286,-111,393,284,-156,-54,223,226,-47,-520,25,149,233,-586,-180
,165,50,-409,160,-344,-469,-198,-415,364,-29,-281,-742,-1206,567,-84,-96,-36,-308,186,-716,-133,-103,-137,-427,-1,-69,248,-864,-246,-35,-874
,137,136,54,311,-58,-425,398,400,103,395,-5,-4,-1353,-107,-67,91,-1220,-273,169,103,63,-43,-45,-31,-101,-90,14,-301,-111,-60,81
,132,-184,149,-433,-119,26,320,6,-317,443,-129,227,-762,376,-69,185,-564,-58,-326,-1652,336,41,-264,-5,-38,-29,-156,-356,266,-456,-20
,-186,223,-244,-61,179,51,135,161,-17,489,-688,-165,-1285,-181,6,445,-181,-67,236,111,-322,-140,129,560,-62,106,-65,-567,-465,101,-265
,-653,-349,-578,-541,-239,-167,-1073,-195,30,-816,-48,-149,-230,588,81,-641,161,-580,-835,240,-12,306,249,-415,-7,265,-103,359,224,-123,-215
,-1416,-138,262,-1854,-17,-40,-1515,-216,-343,-2116,-611,-120,540,469,226,388,212,-316,-405,366,80,80,-200,137,-83,-170,90,21,19,-47,-251
,-93,-92,13,77,-62,89,57,46,-258,-71,-138,95,82,90,-85,-105,36,-50,-144,41,-45,-56,-65,-82,-165,-109,-78,101,-93,-75,-167
,-50,66,-59,-7,65,-4,-230,132,-4,124,-167,-138,-231,-57,-82,72,1,-143,-139,-104,-10,-228,-192,44,-168,-13,-61,-155,35,14,-47
,-2596,233,-272,-1048,15,-66,-1397,153,-90,-475,-202,-336,1523,47,-63,-242,-55,108,-422,50,173,143,10,-468,-194,-21,-18,-142,423,-104,430
,59,-200,-93,456,-390,131,299,256,21,59,150,-599,-1391,-392,-201,-282,127,-25,187,-380,-357,-275,-37,488,241,135,-298,149,256,-166,-104
,-106,-544,34,-144,-1219,-245,-118,-366,-494,-103,-747,-110,1339,-52,-106,-95,-1314,26,190,-924,191,323,-596,106,476,20,-72,-382,71,-201,-20
,24,-72,0,129,-17,-11,-24,-114,-79,18,-39,-180,-429,-181,-81,17,-49,19,-32,-236,-45,-47,-99,-269,-148,-162,-8,-36,-81,49,-170
,282,-158,-399,336,-135,-307,294,-162,0,-15,151,-279,-996,74,-132,226,74,-422,-157,-457,26,-191,-58,214,316,388,-660,66,93,156,7
,-69,12,-85,-100,-76,-247,9,-133,-135,-7,-8,6,-271,27,-54,82,-34,2,-204,-82,-80,-28,-30,-8,-2,-160,-13,-8,-220,-223,56
,-220,74,-77,-19,-2,-64,318,17,-33,-177,-66,22,1468,104,-105,357,205,-35,-189,450,157,-55,-276,-296,-150,-201,54,305,6,-16,-60
,-313,376,-120,-298,268,-718,107,14,-22,-2,88,86,-1163,-186,10,-424,302,-217,177,-20,209,-799,-267,-518,-18,202,-107,-49,33,-11,58
,-256,87,122,-67,17,-14,-253,137,284,-581,-20,32,888,-133,-517,-72,149,-77,-76,67,-543,171,-376,25,-506,-340,-191,-409,385,-414,-104
,-163,111,80,-112,-66,-50,13,73,-158,-93,16,-41,94,-36,-138,-53,73,-57,-28,-6,-91,22,-3,14,-74,-44,-96,45,-59,-131,-99
,528,-190,-416,-146,150,56,30,170,37,-458,-126,123,-1277,-387,3,-68,-398,-188,-195,286,261,255,-235,-365,-463,-258,-288,571,21,231,212
,-164,23,-214,-149,-138,-22,2,11,-98,-66,-190,-51,-26,-20,14,-122,-136,-6,-147,36,62,-85,32,16,17,-96,-21,-183,58,-27,115
,-213,34,-66,-345,-191,-72,-338,-15,68,-271,-262,-16,-39,41,-169,161,15,25,-5,176,-139,-110,3,82,-218,63,-267,156,-77,-23,-31
,-192,-22,38,-224,-71,-120,-260,-214,13,-273,74,52,-1647,-338,-78,-66,13,-22,-75,194,15,-169,-41,-181,1,-90,-196,54,-133,-121,35
,-1098,34,-45,-2604,402,-94,-1080,-449,85,-1528,290,185,-148,61,-4,27,-677,-147,-29,56,-149,-547,-198,-190,306,-84,200,581,281,-217,-181
,-156,-356,-844,-425,141,-174,-182,1,-185,213,-195,-57,-42,198,258,448,-358,-417,-389,180,23,-391,142,22,-94,137,-169,851,188,-414,309
,324,-55,75,-131,413,153,-161,-125,47,639,-171,-62,-2873,-93,-25,-151,-47,-7,285,-549,149,47,-173,-329,-133,-240,-7,825,-122,119,-113
,-718,249,-360,-202,120,-197,-1832,407,99,-915,-108,137,-853,49,-144,-250,198,141,-769,89,-100,-408,-243,-277,151,74,16,-104,249,-230,-210
,-640,-538,-92,-520,291,-243,-651,252,-59,-452,-24,215,-48,186,129,-823,-165,-283,91,382,-354,43,-676,160,10,-255,-391,500,243,-281,13
,-656,-712,338,-484,-746,-46,-653,-376,-384,-492,224,-454,13,103,-17,203,-541,227,-58,67,-515,-238,171,186,-241,-215,308,260,101,-19,-53
,952,275,-318,665,-59,127,-213,-116,-174,-149,275,-263,-1335,-108,16,-167,154,77,-715,-740,93,140,-13,-667,-440,150,268,-176,-166,-237,98
,171,-64,321,129,193,-335,120,-284,-165,181,-733,51,-137,83,-23,-53,-101,-486,46,-202,74,-207,153,-561,97,183,2,-30,-164,-80,-448
,-373,353,306,-414,-192,333,-540,67,62,-400,-726,122,770,430,-10,-1355,-440,-588,-35,-322,-332,-498,-34,269,-281,-547,-132,332,-389,66,285
,-451,27,228,170,-313,-268,-767,110,-47,-1559,-111,264,-2223,24,43,259,-19,290,-47,417,25,-199,-74,247,-669,-563,-343,162,-48,-67,247
,121,77,153,3,224,18,-510,-235,344,-51,-1355,-160,1802,-72,-132,-555,-641,110,123,-446,199,-407,-439,-889,39,-215,83,142,53,-107,-74
,154,-197,102,112,71,-159,180,-161,-77,-55,16,-194,-293,66,-76,-55,-131,-70,-66,-219,-99,-33,-87,-114,63,13,-27,-106,-52,0,7
,-391,-244,-14,-304,-205,-984,-376,135,-680,-222,238,102,19,122,-442,409,-739,21,44,-1779,377,-323,262,235,120,-77,-1442,171,-75,174,-116
,130,-218,32,-117,318,-27,-152,-980,302,-39,-113,287,-507,320,-64,-1132,221,-306,-767,-481,133,-353,-229,-577,-433,142,-277,-720,-319,-1292,-279
,74,321,-302,-1082,377,-109,-68,106,-254,-261,-602,-79,73,-246,-141,40,-97,-50,3,-121,53,267,-149,-123,145,-194,-219,-841,194,-232,-117
,-1599,252,410,-656,-418,-423,-633,-138,-233,-923,-160,-130,-1468,408,-327,881,-181,-507,260,-608,-82,-211,-241,120,410,117,-192,-295,-561,98,-98
,-373,-833,-200,54,-47,108,-176,-824,-209,-242,-190,-456,166,171,-174,-471,327,-1212,-725,-427,217,175,-5,-147,-124,-258,-247,-260,155,115,6
,-177,114,74,-323,-234,-706,-209,323,-611,-1607,244,278,200,114,97,220,128,-99,-453,-34,214,-203,-41,111,-180,-260,166,225,-296,-640,321
,-75,-19,-176,536,160,68,10,-84,-309,-141,137,-285,-1728,111,129,436,-52,-468,79,-246,262,-165,-46,-89,-497,268,-43,-509,158,-124,-579
,66,122,-137,-270,20,-41,-411,88,2,-313,-139,48,-740,-216,-40,119,-197,1,-290,-105,-8,-86,-106,-115,-170,10,-42,-92,1,42,-110
,-137,234,-76,-265,-137,-234,-125,-44,-220,58,-454,-22,-611,-244,-178,-468,467,-207,-80,187,46,-486,-224,-104,384,234,44,385,-221,-361,164
,68,-543,109,134,-386,189,172,1,-341,180,137,-60,9,244,67,-546,-42,-255,-697,-593,6,-66,124,-259,-329,-49,-2,15,32,-838,178
,-381,179,-640,-29,205,66,-471,262,-260,-821,-67,164,-1066,-163,-105,17,250,-38,-427,245,130,-94,-200,-65,64,-341,116,-303,-75,119,-470
,505,-727,-29,66,-958,-11,-87,-579,-89,196,-78,-405,-2091,359,-32,-946,-273,-47,189,-646,-358,-108,220,-932,54,-385,-388,-1022,205,26,29
,78,20,-141,19,52,92,29,-104,-185,-68,-148,-89,46,67,-99,60,-33,47,-48,36,-108,-16,-155,-63,-152,43,-118,-85,-13,-113,-93
,-1288,-43,2,-2822,25,-230,-1206,-642,130,-3281,197,56,-214,417,-66,646,12,-100,92,22,148,105,-120,-300,-123,155,131,552,-567,-40,-116
,988,216,98,24,70,-236,-40,-98,156,343,-27,-291,-2563,662,39,-1204,-41,-4,233,-505,-66,-98,31,-481,-238,46,7,-1207,47,-136,-87
,-164,21,-120,-20,39,28,18,15,-316,-402,-18,-114,1898,-104,141,12,-42,42,91,-148,-207,26,-85,115,103,-21,68,129,-100,97,-138
,-2382,-129,-166,-2255,-558,350,1270,-102,70,-1354,136,-82,1273,288,26,-775,-376,165,-124,-566,-38,227,-150,-112,-57,-215,-282,993,209,-396,-82
,-125,-12,-36,-5,-119,17,109,-149,-155,-9,-64,-4,82,40,-189,-174,-109,-165,47,11,-29,-37,-84,-103,-64,-177,-216,-147,-137,40,-166
,67,-134,-182,-94,-10,50,-42,-87,35,28,84,-146,164,-38,24,-127,-12,-65,10,-54,-47,-22,-96,30,6,-153,6,-62,-87,82,-80
,757,84,129,-249,31,-97,349,-1,206,-1406,527,155,-1478,-182,114,122,-21,119,-328,-142,-194,-113,-314,-451,62,7,259,-786,-211,-144,-36
,-1009,-194,121,-807,60,-98,-917,127,-199,-592,328,-254,-190,5,213,88,-33,219,-197,543,-916,110,-216,524,-659,-301,-190,540,80,242,-1
,-71,-550,-132,-206,-369,-97,-34,-141,-226,-188,280,157,-360,328,52,317,-90,-91,-253,-990,293,-168,113,359,-427,299,-402,377,84,-31,-471
,-264,-661,-611,-112,-143,-658,-595,249,-311,104,58,-182,-411,417,-176,-15,-105,66,-25,275,87,-211,-376,329,34,-361,12,101,-211,324,427
,-288,-368,85,-424,159,110,297,132,-118,-706,86,-89,1670,136,-18,-119,-145,27,75,143,-29,58,201,-105,-169,98,-17,-128,70,-20,-377
,-93,66,-55,-201,190,-160,-495,227,129,-57,-484,-27,-865,166,18,-1331,265,-226,142,-770,-19,-219,80,-383,139,128,-266,-659,-481,-221,-262
,707,143,-37,-1247,-293,-333,-848,-404,122,382,415,-13,-2918,-217,-132,40,401,-348,-103,73,-169,107,184,313,-180,-271,4,11,135,337,-207
,-451,-34,-72,161,-277,6,-764,261,-8,-707,444,-597,-1213,-101,2,-267,133,-262,-49,-549,-396,65,97,-485,-6,273,-766,504,-12,100,-33
,-776,-1565,-102,-663,-305,233,234,555,-54,-1577,-842,81,250,411,42,-266,-1491,273,182,646,-632,149,-338,486,-79,-356,-184,-479,-55,-272,-80
,-609,544,53,359,-85,-63,-338,383,116,-298,-141,509,953,-134,-263,-1,-768,-163,-866,-198,15,-190,-254,-66,-429,281,-288,-472,-453,-204,-24
,78,25,9,320,31,-20,167,158,-43,-679,283,111,-2462,-646,-91,-63,30,3,51,-138,8,0,-34,-503,-48,38,-123,-570,-71,-19,-51
,-634,226,-296,527,147,-829,-365,357,227,-726,-216,80,145,118,17,-317,-157,227,320,-864,122,-624,-17,8,-122,-111,-4,145,-93,245,-349
,-2089,-130,175,-1909,-591,-134,-2921,-99,28,-1634,511,-86,1349,179,9,-379,-287,52,5,-1669,-124,-149,-49,589,-90,261,-4,838,76,62,128
,-90,95,-75,-36,-115,-55,-139,-15,-1,10,-168,-55,-225,-211,-49,-159,-146,-67,11,-63,-68,-76,-71,15,-96,-4,-87,23,-10,-6,-16
,76,-34,-108,200,50,-134,7,50,-88,75,-111,-149,-960,-78,26,-220,27,-24,2,-42,-13,-195,-91,-121,51,-111,31,-181,-122,12,9
,50,188,57,254,-91,228,-462,282,-252,582,36,-186,-3127,-899,-168,-57,286,-111,126,119,144,-231,7,424,243,-183,11,-211,4,-52,-135
,-105,-289,-260,-30,-609,-102,-252,263,492,-495,-448,-795,343,318,-260,74,34,-1006,-88,-164,-102,-162,-340,597,129,-67,-386,304,69,206,92
,166,-150,-65,42,117,-35,-583,43,312,-559,-41,-427,-476,299,-113,1,298,111,-66,556,12,-1058,68,-789,101,-21,12,-238,-496,-136,-52
,-834,-73,-364,130,-113,-33,-1446,59,-9,-1015,374,-365,218,-62,101,-129,76,-238,99,48,382,-392,-214,-387,305,-183,76,139,90,222,-765
,-1,-1088,140,73,26,-1259,-6,-23,-135,197,-888,59,-473,11,-294,-163,75,197,-269,-451,238,6,-47,-465,166,-401,-521,-386,39,-592,-445
,-218,440,-137,454,332,-211,217,589,30,295,-69,-112,608,-119,-309,-279,-398,-143,-121,-227,104,332,-142,-72,-9,-96,-42,-595,24,-539,186
,-655,37,89,-386,-111,60,-432,-70,-47,153,556,-781,-2056,-17,-586,-643,178,-60,26,159,100,85,-267,-320,118,38,203,-98,71,-87,-130
,49,31,-139,-108,387,-228,247,-215,26,140,-95,159,-746,-421,-105,-375,-249,241,197,-70,-21,-747,-108,38,79,-117,224,27,-338,136,-138
,275,-98,-7,67,57,34,86,72,113,250,-40,3,-366,24,-67,-317,130,-82,-109,-51,-38,-151,-71,-201,-216,-109,-29,-184,-139,-119,-93
,262,281,-287,583,254,52,273,-308,328,530,-396,162,-1430,-43,-14,-12,-255,-277,-143,-471,-328,58,-290,-376,55,-65,-760,-406,30,-36,289
,21,-64,153,17,-18,-57,-89,186,-179,-145,423,192,18,-500,-278,333,-216,-80,158,-640,-458,-159,-433,485,-234,-36,-32,-53,-349,172,28
,-1153,27,-85,-1302,-126,-62,-2932,-309,-4,-3188,-474,14,-510,708,74,358,96,-40,1,326,37,-68,10,697,130,-30,-40,389,170,-22,-54
,117,4,-83,-30,-127,-44,-42,-127,9,99,66,-3,-766,-211,6,121,-34,-103,-170,-196,-73,68,-144,-264,-159,-123,-10,-284,-58,18,-58
,-582,168,-17,26,-407,13,-132,156,-216,-222,399,265,61,-83,-392,412,-341,-131,-425,111,-330,-388,-110,215,-229,-43,-401,174,-1108,29,536
,39,-145,26,-5,-58,4,73,36,-133,-107,-140,-24,-28,-77,7,50,-68,-46,-59,58,-16,-80,-107,-95,78,-9,-138,89,-26,-99,19
,699,-250,-173,-21,214,297,64,483,-53,22,-15,-262,-362,-304,-105,-118,-232,312,-193,-968,-368,257,-566,-558,185,-311,-12,335,-6,-123,128
,-804,84,-222,-426,-427,-8,-260,88,-190,-854,292,-140,616,-23,43,468,-316,-831,-13,143,-741,337,132,284,-266,138,-471,479,-21,217,-72
,-966,-372,-1,-1208,-462,96,-874,-999,105,-1257,-844,9,-426,-365,-140,667,416,130,-180,-82,116,-258,-22,60,296,138,-273,618,56,-138,-395
,510,47,75,-1019,417,-97,-402,13,-388,170,-298,-165,-417,-62,-89,-321,335,140,-111,-559,189,-47,-59,-404,75,-44,128,129,-461,-671,-169
,453,-357,-204,-31,191,-130,-142,74,-261,-270,150,121,-860,131,282,173,186,-224,-548,-70,78,-309,-170,-170,-255,81,-137,-475,-81,150,-111
,-504,33,-1242,-474,156,-76,-370,417,56,-322,-171,74,801,-1276,-302,-300,145,-571,73,352,-16,179,-1021,305,-246,50,-121,-212,234,-207,129
,128,-58,-50,33,48,35,507,91,-59,-254,-170,-16,2486,-233,-106,51,181,164,214,211,-32,108,41,85,80,-153,47,320,20,13,127
,-115,19,1,77,22,18,71,36,-7,-69,-108,44,-85,-70,-115,-134,12,19,-204,-22,-182,-59,52,-129,-15,-186,-76,-20,-73,19,-121
,71,49,15,-310,172,-653,-109,-689,-91,-68,-50,-206,656,261,-182,131,-339,-63,-635,305,69,29,2,104,217,-83,-224,169,110,136,108
,-133,-55,-177,-380,168,-5,-12,-101,-552,264,66,-133,181,48,11,77,-360,141,330,-514,36,40,92,-108,17,-852,-153,-255,-128,160,-18
,-260,-275,148,102,-324,-280,-183,-298,-786,-378,-467,152,780,423,-9,-37,457,-208,-164,-295,190,-33,-219,329,-98,-164,-26,-93,354,-31,-945
,-1060,-117,-55,-916,42,-497,-1085,-19,126,-1454,-185,-201,-59,472,-202,469,127,-90,-72,192,-215,-300,-377,314,-33,-75,-425,238,60,-95,-230
,405,-279,242,-372,-515,-195,-267,60,-45,-292,199,-94,-269,569,92,163,158,-442,217,-70,-83,-604,379,597,-466,-66,-440,-919,228,-887,-201
,-113,30,-106,152,3,-211,37,-17,-37,175,-78,-154,23,-119,-2,114,24,-75,-196,5,-63,-162,-165,-66,82,-200,-89,119,-64,29,71
,103,-98,-86,52,48,-91,1,35,38,-103,-89,32,-85,-36,-6,-74,-7,-166,-66,21,57,3,-58,-29,5,44,-144,-33,-96,-111,-115
,74,-204,-22,-121,-6,-115,96,-66,-48,76,-1,-125,19,-259,15,184,-147,-87,-119,17,-10,-139,109,50,-26,25,-134,115,-51,-264,-83
,195,-254,59,195,-65,131,-8,219,31,32,107,282,-159,-666,-95,-779,1,-256,0,207,-14,-452,-283,355,-142,130,-11,404,-155,-274,-78
,53,-194,-30,91,-151,-228,5,149,30,-99,-207,-32,166,-91,-73,72,-94,73,-71,148,-35,39,-189,232,-209,-130,-421,232,-120,71,-74
,-409,-79,19,-96,40,5,-819,-275,130,-569,-118,-126,-4223,-1003,63,19,60,-12,-5,-54,-6,-34,8,601,16,148,110,233,66,-5,81
,59,-20,-128,-77,-26,-93,-107,-67,-77,-55,-134,63,-47,-44,-108,-27,139,-91,-137,-199,80,-9,-60,38,-131,-24,46,-92,50,-139,-135
,61,-118,-173,83,-33,31,-128,-55,-145,-164,135,-70,-420,-149,-26,-37,-14,37,-188,-95,-265,-59,-77,-19,64,-47,-116,-25,-79,-53,35
,-153,-457,79,-228,-14,-568,128,-861,-174,-44,-945,-261,-782,427,70,-563,350,-29,-81,-715,-284,40,189,-804,-724,-268,26,-600,-630,-32,124
,22,576,-30,85,-461,-131,-56,-56,38,329,217,-222,-665,428,9,222,-592,-65,-28,-191,-344,-482,-264,-4,170,377,-44,-658,-59,-442,197
,-23,5,-12,24,-85,-182,-62,-124,-1,139,-18,-163,-74,-162,-114,-137,-184,-156,-6,15,48,47,-56,23,58,-133,-109,146,74,-115,-27
,-447,71,-95,-39,62,-141,-383,130,151,-54,174,-67,341,-568,-421,340,187,-244,-605,327,-69,-81,-1022,-67,256,-49,51,262,-568,319,-69
,-1075,-830,-500,-536,-478,-55,96,-774,-924,-558,117,248,-2371,513,123,-717,87,76,-148,371,-501,-193,175,-257,14,53,118,134,-72,-144,26
,-93,-14,-21,82,76,-91,-134,-78,2,-97,-32,-106,123,84,45,26,-137,-147,-121,114,1,-14,37,53,103,-82,-152,96,-147,-120,-139
,-2466,-370,-250,-656,66,108,-1016,-158,-47,-2421,-2,-185,-829,253,-115,447,517,-169,-106,221,86,-360,223,156,252,175,-219,250,145,89,-292
,-95,206,-619,-98,-46,286,229,-64,-29,-230,73,168,541,143,-159,-1073,-116,-98,-353,-838,-661,33,45,179,-91,-71,-247,-53,267,32,79
,-328,-596,-159,-226,-242,-147,-240,-381,255,-231,27,7,-482,38,-39,35,-433,-458,-237,187,-50,-91,-162,7,294,47,302,288,-209,33,-265
,42,186,-408,306,332,153,390,-162,-529,-127,-924,-360,202,152,-47,369,-236,-99,-63,138,-274,156,-135,323,443,-20,209,235,-338,-461,-177
,414,37,79,-895,518,-161,-186,82,87,-211,-570,400,14,414,39,315,-353,-462,53,-88,-469,-80,159,-191,-1109,63,18,-285,-492,-439,-88
,-1555,-172,67,-1303,-114,-3,-1183,-121,176,-1896,272,81,314,-2006,108,-877,73,-13,22,-91,-44,51,-16,-238,-62,-26,175,-1478,-180,-28,-43
,-401,220,-504,-404,94,-110,-649,226,-59,175,-235,8,118,403,63,-600,5,280,-120,-433,-450,27,-139,291,-151,-129,328,381,-265,-159,-436
,95,110,197,259,156,-324,-355,154,-387,213,309,-162,-1864,-392,-284,-4,-165,110,-301,16,-85,333,13,114,54,-338,-147,-22,-89,-65,-124
,172,379,85,334,141,-440,564,-171,-377,177,-61,148,-1600,-303,-240,-513,-124,-77,10,493,162,-233,58,-555,129,-82,-89,-25,-14,252,289
,-122,27,-64,-26,66,-124,31,-74,-139,138,230,-161,-436,-70,5,-10,-11,-11,-201,-52,-119,-106,37,15,-136,-103,12,-125,-142,-202,50
,-108,45,-100,-169,-127,-163,-164,-114,-58,-349,-142,-32,525,36,-58,-63,3,-92,-111,-136,-10,-132,-4,49,17,-148,-15,6,-204,-263,-27
,-41,9,-139,-140,73,-58,-32,-164,-103,116,-217,-106,175,-158,83,72,-68,-99,-160,40,-136,-116,-34,51,73,-25,-151,-18,92,-18,-102
,-147,-301,198,-811,69,-69,-347,85,303,-1044,381,87,261,-128,-141,-540,-166,146,-364,-140,69,-164,-286,53,2,-8,-417,99,-301,-115,-376
,-112,-286,-340,-280,-13,-106,-95,124,31,44,-172,-169,-672,286,86,-1737,370,-308,-112,-395,142,-349,23,267,19,-200,29,-12,379,-133,-316
,-547,-1321,26,-410,-910,277,-323,-79,-65,-665,258,-250,185,140,-135,-1117,146,12,-211,-172,-27,-99,-607,275,215,143,-503,-1001,452,-217,-697
,432,-127,-108,552,215,117,159,34,-56,-147,402,-31,-2351,-263,-36,305,-379,7,-670,-149,-135,-254,-76,-90,-279,133,102,-80,19,-332,289
,254,-341,-79,336,-98,-231,348,-82,-371,181,-264,79,179,98,120,-133,97,-320,-258,254,10,-40,-110,128,-589,-536,165,166,-423,-6,-14
,12,-6,39,-384,82,-44,-145,35,-125,55,24,3,-1007,-52,-62,-428,26,53,-93,-183,63,-120,-161,-397,62,-109,-216,-202,-122,-137,37
,599,-134,31,355,20,43,259,18,88,653,45,56,-3149,125,-88,-31,-353,-229,-196,-231,91,229,4,-307,184,-96,-11,-459,-140,-53,-44
,63,76,79,81,44,-44,61,-140,57,96,95,-159,-590,-104,21,-185,-112,-182,-114,-174,-13,-174,-44,-48,-164,-84,-70,-234,92,-20,-7
,-243,-319,-114,386,263,267,190,-11,321,15,197,118,-1905,-261,-11,550,-104,56,-136,-188,-74,129,-201,646,-250,-120,147,-482,-103,-572,-19
,-585,232,66,-179,-795,-559,-860,-174,127,-1301,249,-311,-730,311,48,183,33,60,-189,-520,-310,-161,-96,-186,359,9,180,54,-779,-791,175
,-84,50,-349,-181,-111,-199,12,28,341,116,-114,-472,279,44,-46,352,-760,-69,154,312,-188,-35,-268,400,-683,8,17,711,-172,-407,-148
,15,-282,151,11,-209,15,-54,-123,-119,36,-31,-60,-1125,-623,-214,-150,-158,-86,92,66,33,375,-169,468,231,-126,-216,-60,71,-77,-35
,-21,50,69,-248,4,-113,122,-24,20,-240,-173,57,-1298,-428,-349,32,126,-47,35,137,21,220,-183,6,122,-443,-122,-257,10,20,-396
,-1015,445,195,-719,-33,-42,76,194,70,319,-19,77,-796,187,-18,-421,-517,-394,-395,527,-73,-130,117,-433,-128,140,-247,203,-521,-308,160
,54,-71,-13,-44,-117,-149,-123,-41,-491,275,-8,34,-734,-291,-5,-313,61,-117,72,-576,-12,389,-296,-144,-423,71,112,542,223,-16,-505
,807,34,-95,41,214,374,-138,-138,-225,-832,355,-127,-800,-180,-54,-339,246,267,-453,-402,-382,-317,-106,-659,-372,-37,-8,-946,262,91,-10
,-233,34,-113,238,-608,209,-216,-327,6,-322,-861,-287,-165,413,38,-12,479,-147,-98,467,-400,-416,-1352,-676,21,102,124,-213,-785,-500,101
,-102,-68,-270,67,-212,-149,-706,49,-239,-74,103,25,-343,-93,84,-201,-573,-216,-564,238,-22,-81,112,-328,192,162,243,324,51,298,-644
,-698,-208,84,-666,-367,23,-1034,-139,-209,-962,-279,0,-3162,-523,-17,859,-101,-65,-54,240,60,-49,-96,480,158,-42,89,590,267,-238,72
,-208,-55,-204,-180,23,-352,-140,279,-252,430,57,299,-852,114,15,347,-625,-208,-417,-524,400,-139,-81,-1092,-73,-126,267,-371,-14,254,107
,-2,-105,16,65,-133,-266,351,209,-420,612,163,-170,-392,140,58,-600,272,148,-103,-1228,414,-357,-54,-288,-260,44,-180,-689,159,-145,-70
,255,-412,-114,-348,-317,214,-243,288,21,432,70,87,-53,7,104,-103,310,-68,3,-16,-922,-135,-211,-269,-507,-214,-96,-464,-353,308,-66
,284,27,-250,-137,158,-60,151,196,189,-200,-323,-113,-1232,-388,-99,33,-637,16,88,-296,1,-90,-304,292,377,-276,54,-312,178,-55,-360
,441,-573,99,-19,-596,-261,18,-37,58,-101,288,307,-68,311,-88,-95,-338,109,-32,-661,-132,-166,-431,-706,-41,-27,-315,-517,-99,6,150
,302,69,137,-236,-177,-20,-487,362,-167,314,-7,-710,-2412,-316,34,-66,-170,30,-49,-316,58,-272,241,66,176,-389,135,-326,-333,249,-338
,81,-67,-100,-127,-149,-111,-163,-36,-131,15,-70,-190,24,-50,80,85,91,-123,-200,-89,-154,12,-98,14,7,-67,-45,123,-37,-133,-45
,-71,-61,-122,-267,32,-24,-249,64,-52,-117,48,-48,-23,21,-109,5,6,-26,-87,15,6,-147,-67,-170,-212,-67,-67,-18,-47,67,-120
,-1540,-329,-105,-734,427,41,-1031,103,148,-149,-68,198,58,293,-333,-740,-250,72,249,-135,211,6,-525,-437,-728,-236,-740,-1029,69,171,71
,-27,38,-61,-81,-72,-77,-58,4,-190,-145,-13,46,-43,42,52,29,37,-172,-61,-132,58,-137,19,-6,-107,-114,-67,-35,-88,-111,82
,192,-252,51,85,-373,-34,90,127,-46,244,-375,120,141,32,-122,-38,-370,-244,-111,48,-574,-65,-217,171,105,-86,47,49,-288,6,11
,154,393,13,-671,-122,-20,-754,5,46,500,120,-62,-2655,-1127,-187,377,126,83,-71,71,-221,-144,132,-186,-208,-182,-173,213,132,202,137
,-454,-135,-150,-716,-134,-56,-173,33,6,-1149,-39,116,1173,584,-48,477,-32,-189,40,424,14,-191,-26,88,-66,114,-285,550,84,102,-11
,619,46,-346,-486,256,154,-548,268,197,-61,-641,138,-1249,264,-44,-353,75,-266,89,82,134,-104,-142,-772,87,-165,175,-1415,-281,-14,-496
,43,96,-103,-68,-175,-237,-22,43,-59,-203,-118,-104,62,27,-13,-113,95,24,113,22,-12,-11,-90,-178,48,-164,-115,-22,-163,-18,-97
,-115,13,29,130,-90,-13,-55,-131,-81,-13,-7,-15,75,-72,-6,-90,75,-71,-168,-38,-39,6,-78,51,-87,-41,-117,-128,40,-69,-26
,-196,423,146,404,-76,-640,410,-506,320,-348,318,68,104,-77,-210,133,263,-562,-53,-140,-28,188,-442,173,211,-617,-278,-62,-62,160,-809
,20,324,237,-878,-363,138,-836,-222,202,-1142,-580,-266,432,323,110,207,376,149,-174,445,206,-4,-344,129,-257,0,-111,-49,25,37,-164
,114,259,-150,278,184,94,158,267,-538,-134,-57,-28,-7,115,-49,-15,-56,-395,-99,61,-858,116,-387,150,61,-624,113,117,32,-342,-135
,-358,-113,-44,-361,-38,43,-157,50,-36,-442,-104,-40,1208,112,-72,-86,74,-30,-125,-47,-114,36,-3,34,-37,-164,34,-216,37,25,-30
,-107,140,104,-943,283,163,-333,-814,-157,564,235,-8,-2594,-84,-6,-737,-105,-604,-106,-703,157,-504,-2,123,53,-159,220,187,-89,-121,309
,58,524,57,-429,-493,340,-421,-276,93,-251,-178,182,-1189,-545,-27,251,-331,-164,-112,512,-260,-18,222,-86,-1043,-39,-144,-166,-320,20,-39
,515,-62,39,162,-115,-627,-476,154,375,-470,-188,228,0,-54,19,327,108,-372,94,48,-38,-154,-331,3,14,-351,-86,-139,163,-630,89
,-25,-90,-155,-29,-63,42,-19,97,-185,-39,-163,-43,88,-46,32,79,-47,62,-114,43,-12,45,-29,-98,-58,-41,-61,-9,-101,-165,-56
,354,99,335,522,-526,-240,-291,392,-22,-438,465,123,925,-185,-495,269,-458,243,-436,177,-374,90,-145,-116,-14,-426,-219,-67,30,-271,36
,629,135,-879,-471,34,214,-68,343,-76,-16,-222,-157,-458,-120,51,-765,25,-243,-37,-228,-362,20,231,-280,-343,-212,93,405,197,-231,311
,132,-112,-166,134,-107,-237,256,-60,-94,217,-367,-204,255,-120,-128,13,-28,-73,-153,-49,-40,-122,-129,-117,-95,-132,-197,-155,-95,-279,-283
,-184,602,-16,350,-158,161,-287,-828,-196,-86,-312,62,417,-48,-30,117,183,-77,-349,-236,244,216,95,-800,-397,-254,-270,-1003,-118,-181,-186
,-574,192,-578,27,-936,106,-922,90,-105,-67,5,-13,-629,99,82,-427,-405,-210,22,71,330,-19,-202,44,79,-161,-112,-875,485,27,139
,-121,288,89,196,-61,260,423,161,-6,662,-270,-63,-1301,-277,-603,-471,-140,-216,-124,323,-277,259,145,-190,209,-210,41,-219,-657,-42,-94
,244,-411,224,-15,-372,103,155,238,-426,74,179,-708,246,-365,-930,200,151,121,-194,-195,-389,39,-188,127,178,-446,144,-147,56,111,-588
,161,73,261,327,210,-40,-921,568,-44,868,-421,-341,-457,-38,-73,-939,-182,-356,343,-386,-5,-93,-285,-646,-161,-48,-272,-315,19,45,34
,72,-58,91,487,-95,-155,-1059,-135,79,-606,316,-332,-3304,-159,122,-252,-24,-119,-153,219,-392,-373,365,97,40,-275,81,600,41,-397,291
,-388,-12,-62,-589,-119,-26,-290,-225,-40,-1056,-320,26,1751,253,49,213,52,-96,52,211,92,-119,6,307,-2,39,-51,277,-59,-77,-142
,-442,-80,-295,-464,-169,-62,554,-227,98,-242,-208,-196,-900,186,-163,-491,-110,-243,-200,139,258,-4,147,217,264,-171,-77,-357,-418,155,372
,32,46,-113,70,-94,111,17,35,-161,-7,-89,-25,-109,69,-106,-77,-64,45,-118,55,-55,36,-143,-8,-2,-64,-32,-261,-135,34,-42
,21,-160,-189,-106,20,-44,42,-143,0,-81,-18,-149,-70,-68,-55,-148,89,38,-91,-140,-56,-45,-46,96,40,-134,-26,31,-151,41,88
,10,-226,-20,-166,-183,76,-187,-198,41,-71,-118,25,-18,-14,110,37,9,-24,76,59,7,-142,-191,-80,-45,-179,-87,18,-149,-24,-25
,-107,-36,-204,-72,-17,-210,-153,-32,-196,11,-34,-151,-15,-75,-68,-62,-48,-12,7,-227,-131,-22,-118,-216,-12,55,-12,-36,-18,-127,65
,73,-278,-218,-987,210,-334,20,223,43,108,-50,221,-1452,-374,23,553,2,98,153,-223,25,-149,-492,194,193,-137,-270,-137,-336,367,-241
,-89,25,-143,-92,-73,-186,623,-176,516,352,218,-243,-1627,-375,123,5,183,114,-7,-292,2,45,-347,147,-643,-275,-154,223,27,-40,-305
,8,-175,-111,-105,57,-73,31,-12,-269,-10,-119,51,190,-115,-65,-92,3,-245,-26,38,-62,-74,-209,74,-78,29,-48,-210,115,40,-76
,86,52,-42,239,301,-109,-186,102,-84,29,-383,419,-552,-389,-153,-406,-46,-27,-308,578,-208,-176,153,291,-80,202,321,-470,-436,-153,-402
,-394,-559,-11,-699,-140,-16,-969,255,210,-252,-197,24,-1174,-244,-172,312,68,-114,70,305,62,-24,-356,-614,-385,26,-533,550,-624,107,351
,-33,-340,-116,22,-235,106,467,57,100,448,-400,-376,-504,-343,-33,749,183,77,-13,294,115,97,-242,399,52,-39,39,-1245,-244,16,4
,-406,-4,-8,-430,-157,-330,-577,-307,-830,-460,-1007,-128,-1102,467,-100,-1317,-295,-221,-757,-611,218,204,-396,184,425,-53,-85,-541,146,1,220
,44,-103,38,49,-86,-79,141,-139,40,92,-72,-79,-109,-92,-109,-59,-145,-132,-13,108,-107,1,20,-25,-102,-8,-110,-70,-110,-132,-108
,-274,181,-179,290,-559,-21,-371,282,-267,-13,-140,-50,-1410,342,-44,-441,-145,195,34,-109,-93,13,21,-1288,-19,182,-242,-1038,-101,-10,384
,-5,-124,-132,25,-53,-46,-62,-60,-131,-31,58,31,62,-31,21,52,-157,-74,-105,20,-30,-72,-160,49,-22,82,-132,-170,7,-41,-157
,277,-68,55,227,-245,150,253,190,-132,570,-130,-203,-1476,90,56,-125,-6,237,-188,144,-203,120,210,-228,-150,-165,-254,-237,-69,-262,-554
,285,-129,-187,-55,-17,-16,-115,86,-37,-22,97,-111,-792,-61,-149,-61,-28,-1,-75,89,13,-156,-52,-254,-162,-33,-17,-68,-27,72,81
,40,-244,-315,186,145,-166,-84,-292,82,98,-293,270,-84,262,4,-159,3,-567,-150,-200,-42,29,-17,-116,-7,-765,172,-1,-64,-108,-159
,-940,222,424,-1094,61,269,558,-582,-392,-1362,203,-100,93,171,-113,290,-203,-254,-560,-1212,267,-131,-45,-248,-113,-97,314,332,-686,-246,37
};

long bias_0_sdf[1*256] = {
-222,-409,95,106,20,-604,451,-1044,224,-236,265,241,-48,-582,-51,-270,-159,-36,-26,74,-68,-217,-153,60,-27,-53,-343,-62,416,-374,-189,220,-184,-258,-42,139,358,-60,1285,224,142,309,-384,75,-25,214,-54,82,114,286,-21,-912,-35,-379,-3,253,-257,-547,304,-643,-102,-210,352,68,280,-228,-171,-403,-55,-43,-340,202,-121,105,-240,-60,-1466,-206,-419,-95,-55,-229,-320,418,-571,-186,1006,408,-262,-15,-409,-132,-611,111,-533,15,-145,262,-131,-32,-77,-358,24,173,107,-26,-74,573,-50,-907,476,-809,-611,-62,-140,657,99,72,-59,-564,-97,347,303,-333,-82,908,-242,-505,93,244,268,43,-391,-70,194,-239,250,-51,135,220,-253,-1087,218,-276,-29,87,-96,-197,44,-79,-633,-803,-55,-376,-8,-159,-559,-106,-88,-10,10,-67,-166,1117,-5,67,113,-435,-92,-153,-265,-15,-564,-349,-181,-154,-296,48,59,409,558,-6,-401,-22,-160,-167,-275,161,58,172,1080,157,71,-646,17,157,227,-9,141,-34,298,-61,194,-208,-156,-189,-166,74,162,-73,-211,-271,-44,-114,129,-713,-15,-90,-48,-222,-789,-57,-486,87,-72,-189,-21,-29,-275,-260,35,136,-23,142,128,321,-817,-339,60,-85,-144,-121,69,210,-148,111,-29,-122,-181,-46,330,-54,260,163,152,76
};

long bias_1_sdf[1*2] = {
553496,-249422
};

#endif
