
/* Trace */

/**
 *  updated on 09/02/2020 15:02:02
 */

#ifndef __W_SDG_H
#define __W_SDG_H

char name_sdg[] = "Trace/sdg";

long weight_0_T_sdg[256*31] = {
-860,-164,-6,-963,-156,8,-1066,-248,60,-381,-86,114,2198,301,55,80,-123,4,-150,118,-109,-198,-252,74,149,-189,-28,479,-226,-52,-163
,-70,-38,-66,116,-198,-191,98,-188,72,-102,-46,-170,168,-169,-3,46,-83,-73,-40,-162,-68,-132,41,133,-194,80,-169,-86,15,21,-121
,-47,-145,-522,-66,8,-264,-650,12,-4,-435,74,111,-243,477,-364,-82,-357,-349,155,174,-41,457,-123,37,-659,-8,-921,-552,252,-334,-240
,-664,270,-608,-508,12,-151,-901,-819,-58,-417,-185,-53,-365,449,-171,287,-132,-19,199,-2339,107,-436,176,835,292,-219,-593,185,191,-178,-21
,7,-182,-113,102,-67,-136,-99,-23,-3,151,-191,-118,-123,28,-19,83,-21,-66,-7,115,4,29,-156,24,-148,-27,44,-131,-36,-123,9
,1,-68,-145,-41,-109,39,-253,20,-80,279,33,-59,-675,-8,-53,118,43,-39,-164,9,-24,-110,-115,291,53,-113,-126,-226,-18,-4,-42
,-1368,49,-135,-1032,640,-405,-1293,-436,-161,-824,199,73,-1538,483,-57,241,270,-36,255,-215,98,35,-282,62,-741,-165,-232,-1641,-142,-358,93
,-779,131,-259,-770,229,244,-663,35,-116,-591,-81,46,-419,460,19,151,296,-472,249,677,-452,-194,74,-221,-491,-211,-1398,-1092,-354,-124,-186
,-1,6,-48,3,-44,36,-67,38,-8,-45,-81,-2,-604,-100,-149,21,91,-14,-3,83,25,-1,-141,63,-205,-21,-12,-285,-114,-94,-204
,-128,-429,-60,78,269,5,416,212,-91,-566,-108,-263,-1355,-537,-229,580,137,127,2,14,75,-70,-202,712,129,-122,140,-500,-412,65,-64
,-324,-157,221,-383,-43,-79,-412,35,-204,-340,-11,-135,-20,223,12,-518,-230,-114,-1178,-503,-207,-435,14,483,102,267,-234,-276,186,92,7
,48,86,-45,34,-88,-127,-40,48,54,-20,-116,-71,-151,6,-123,-156,-197,38,-44,67,54,-76,-23,-91,-4,-144,-160,-75,101,-177,24
,-237,-113,61,-70,-281,-166,-273,139,27,167,-599,130,-723,202,-127,576,-331,113,-91,824,-313,-455,-55,71,409,-211,154,-92,-365,-30,-199
,-109,-111,42,-81,-54,10,-30,0,-159,-142,-146,-16,-126,-14,-43,27,-157,-75,-9,-94,-138,5,-58,-24,-87,45,-129,-21,92,-52,-37
,-64,311,25,-532,59,-225,-232,389,-78,181,-424,-75,-1430,-127,-157,414,136,95,-77,-461,484,-348,-184,-598,-261,94,-25,256,-119,-200,-47
,-367,505,42,-1065,-9,64,-616,284,115,-137,-277,117,340,226,-38,1001,-340,-64,-193,-1326,-360,-179,-1089,-802,-489,-183,36,-260,-363,208,-185
,-203,-206,-128,-358,-51,-31,-385,105,273,-366,171,-69,171,256,-283,-387,115,-562,-371,-266,220,-67,-1003,-498,53,106,80,-573,-202,-305,-1071
,-430,40,-100,-191,-130,-155,-373,-475,41,-294,-219,262,244,-402,-154,-464,-363,-336,173,483,110,23,-416,-51,123,-359,-7,128,407,-172,-153
,-196,157,197,309,177,-77,197,288,-21,542,23,-311,945,-669,-33,511,-285,-261,-365,-228,-235,13,107,217,-570,-149,129,-107,-2,-607,-216
,2,-185,-141,63,-70,45,-140,119,-52,81,30,-101,63,40,-75,-15,95,27,30,-77,-18,-163,-149,-105,-4,-115,-101,28,-61,-60,-118
,-416,236,-32,-410,184,-756,-176,255,-600,-87,-120,-276,-350,-122,-277,-206,139,-13,85,317,35,-11,-162,9,-160,69,-239,-98,81,-316,-359
,-439,-113,-47,-163,-217,-16,-342,-77,-154,175,217,-31,-168,456,-40,405,24,38,17,791,162,-121,-126,698,-74,-10,14,1009,193,-24,-147
,-92,93,15,106,37,-157,-123,35,-21,-97,-51,-25,19,-11,-40,-64,-152,-87,-8,16,2,78,-115,-148,-103,-139,14,102,-129,-109,-84
,-281,-31,-23,-525,-34,-32,-417,-76,-13,-592,-66,-42,2037,608,46,684,32,-21,-11,677,53,-18,-9,761,70,-52,-13,1204,94,7,-4
,-679,147,-325,-599,-126,-163,-517,-130,-11,-659,-297,-42,37,181,-434,192,313,47,-29,64,-624,-74,-369,416,173,-47,70,-49,-3,-53,-248
,-31,-370,69,101,-495,236,-30,-1054,-93,-35,-279,-597,41,-131,26,-241,-804,-322,-1203,-75,-581,193,152,-228,-397,-668,16,-131,-364,75,160
,-1024,37,-21,-642,-80,-109,-410,23,-588,824,554,-183,-56,643,83,386,-749,73,9,-881,-123,-83,82,-67,16,-30,126,-122,-3,-144,-224
,235,293,-103,439,-1,160,-626,-122,-89,-338,80,-205,-450,-534,-287,-76,-325,25,92,132,116,31,235,93,177,-155,-17,399,-662,-544,-281
,87,-154,-197,288,-578,102,5,-377,46,-59,-196,-654,265,448,75,-354,-207,76,60,259,-394,-420,-48,-450,176,-130,305,407,291,-211,-281
,68,139,-3,-41,47,-6,-9,-101,-132,70,27,-11,-454,-59,-122,-72,42,-29,-208,4,22,-137,15,-346,3,-25,-90,60,-17,-44,-159
,-52,-296,-910,99,-180,-365,78,-1047,4,98,-501,359,312,-3,-66,-85,-73,-1067,-108,355,-349,31,116,259,-19,29,-184,-163,-1878,185,117
,-822,-114,-122,-1056,562,-248,-834,-140,-46,-824,197,-331,-1172,81,-221,-189,-429,26,146,346,-537,-164,89,-952,213,5,165,311,-74,47,-203
,-344,-411,-149,-93,234,-88,63,-171,-69,-197,10,-319,26,-242,132,840,258,-65,-25,860,-71,-329,126,-196,128,-141,38,-274,-37,180,-57
,95,134,-250,-190,495,-259,-282,-353,83,-213,-165,-326,-317,-497,-382,636,-154,-169,-279,3,413,-185,15,91,351,-385,-121,251,-86,21,93
,-97,399,-207,268,-251,-8,257,-48,-339,276,615,55,169,-157,-39,-221,75,-467,-720,645,-169,38,-278,110,-465,-379,162,86,104,25,40
,-720,367,-4,-440,365,-218,-390,11,113,-894,298,-173,-281,-220,-70,53,105,-32,-26,550,-624,-198,-93,306,188,-664,-442,292,-94,75,-237
,232,-515,39,163,-243,-157,250,-416,-229,369,79,-51,28,252,37,519,-477,99,-185,-5,-149,-304,252,374,-371,-338,34,148,-233,-99,39
,-30,-64,-334,195,10,-176,369,544,-540,325,-258,55,672,316,40,51,56,-797,-16,-25,-75,-967,246,456,-601,-115,41,146,-16,339,-35
,128,-119,29,195,-141,-11,44,91,62,-83,-142,-157,-115,15,-11,-40,39,-191,-125,67,-5,-139,-61,-25,-114,11,-93,-22,35,-220,-53
,-151,179,-150,-198,19,-263,-419,-258,-21,-184,-205,-107,-379,-569,78,74,-37,-124,-149,14,94,-276,235,208,90,-253,206,746,-116,-67,-373
,432,-383,-65,352,20,-648,155,-568,-35,-201,229,-299,-13,229,0,293,-585,-121,-931,-60,359,-33,-675,-732,-466,215,-345,-268,327,340,98
,536,-629,146,208,-475,-33,-564,-858,-573,-745,-762,-51,-1413,17,-218,581,246,-117,25,667,-10,-131,29,27,-184,20,203,129,296,-121,-129
,-13,-1393,-320,-580,148,-188,85,139,-62,594,795,249,-227,275,67,-168,-654,-79,-67,-704,-832,264,114,-645,-1045,-161,103,-247,-609,-28,-69
,157,-63,-7,205,133,-82,389,110,-79,177,110,16,-878,129,-181,-147,-60,-79,-170,-207,-83,2,-195,-49,-242,-51,-135,-375,-201,-269,40
,-174,-5,-57,-153,-127,-76,-5,-54,61,50,-141,-126,-128,-126,-48,-228,-18,25,74,-180,-139,-130,-231,27,-1,11,-6,-129,21,-44,-162
,-674,-29,-293,-496,-152,-600,-678,221,-870,-310,-93,37,-473,133,-637,32,-24,41,23,305,240,322,-300,491,-442,-300,203,219,389,-336,-93
,-360,388,-33,-550,-110,-345,-958,250,-494,-661,-56,-318,-228,81,89,120,-515,113,-23,185,533,-129,-110,311,105,-340,84,-346,61,202,-348
,-83,-98,-14,117,64,9,-43,21,-183,119,89,-73,56,-48,59,-115,-22,-86,-83,-19,-65,-100,-178,1,100,46,-140,-74,-76,12,-11
,-62,-82,-160,185,19,-77,23,-98,-36,-42,-307,-12,695,177,-43,16,116,-53,-160,4,-110,-158,65,94,-233,-31,-110,96,-175,-80,-114
,59,14,-147,60,5,88,-34,-89,-60,-13,-152,-43,101,35,-51,-66,17,-21,-93,99,-30,-94,84,-102,-77,-102,-102,-119,-23,-98,-136
,197,-74,-100,-40,15,10,-82,-36,-15,241,69,6,-392,-125,-105,-71,73,-162,-11,-69,-42,-128,-20,-18,72,-16,-247,-69,-52,-58,1
,-294,-246,184,-216,-412,-239,-547,-159,-131,-392,-329,99,-654,-806,29,294,-196,-267,-318,245,-3,14,-308,646,-112,229,-217,85,364,2,-148
,-405,-223,-162,-482,217,-1546,-413,-9,-38,-432,318,75,-339,-214,-309,64,-719,28,-283,-613,-300,123,-726,681,329,-94,151,-763,248,-111,-229
,-848,-448,261,-363,39,10,-213,271,-20,-472,164,-14,-267,270,-285,167,123,87,-156,581,38,-925,-56,286,-185,60,15,546,-1002,-184,-222
,84,-77,80,-38,-121,-74,-4,22,-162,-21,-15,-129,-86,-72,-54,89,66,-151,-70,-60,112,-139,-15,-113,-85,-66,26,124,-15,-123,-66
,-107,436,-203,69,510,-289,139,-24,-226,36,-58,-288,-291,37,-561,149,-214,15,-407,-75,-56,-61,-219,48,-38,-150,-5,197,402,208,104
,343,532,66,440,108,97,-175,60,13,-305,-191,-210,-2029,-278,-104,416,-536,-166,-44,18,-191,-45,87,-277,-251,-110,-80,-580,-22,-25,11
,364,-75,-108,-255,102,-13,104,-348,-86,90,-303,166,-716,-1049,-161,849,-165,-69,44,272,-36,115,-261,-293,-270,-88,-102,334,323,-412,66
,-63,63,-13,-113,34,16,-57,75,21,135,-35,-68,-452,-176,-170,-8,-88,-90,-105,18,-22,-14,18,71,-155,-97,8,-239,-20,-25,-133
,-297,-134,141,-358,136,-151,-354,-181,-166,-405,-219,55,-47,107,-123,460,-265,41,-353,316,166,-348,-225,277,165,-16,-93,-271,83,-169,-296
,-248,-271,-47,-81,38,-342,-298,-148,-127,-106,477,-222,-1300,-343,-261,150,317,-355,-121,-542,-103,124,1,498,15,-281,350,551,18,-82,-10
,-926,111,-94,-916,-735,-1154,-705,248,-95,-717,92,-76,-755,363,68,-1783,159,-439,-145,-277,69,284,-460,-590,216,-250,-187,-1299,255,126,9
,-54,-472,211,-164,330,-209,-102,-486,-334,-114,-584,-22,-49,256,57,-693,-124,-116,129,-606,469,-499,-571,-613,-554,-344,25,-223,-327,-921,10
,125,-4,223,323,268,-94,381,39,178,500,69,-287,-1344,-487,-257,-163,21,166,-11,116,-219,-296,-162,-15,-19,-34,-143,123,10,-189,-67
,381,35,-404,-166,279,80,-548,-168,120,-226,-223,122,-1258,367,-26,-312,-257,-500,-174,-85,192,-204,-833,117,224,-445,169,79,-247,-39,65
,38,-281,-80,-123,-58,-13,84,-59,2,-36,73,-110,366,17,-130,25,-192,-173,15,-15,-49,27,-130,-175,-36,-14,-73,25,-201,-120,-33
,25,-869,260,-113,11,-1063,-320,171,-75,-184,212,-265,-558,325,-893,-121,420,-3,-78,-1061,-167,261,-358,-247,-718,-180,159,429,-246,-160,-221
,442,210,34,953,-61,-10,632,-65,53,830,217,77,-2591,-511,-111,-648,-48,112,39,-193,-74,8,23,-333,-103,66,5,-838,-19,11,-25
,73,-197,29,85,-66,-235,-127,27,-289,40,-56,-51,1003,-78,-109,91,-320,-66,-142,186,43,-26,-19,-31,-99,-119,-102,200,-13,-84,-129
,-288,227,5,3,22,-122,-239,43,42,385,-521,91,288,42,60,442,-132,2,-50,209,-191,-255,104,781,386,-309,-79,186,150,-628,-632
,-22,-102,-72,-102,-143,-25,-5,-56,-129,-76,-193,12,453,-100,-9,-57,-210,-8,-14,12,-104,28,-138,-46,-157,-14,-31,-15,25,-4,-58
,601,-381,-181,617,66,136,636,-157,9,47,300,-221,856,-769,-111,470,99,-98,-84,388,187,-274,61,165,-192,-178,-138,364,132,133,-550
,-123,-212,1,49,-77,-139,-123,-101,37,36,-212,59,295,79,-61,-162,-62,-177,-208,-78,-89,-13,-237,-83,-76,69,44,181,-421,-148,-88
,-209,-830,109,-246,-950,-266,32,-36,201,15,271,-448,-100,389,108,-156,-804,328,-179,-436,-233,-206,-81,7,-222,-382,-641,-872,444,81,-54
,-619,485,14,-697,23,264,-506,-56,-68,-139,183,-31,-1886,9,-59,155,18,-105,46,835,-154,-456,-19,48,73,-429,-203,-602,-60,-136,22
,237,-1546,-16,-447,-1104,-454,-381,-279,-307,-194,376,-182,-125,453,-405,529,129,-107,243,-509,-11,265,150,180,-499,-109,0,292,-306,-238,-476
,266,-112,-188,60,138,-97,-13,-233,-53,-171,-227,-143,-637,-122,-73,128,-169,-65,-30,194,-318,2,-22,-78,105,-73,-245,-294,-133,-39,-228
,-594,-76,-484,-380,-384,-294,79,58,67,211,130,119,-992,-89,-49,622,18,-258,-32,-196,233,160,64,46,28,-283,-136,-1173,181,38,-309
,-241,-403,-149,-352,49,69,-7,-148,14,172,-202,-30,-942,-414,-573,-231,64,-416,-281,86,-175,-59,-87,48,140,-137,-42,507,494,-163,140
,-211,-121,164,-283,-325,-319,-342,33,-159,-269,-77,-355,57,172,-259,-183,-603,-38,-12,-1146,183,-122,-839,780,126,342,-9,598,390,-294,-147
,-347,5,-903,-382,-57,-12,-205,-348,-413,-147,257,-157,-849,138,-12,353,204,33,-87,-228,184,-541,104,-590,316,-229,52,-81,196,-301,-81
,162,35,-521,409,-101,-248,147,27,213,397,-340,-63,-148,223,-168,-672,143,-241,228,-218,144,4,-197,461,230,-402,16,-311,-22,-275,-173
,115,18,-184,305,226,-270,14,-460,-419,516,-153,-69,-680,-127,35,-5,132,56,-278,40,181,-4,287,-1087,164,-249,-342,300,451,-190,-218
,-131,18,-15,19,-6,-34,44,-37,90,-92,27,-121,31,-89,-61,72,-21,-71,49,14,-157,-78,-1,91,-9,45,-149,-93,-141,-68,-128
,-157,236,-67,-128,21,-57,-241,104,-57,-288,-15,-37,-352,-178,-196,-167,-93,-148,-178,286,22,82,-196,81,-387,48,-185,256,-191,44,-337
,-156,43,-46,43,-126,39,-128,-108,39,54,-123,-130,41,109,-142,-107,8,-95,-4,-105,-76,-10,-13,24,-114,-54,-30,117,35,-46,-85
,-202,-301,-368,549,-221,-227,249,-107,-22,183,159,-64,97,-199,197,-895,50,-286,-43,396,-331,-245,48,165,-313,50,-17,-46,391,-305,8
,-2,19,64,4,-163,-120,27,-98,2,-120,-124,10,-106,-10,14,3,-81,-110,16,-15,85,-95,-144,104,-35,-126,-98,-70,-92,-75,-25
,-46,38,-63,20,7,105,150,-19,-26,-39,-125,-178,-127,-10,-106,72,44,-131,9,-2,40,93,-87,91,-123,-162,-119,9,-138,-159,-92
,667,-13,-30,946,124,-113,742,-113,-36,288,25,-42,-954,712,-102,-1958,18,-104,-33,-1249,93,-21,-53,-2786,161,-60,-59,-1982,174,6,-54
,-136,351,15,-406,-156,-161,-276,-511,-35,-313,-413,-667,-1054,-244,-61,502,124,-571,254,56,-162,-124,-245,561,260,-155,-238,129,-3,175,94
,-958,-30,-77,-518,-555,163,-427,-352,-287,42,-586,-56,-919,531,71,221,-188,-123,-362,-402,317,-297,-19,-2205,-490,-82,26,406,349,-128,41
,-438,-1324,35,-871,-402,159,-696,1,-417,-36,347,-377,862,433,-212,244,-467,-389,-186,-395,-398,89,163,619,284,-309,41,284,177,73,170
,122,-159,-65,-778,335,-310,-421,182,-63,-265,421,-135,602,508,-20,-1185,-232,-23,-82,-160,296,-94,62,-193,222,-176,64,-1246,-374,-402,55
,-306,299,-256,-635,-419,-23,-446,-260,36,-934,-203,-638,-431,-357,-165,-469,-313,92,-205,275,96,-331,-82,535,352,223,-61,68,-130,-55,90
,-422,322,-260,-56,-10,-293,-104,-450,-177,-118,26,-629,14,359,-179,-390,193,-428,393,248,11,193,51,84,66,-279,-212,634,-366,-23,-1172
,-575,35,52,-221,-36,-156,-513,-212,-130,-858,-62,-193,1998,-21,64,358,-142,-30,-67,45,20,-17,-165,161,-98,-189,-7,88,61,35,21
,69,-892,6,211,-1190,-54,213,437,-570,156,413,-85,51,-207,-30,341,375,-484,-331,370,-88,-115,-449,-147,-340,5,152,-243,-234,-89,-20
,134,-148,86,473,432,-323,351,182,-129,396,337,33,-1787,-414,-66,-56,37,-75,-40,33,-92,26,25,-80,-194,-90,10,-32,-241,-154,-227
,-19,-55,10,313,28,-37,441,248,83,515,-182,-116,-1016,-10,12,649,373,-35,-217,-176,-36,-268,-69,-63,-189,-467,10,-1102,201,-599,61
,-109,-1,-56,-491,-3,30,-520,-163,-4,-31,-20,12,3416,-315,-8,-155,11,-29,-26,-173,-5,-13,-17,-742,19,4,-10,-218,-56,-22,-6
,-163,143,-228,141,-31,29,319,-239,12,481,139,-258,-1065,-727,-49,775,-182,-30,-111,-251,-22,146,6,238,172,24,-156,-36,32,-5,-311
,-557,-515,-154,-967,-217,-136,-297,58,107,224,-448,96,419,680,208,280,412,31,-154,-1176,-458,-134,-45,-183,-278,-50,-36,113,-254,-54,-318
,110,-31,-2,-104,-58,-68,-61,-127,19,-13,28,-85,-72,-92,-22,-30,-4,-121,-65,129,-77,-94,40,-35,-43,-107,-122,45,113,20,-96
,-25,212,-54,-362,128,-378,-155,-80,-178,-546,-408,112,-785,-325,-81,-56,-42,260,146,-67,-219,-22,-40,576,356,-381,-179,737,-321,-176,-264
,116,-625,291,-17,-923,-516,7,-508,-97,7,-429,-672,-35,43,196,-131,-236,-1082,188,-164,-135,-75,-417,-249,32,62,-377,361,-230,-234,103
,-186,21,-144,-101,83,33,98,23,-21,-43,29,-85,-218,-65,-134,-60,-91,13,-9,-155,-21,-70,-37,-9,-86,-49,-31,-205,21,-179,-16
,-256,-16,-37,-355,144,98,-329,-349,-157,-780,-156,71,1690,171,5,168,-181,11,-207,123,178,-150,-48,163,-94,-115,72,431,-72,-193,-107
,-199,-17,115,-65,409,226,299,-328,114,77,-123,-319,51,386,-407,445,-160,-360,-709,69,38,-1033,74,124,224,-657,-570,-240,165,-710,50
,-902,448,-245,-933,143,-221,-143,-226,-144,-613,379,203,-1133,425,-138,517,-251,-55,-65,-696,-33,70,-39,-657,20,110,-51,-1315,-115,-127,-326
,385,-242,263,336,-459,-267,420,107,-22,448,-411,-29,-779,33,-66,421,246,201,-131,-453,-191,-233,-543,-121,264,-477,1,241,-156,56,-433
,71,-45,-109,-71,77,-32,-7,-58,24,55,45,12,-658,-35,-143,32,-205,-117,12,53,16,-59,-114,-89,-97,46,-70,21,-1,19,-21
,17,48,-209,22,-7,34,-28,59,-7,140,89,-61,183,-118,-61,-141,-217,12,-134,-44,-42,12,-161,23,-64,3,-138,49,-34,-158,-61
,-238,126,-701,-127,-349,-582,-226,-117,-298,-70,-5,-351,322,-177,-258,-38,233,163,-263,107,73,-72,-251,116,186,177,-13,681,-578,-464,306
,-430,-104,-86,-258,167,-213,-11,198,-344,112,130,-265,59,-204,-54,191,-150,92,-207,-47,324,143,-585,-55,-362,-270,-387,-834,105,-37,278
,-319,272,-63,-309,612,-278,-308,-238,-174,-180,-46,-6,300,181,-112,119,86,218,-19,-334,36,-258,-130,-550,396,-418,-306,-401,-311,-639,-2
,-1543,-4,-423,903,351,-342,-336,-657,-540,-1153,30,307,-626,217,49,-285,44,11,-221,512,278,-251,17,-855,-961,126,-154,-61,181,-152,87
,58,-408,80,57,394,-135,-24,-1406,-312,6,-1142,-392,-193,202,-641,-600,451,-446,143,-408,111,-274,44,-229,-219,171,-95,-184,-294,-485,-70
,-305,374,12,-1205,-316,-172,-226,138,-261,80,-356,-133,-582,332,-191,137,334,-128,-381,-944,-360,-276,46,-302,111,-267,82,414,558,25,-162
,26,-85,-228,-4,-59,-111,-84,-162,-126,69,64,39,-275,-175,-53,-56,-153,7,-80,-136,-57,-202,-38,-181,-56,-5,-45,9,26,-200,-8
,-250,-100,42,133,-16,-310,-428,241,-13,-342,6,-149,101,-16,-52,432,-455,-24,-136,388,302,34,-517,293,-544,80,29,-316,-33,239,-91
,-875,222,8,-482,-44,13,-527,53,-155,-484,-273,-136,-1387,334,-214,527,67,-437,-391,343,-135,-75,-186,179,115,140,291,-982,-502,1,-225
,-271,147,12,-160,198,24,-9,-59,122,-61,-65,-408,247,-35,-316,359,-195,177,-301,194,-153,-181,-228,262,-16,57,-456,619,-311,-137,20
,81,48,-3,-142,134,-190,-84,-142,-244,-127,2,-48,-5,80,-79,-68,58,-2,36,-207,-73,46,-68,98,-3,-77,-29,-167,-116,-172,1
,-131,-375,-744,-112,696,270,11,-1793,342,-15,-446,-285,-90,-481,-279,-225,8,44,234,115,273,-155,-847,277,-206,-173,-28,-79,-334,-739,-446
,102,-135,-169,-10,54,-41,18,-99,24,-164,-24,-166,-289,-169,-119,-112,-143,-38,17,-215,-106,-75,-49,6,61,-45,51,-25,-40,-35,-5
,-1476,-57,-665,-883,203,244,-425,-134,-236,-687,7,-264,522,-97,166,-10,359,-362,-145,173,-191,-150,-79,226,423,-576,-188,470,-578,58,25
,326,151,-64,426,50,-151,486,97,-84,181,-75,-95,-1421,-115,-71,-674,-297,-117,-59,-182,-47,-136,-124,95,-141,-55,-42,10,-237,-133,-163
,-168,-255,-199,219,-231,13,-316,-10,-215,-242,261,-638,-904,336,-246,262,-203,-85,-225,-62,-391,226,224,117,-121,-330,92,281,-171,223,-86
,-272,81,-142,-567,161,-789,-328,137,190,-444,343,-907,-407,51,-171,-558,359,363,-78,363,-24,-287,-80,273,-428,-122,172,440,-154,-33,-145
,-952,173,-232,-702,-194,-581,-883,340,-108,-881,35,-158,-471,253,-190,-137,-76,-98,302,-124,273,-68,-468,-297,140,-63,-79,393,-87,-235,124
,-140,-411,-519,-158,-574,-374,76,49,39,-441,218,-317,193,452,-387,80,457,-229,133,-168,-7,-4,-12,-145,316,-123,143,149,-303,-259,156
,85,-1,-48,134,111,-202,52,18,-125,-119,173,-114,44,-92,14,38,-247,-97,-142,88,-143,-21,174,51,-4,-248,-211,14,-385,-79,-103
,-85,-624,60,-225,-777,-437,-49,-336,161,-218,-658,167,76,211,-445,-68,188,-28,-642,-147,-176,-436,90,-117,-9,-377,-145,-28,-228,122,-147
,-320,66,99,-198,99,27,-161,-37,-94,-478,-15,-249,2116,10,47,-115,45,-70,15,-37,223,-435,9,88,21,10,-52,389,130,-129,-349
,-81,-11,-39,-262,-38,-135,-16,-116,1,-170,-5,48,356,29,-83,-39,-177,-155,26,111,-98,-66,-161,-35,60,28,10,-25,-64,-6,39
,18,122,-63,-164,-67,-38,-242,150,-152,-11,-194,-207,-1027,57,-161,-1916,-34,101,-77,604,-714,32,-27,181,34,133,-148,271,455,79,-463
,245,-53,-45,-124,-214,-231,59,-2,69,185,-160,-187,-682,81,-321,209,-48,-318,-401,-417,-328,32,-59,177,163,84,43,392,284,-250,178
,-32,-193,-34,-36,61,-29,-187,-104,9,-96,-131,-93,-60,24,-122,6,-66,-218,58,-78,-219,-56,-111,-24,-100,-21,-95,40,107,-21,27
,-44,68,-8,-172,-98,-26,36,-98,3,-292,-26,-155,459,25,-167,-123,86,-43,-83,-134,41,-63,-106,132,-123,9,-109,-46,26,-23,46
,60,-41,7,-25,157,-4,-27,26,71,8,-129,85,185,-9,-224,49,-192,-48,-108,33,-79,30,-50,-128,-261,-117,3,-96,-268,-28,-146
,337,-300,98,21,6,-37,-37,71,64,-549,-292,33,-1687,-1764,-420,357,57,117,-53,-322,-355,-65,-160,334,186,-45,137,985,98,-37,-111
,-206,152,-82,-18,-30,-22,-248,-299,54,-96,-477,-209,-166,37,-178,-130,318,-89,28,-669,-528,226,-77,729,243,-251,-185,-503,-155,-28,-91
,168,9,126,326,96,33,552,297,-444,530,-141,-254,1192,386,-154,-337,264,15,-271,-1008,48,-3,26,-309,-273,2,-67,-159,220,-292,-89
,-174,-218,-503,-85,-833,-196,-2,-932,-222,189,-176,-47,1,221,16,64,294,-20,211,609,158,-386,-323,-159,-566,-140,-28,-212,358,-59,-458
,-55,70,-25,-256,330,-106,32,13,-7,-118,-208,-146,73,716,24,308,-116,-136,-158,401,22,-65,109,419,21,-153,-76,1030,168,44,-112
,-258,-64,-17,-37,-73,35,-94,-132,-150,-74,-225,3,272,143,-203,23,-68,-12,-37,-239,69,-147,9,124,-37,-140,-48,97,67,-108,-103
,221,49,-165,-289,75,55,122,221,159,872,-103,-205,-958,-190,-83,455,-10,-40,-459,-118,-134,-254,-382,-19,264,181,-187,-116,457,117,-265
,1,13,-317,-475,310,-417,-365,-145,78,-1020,-54,238,-1144,501,-173,64,116,109,-65,115,149,165,168,298,-129,-504,-230,-131,-449,-260,13
,-12,-38,-106,-99,-103,-118,-143,-1,-94,-160,-2,-91,537,-142,-25,4,15,-27,-71,-43,-85,-9,-124,-92,37,-14,18,183,32,-26,-22
,269,60,53,-552,-86,65,-982,191,21,-610,2,79,3154,-837,18,-1881,-58,51,34,-1802,-99,62,49,-2095,-138,75,21,-1992,-126,8,60
,114,43,-12,70,-63,52,-71,-11,-148,-100,0,-42,26,-130,-124,77,75,-59,-94,38,118,-109,-128,-5,-21,-37,-82,41,-115,-53,-123
,-79,-761,231,-7,-527,-23,0,-428,-14,140,-28,-46,917,35,168,13,11,-24,-153,50,-87,-216,-146,388,148,-139,-269,918,-390,-570,-30
,-582,229,-215,-292,-261,-174,-387,-211,-135,-748,-788,118,-109,473,153,-893,398,-483,-199,-595,-681,-109,-49,-586,443,112,-339,-704,205,6,-463
,-145,-278,56,-518,66,-392,-732,-66,-65,-466,163,-398,-634,-268,-228,493,-378,215,29,-898,320,-220,66,-435,-53,-248,17,542,273,-163,67
,-538,489,-318,-486,-128,36,-136,-278,-337,7,-230,212,-152,320,-296,258,-909,86,20,732,-632,230,-48,-116,-174,-300,74,540,-67,-480,-82
,-548,26,6,-136,408,-336,-537,257,193,-160,-571,-305,-1265,288,-310,-217,83,162,-264,262,172,-68,-62,89,-174,-42,-217,-83,-230,-88,-207
,-48,-26,-110,20,11,-173,129,-81,-134,-30,-14,71,-7,-107,-134,83,4,20,-73,-26,-160,25,70,70,-3,-208,-106,-13,40,4,-85
,127,-829,-345,62,20,154,-292,567,130,321,-395,112,-1861,-601,-192,181,95,51,49,574,42,-356,-27,268,35,-30,-450,62,220,-29,-213
,87,-76,-144,-168,206,-101,225,132,196,18,282,26,-2128,181,-20,77,391,-58,-369,-311,-198,-82,16,-95,-428,-151,-242,-299,185,-26,-197
,-198,90,-26,52,66,29,-108,-146,30,75,108,25,-350,-97,-199,-259,-135,-191,-143,-135,61,-160,21,-115,89,-121,4,46,-79,-79,-53
,-565,-505,-272,-452,68,143,-590,-430,-396,-382,-93,-159,9,108,-224,-797,-204,-249,-49,659,428,-225,5,-355,-95,62,-486,77,417,168,-175
,-283,-129,53,-303,-110,-107,-435,-76,-69,-117,-147,-252,361,56,-35,107,-38,-28,9,26,50,-141,27,60,-81,63,-31,105,92,-172,-6
,-285,97,-381,-340,128,-242,-139,-29,-19,37,-197,-41,-288,36,-135,-156,30,95,-23,76,-137,-139,11,-438,27,-7,-137,-146,112,-219,-111
,396,-318,-157,-26,-333,123,28,467,-246,-383,267,-336,-1269,457,49,-331,-21,-66,-344,-1198,87,-261,92,-479,12,53,66,-65,-238,-284,-82
,-183,69,53,43,-98,68,86,-103,-306,60,245,-212,-906,168,-64,16,205,-48,1,207,-75,53,-179,-767,122,-137,88,75,-536,-535,42
,-10,122,-29,-63,-174,-155,121,59,-35,-139,-19,-14,-208,-30,27,141,-159,-178,-25,-166,-69,-136,-119,-126,-78,13,52,-193,-112,-63,-1
,-372,63,-474,17,299,103,-148,315,-246,-517,121,-93,-1633,-323,97,-8,-500,-323,251,286,57,-2,-336,125,157,-206,-164,-233,72,126,-246
,141,-161,103,-393,-348,66,-284,67,-248,-260,353,-78,-1611,360,-79,170,-281,-19,-461,360,291,-97,-130,-136,290,-1034,-7,-309,-138,51,-54
,12,-614,237,150,-96,87,333,-183,-34,178,-535,-274,-1085,656,127,-195,75,-54,56,-54,-170,-572,-230,64,-34,-1132,-513,-112,323,-5,-842
,267,30,94,-68,-325,-101,-179,180,1,72,-242,-61,-921,-201,-148,154,361,-234,273,316,-80,-170,-362,-114,-17,-221,-696,235,-78,-250,47
,-283,7,-171,-405,-78,-134,-577,-184,-64,-639,-100,15,2001,53,-29,29,-171,-77,-59,-15,13,-321,61,121,-50,-124,-3,575,-33,-43,22
,-1307,489,-90,-906,-493,-115,-673,-433,59,-401,174,-531,-218,190,-44,436,106,-86,209,484,-404,-769,-1002,-362,111,-340,173,-918,369,51,-445
,76,473,53,310,-86,-266,-17,-110,-506,-322,-68,126,85,337,-57,-368,63,-217,-582,-1111,-42,-10,-379,43,277,-57,-168,528,190,-187,142
,-222,-727,94,-162,-136,114,-131,-789,-164,-269,274,-73,-604,402,-295,-521,-450,-454,-546,656,51,321,101,-340,-442,-568,-389,-436,240,-22,-11
,-102,10,15,69,-25,-203,76,-140,-74,5,-160,-96,-116,13,16,118,-224,44,-81,-15,-86,37,3,-90,46,15,20,68,6,-124,-203
,22,181,-210,-100,-198,35,-56,-46,-227,58,-41,-29,-434,-198,-99,523,-76,-385,-348,-222,-267,176,-111,-561,-24,-257,122,502,-13,-187,392
,-259,-665,-47,-684,-408,-214,-411,663,-22,219,-37,-25,-1776,-84,-211,-273,294,-241,4,390,369,-33,-175,233,-197,126,-263,-149,-230,129,-236
,92,-160,27,-176,91,-113,-53,-15,64,-154,-31,-141,-51,-97,5,39,-60,-44,-39,36,-82,-34,-116,-38,-51,-144,26,7,31,-85,6
,-352,96,25,-1023,-20,27,-1018,352,23,-67,305,204,-982,273,22,184,-263,90,274,-307,-152,-451,-105,-405,-196,-39,-245,402,-463,-341,-314
,-493,405,-290,-760,19,-43,-526,-178,15,-880,-64,-862,127,510,59,155,-384,-59,161,87,68,-109,-220,-194,96,47,-184,8,-163,-275,206
,71,-359,-181,-108,-268,99,-87,326,78,-20,-1258,-190,-164,-234,-251,-681,191,-622,-105,-1767,52,-109,-1801,279,97,-126,76,163,632,0,-141
,55,-210,-325,8,87,106,-141,517,147,244,313,-243,-540,-408,-355,-109,228,98,-31,-848,-82,-259,-116,-241,-32,-307,-259,205,-76,82,35
,-1493,244,-39,-839,-598,40,-984,44,-99,248,363,0,977,675,85,138,-258,-67,-185,-883,250,57,-156,-985,65,16,-134,-503,-1140,82,15
,35,-49,-232,-94,-124,-417,-391,-3,-84,-119,-150,223,271,578,85,-633,-58,16,-13,-9,-83,-335,111,133,239,117,-443,234,-402,115,-434
,56,277,264,317,-156,34,619,148,-236,72,261,124,-757,32,-73,65,-139,-648,15,-673,-51,-99,-459,251,35,-156,36,557,-473,24,-152
,174,281,-73,245,347,163,172,225,108,74,-42,14,820,840,-23,-417,-270,-346,-77,-39,-136,-198,-327,-163,-281,54,-124,-539,-70,1,-187
,-436,-265,-607,-49,194,-231,-512,210,-244,-496,-16,-161,-159,-682,-163,37,-416,26,72,-98,405,20,-29,416,-115,-172,109,-285,359,-196,47
,130,211,-2,287,245,6,653,306,-42,757,136,22,-2662,-42,54,-354,135,-58,19,-829,-48,10,26,-1434,-28,-39,-57,-1298,10,40,99
,445,-251,-431,174,-289,-203,64,-110,-34,151,50,22,-1716,60,13,59,232,-164,-261,-39,174,-354,90,547,-452,-21,-198,-91,345,104,-17
,-679,102,55,-312,-22,-428,-55,-413,-308,-375,114,-159,-610,-7,-113,546,247,-58,261,-37,-91,190,-229,237,-115,236,-313,371,-145,-196,-437
,127,83,-88,-361,107,-270,44,-168,50,76,-436,89,125,-1172,-28,485,-350,-284,-58,723,-6,-146,-141,467,144,-194,-197,337,428,59,18
,295,-40,-288,187,-342,129,271,-339,-195,-189,-16,-746,-358,-188,-57,298,95,34,-60,273,-596,-22,118,270,46,-61,-35,-249,64,-516,-14
,-581,-139,-134,-710,137,-640,-1201,-387,-28,-493,-609,-241,113,427,131,-667,-479,36,-292,277,370,-47,-242,405,-184,-21,33,-541,484,85,24
,166,172,-110,286,93,-309,-74,598,-95,-80,38,211,825,246,-63,-569,-84,-373,139,-104,-14,-332,-130,-116,-102,-79,-680,-630,245,-28,27
,-495,138,-116,-1170,476,-203,-3012,-634,-87,-940,-64,152,235,274,2,299,-329,-50,-243,118,550,-79,-107,-319,210,-77,3,-97,-651,69,-118
,-627,-225,-59,-206,-105,-398,10,45,54,-355,254,153,-786,335,17,119,189,-127,-75,556,-439,-387,160,211,3,-290,-147,-468,142,-538,17
,586,39,-208,376,560,-137,-136,-398,-18,622,-453,-20,-449,-144,-205,-28,123,-163,-25,209,-10,-494,-14,-384,-86,10,16,-471,263,293,-564
,-304,265,-580,-415,189,-1013,-525,353,232,-186,401,-27,-304,-65,-7,-40,299,-136,106,220,27,-305,-195,52,-70,121,-494,-295,-203,-912,35
,-79,103,3,40,-75,77,24,13,-85,-61,73,-4,20,-170,-85,7,-71,-8,-68,-137,-90,18,-107,-162,40,-43,-129,11,-98,-83,-8
,-38,-77,-424,-83,151,-368,-441,-270,48,-18,-55,244,724,126,-33,141,-493,272,4,300,-59,-86,-30,231,-419,-473,-46,284,302,-266,-141
,65,-320,116,158,456,96,149,-145,-80,-264,-312,-20,-1952,-1613,-419,162,-224,-102,-233,455,228,-124,-6,303,-121,-182,-188,424,-142,307,37
,-128,125,-101,-77,36,24,-142,90,-15,-146,96,19,-2113,-222,-14,76,-134,5,25,143,15,-77,-32,361,-149,-41,-14,383,-27,-40,-46
,20,44,-65,-1,112,47,41,124,-81,-25,-152,-84,564,134,-206,2,-118,-68,-54,-97,27,-107,-67,-26,-269,-174,-61,38,48,-202,-187
,-571,18,-160,-239,-192,44,-7,265,-175,-212,3,-280,-598,331,-405,149,193,-339,254,-96,-208,184,-187,190,-266,-126,-812,116,296,-203,123
,-204,-7,-101,-113,89,-602,-246,-96,108,-298,78,-471,-498,208,9,328,-323,135,-371,-324,231,-502,69,231,68,91,-3,371,-350,165,-44
,-462,-73,-159,-315,-1632,-307,-204,-1072,-6,-420,-666,-107,-69,299,-497,-44,60,455,-50,-792,-74,-88,-416,851,163,33,-360,-341,381,-672,-158
,62,-106,117,7,-60,-156,168,-147,-89,-117,85,-75,-14,-151,-77,-152,-14,23,-96,44,-3,14,43,195,-148,-123,-214,-135,-64,-55,-46
,-629,107,-174,-739,-19,-141,-756,-157,-127,-468,301,-227,-551,-353,164,400,100,168,-759,863,-119,-299,284,-941,244,-274,62,-863,-33,-375,-359
,-471,-175,-780,-478,-396,-138,-250,210,236,-717,-66,-101,-31,346,-116,-56,13,-140,21,224,-223,-770,210,27,-1348,-94,43,506,306,-240,156
,-609,-394,-118,-729,-621,177,-415,288,-581,-200,480,95,-457,421,58,6,-551,116,-279,498,-611,-482,-149,112,-564,232,-141,196,-92,-138,101
,-8,45,-83,-67,-128,-158,-68,21,103,-79,-126,-157,-148,52,-134,27,-80,-161,-108,19,-127,-140,68,-68,13,12,-14,75,-89,-110,-8
,-748,182,-47,-1266,-421,-552,-1107,-1082,125,-268,128,-210,-251,353,-97,400,337,158,-502,345,283,-767,135,145,-519,-101,-201,-952,271,51,-240
,481,-204,-314,-31,116,-683,-126,-112,-31,140,34,75,-330,-601,159,318,353,130,-448,-340,135,-378,-270,323,112,126,-154,151,-141,68,23
,-617,307,126,-439,-78,51,-618,139,-99,-826,-260,-46,-1737,43,-8,610,8,-122,-113,267,207,-594,-280,-427,192,4,170,122,-608,-455,-26
,87,36,-157,-7,-124,-71,1,48,39,210,-113,-5,-637,-68,1,-233,10,20,-26,-199,-81,-134,4,-147,50,-146,-58,-34,-64,-26,-45
,-253,-557,29,-369,320,-390,-485,-251,19,-433,-68,-249,-521,579,46,-443,-503,97,-73,-56,-424,79,-92,785,10,-179,42,442,-301,113,-81
,-1572,-366,-389,-1445,-191,14,-720,258,-138,-83,261,-419,1274,448,-155,-670,177,40,-331,-678,-175,123,-81,-372,522,77,-106,-162,-197,-2,-188
,-663,324,69,-72,-30,-265,-559,91,131,-674,-69,-468,-1641,387,-131,349,-309,150,-148,-2,-129,-22,-76,-551,51,-649,169,189,-60,-18,-285
,-237,-765,-797,-112,-41,3,89,-29,-79,-61,-540,-266,538,476,-179,368,-5,-16,135,55,138,-246,67,-192,69,-176,-1,402,524,-104,71
,-708,134,-26,-815,208,-201,-615,130,-115,-334,-655,150,-895,494,80,-908,-683,-45,-104,-8,-239,-249,-240,459,-190,98,-123,638,96,-51,65
,-453,-239,154,-2,-845,-319,161,-265,-735,191,-333,-160,166,-195,218,931,-423,-376,8,-207,-231,-98,-44,-1066,-71,-7,157,452,352,-63,-208
,11,-195,-122,14,-151,-9,30,15,53,-52,-150,39,-146,8,-192,24,-4,-163,-46,-73,76,10,-123,71,24,-78,-181,-107,-144,-36,-28
,445,109,-31,706,187,-128,619,44,-200,580,103,-3,-851,207,-116,-653,-49,-149,-527,-531,102,-76,-381,-412,-246,-68,-30,-1091,-98,-72,187
,229,-596,-72,159,6,-258,127,321,125,-468,-120,168,1860,-616,-198,-62,-72,-383,-209,9,112,-95,-278,12,-109,37,40,573,-73,22,-104
,237,-89,169,-506,178,-191,-784,-15,-236,-394,-465,160,-1069,-362,-201,357,-56,-222,21,81,-92,-25,-12,429,444,-612,-356,1,-331,-151,228
,392,139,-102,288,-1281,-47,-84,69,-114,-334,386,145,276,310,-704,-229,-215,-607,317,48,-250,-265,-763,76,-84,112,-266,288,-349,-802,184
,-291,-659,-221,-359,363,-287,-182,-569,-312,-371,-400,-117,-49,-88,194,403,81,-2,-249,724,-578,84,-65,331,-373,38,-72,208,428,109,9
,305,20,-131,4,136,63,134,47,104,394,111,-449,-1617,142,20,-508,51,-131,-470,-1236,40,-68,-460,547,-293,-233,-31,-464,197,207,-45
,97,26,64,418,-324,22,338,-142,323,191,-202,-320,-429,-80,-176,-93,-207,-224,-91,-5,116,-108,101,-314,-94,-263,-794,298,429,-67,-226
,334,-264,85,564,-227,48,250,-73,6,1092,-290,-17,-1978,-115,29,-762,-60,8,-21,-758,44,92,10,-946,60,71,65,-2258,-30,-5,20
,-1488,-328,72,-1194,10,-35,-838,-182,22,-502,-290,-140,-1546,403,-154,777,-535,146,-63,567,-306,-130,-36,228,-79,-222,-192,-41,555,6,-116
,-4,-55,-66,13,-20,-178,100,-58,54,40,-81,-142,-14,-20,1,-18,39,-146,-1,-48,-182,-138,-114,75,-97,82,33,55,-127,-120,-127
,-55,38,-103,33,24,-66,-105,31,118,95,-63,-54,-294,-167,-100,105,-86,-125,48,-3,-20,18,-63,-45,-35,-18,-111,101,-67,-103,-170
,16,172,36,-32,17,-66,-167,159,-184,54,-279,3,80,-262,70,-965,-349,34,-86,377,-425,10,262,840,102,-448,-159,-464,-88,-158,-142
,12,-226,-165,-85,305,-419,-381,200,-429,-827,-583,423,-519,25,-204,-81,286,-57,-138,65,-257,-141,-272,749,350,251,-416,340,-207,-297,-228
,126,30,-137,127,-133,-177,70,-114,-162,-47,135,-116,-15,-85,-6,-114,4,-28,55,64,122,-153,6,64,-95,40,-56,-69,-162,-73,-72
,-54,-66,148,-587,-94,8,-683,-72,16,-199,-110,-20,2467,270,-39,70,127,6,-10,56,62,129,33,-11,150,64,34,437,82,40,58
,-254,-215,28,-112,204,-309,-284,17,-106,578,-404,154,-268,-231,27,869,-49,-252,-630,166,79,22,-24,-852,368,-158,-3,-58,-282,38,-229
,-98,-135,-448,-608,-498,61,-576,-1,-57,-965,101,-41,-907,473,-195,836,-182,-111,-5,357,66,13,91,-209,-232,108,-379,-1324,-162,172,-161
,-129,-114,-24,-42,-128,-199,-134,-62,-15,-166,-24,-20,289,-24,-154,-4,59,63,13,-86,-197,-46,-14,-124,-163,-120,-118,15,84,36,-135
,37,-149,-78,18,-25,5,16,-139,-127,107,-138,-19,-31,-146,28,113,-4,-41,-41,72,-22,59,-60,-79,88,-33,-56,-75,31,-169,-79
,74,-127,-55,38,-105,-132,-84,-35,-11,29,-142,-126,-130,-23,-104,-57,-136,73,-139,-23,-22,-125,-42,-57,67,-99,-72,-134,-169,-112,-38
,-102,253,76,-29,193,-258,-184,-120,-298,-55,223,-26,-17,-111,-215,-250,78,-150,-146,81,108,-180,-88,-174,-53,-361,-181,75,-2,-166,-152
,98,156,-187,52,76,-83,-157,-6,72,-226,-102,-164,-480,-44,-107,-128,-46,-118,26,-247,-86,43,3,-83,-67,-118,-98,-164,-19,-84,-192
,-148,156,-51,266,199,-125,159,125,-462,205,284,-269,78,-54,269,-20,-324,-85,-247,254,28,37,209,86,97,-72,-555,47,-411,-216,-438
,-585,385,-150,-731,448,-1,-166,-453,-94,-803,-453,-189,-754,123,-258,215,101,-37,-140,218,-50,109,131,264,-343,55,-243,-852,42,-168,-108
,-676,-114,-10,-193,-213,5,-180,-237,31,-120,79,-1,-695,-1029,-86,793,20,-3,-7,929,14,-24,3,941,28,6,41,1091,-37,6,13
,200,433,-24,-426,-625,-160,-617,-47,-559,-152,-336,-219,420,635,-235,-163,-15,123,114,510,-111,-307,-55,-22,-121,45,-1032,-582,-220,296,-456
,-121,-267,-93,-234,-112,-54,-225,-31,-55,-136,-166,-16,1251,-54,-116,49,34,-51,-41,-104,-70,-181,-14,208,-37,-22,-112,332,-94,-40,-45
,162,60,-97,284,15,-230,213,-83,-137,563,132,-99,-1468,-121,-114,-21,-55,-64,-52,192,32,-88,-79,-170,-119,-127,-115,-13,-112,-94,-176
,-525,41,-251,-290,-109,-141,-187,49,-486,-470,-199,71,618,112,-111,-14,167,90,-130,-137,-173,39,-15,-255,216,129,-340,597,240,-139,102
,-347,-37,-137,-589,-118,-271,-532,-26,18,-515,-91,10,1343,322,-29,107,-5,-70,-193,97,-29,-382,-143,197,-34,-236,13,311,54,113,-204
,-91,178,-321,-277,-268,-9,-168,-63,-156,-273,-644,-109,-383,9,57,418,-283,-274,-181,507,178,-100,-109,-31,-3,-76,253,-296,-229,24,-102
,-13,46,20,-148,-23,-10,-45,-2,-158,-221,-60,-101,495,-122,49,-28,-45,9,-149,-48,-54,-17,38,-47,-170,-113,-113,191,-36,-6,40
,130,-31,-256,17,-23,-112,96,-38,-92,234,8,28,-704,-47,-114,-67,-1,91,-35,-138,-71,-254,-241,-273,44,20,-72,-109,137,65,-218
};

long weight_1_T_sdg[256*31] = {
-860,-164,-6,-963,-156,8,-1066,-248,60,-381,-86,114,2198,301,55,80,-123,4,-150,118,-109,-198,-252,74,149,-189,-28,479,-226,-52,-163
,-70,-38,-66,116,-198,-191,98,-188,72,-102,-46,-170,168,-169,-3,46,-83,-73,-40,-162,-68,-132,41,133,-194,80,-169,-86,15,21,-121
,-47,-145,-522,-66,8,-264,-650,12,-4,-435,74,111,-243,477,-364,-82,-357,-349,155,174,-41,457,-123,37,-659,-8,-921,-552,252,-334,-240
,-664,270,-608,-508,12,-151,-901,-819,-58,-417,-185,-53,-365,449,-171,287,-132,-19,199,-2339,107,-436,176,835,292,-219,-593,185,191,-178,-21
,7,-182,-113,102,-67,-136,-99,-23,-3,151,-191,-118,-123,28,-19,83,-21,-66,-7,115,4,29,-156,24,-148,-27,44,-131,-36,-123,9
,1,-68,-145,-41,-109,39,-253,20,-80,279,33,-59,-675,-8,-53,118,43,-39,-164,9,-24,-110,-115,291,53,-113,-126,-226,-18,-4,-42
,-1368,49,-135,-1032,640,-405,-1293,-436,-161,-824,199,73,-1538,483,-57,241,270,-36,255,-215,98,35,-282,62,-741,-165,-232,-1641,-142,-358,93
,-779,131,-259,-770,229,244,-663,35,-116,-591,-81,46,-419,460,19,151,296,-472,249,677,-452,-194,74,-221,-491,-211,-1398,-1092,-354,-124,-186
,-1,6,-48,3,-44,36,-67,38,-8,-45,-81,-2,-604,-100,-149,21,91,-14,-3,83,25,-1,-141,63,-205,-21,-12,-285,-114,-94,-204
,-128,-429,-60,78,269,5,416,212,-91,-566,-108,-263,-1355,-537,-229,580,137,127,2,14,75,-70,-202,712,129,-122,140,-500,-412,65,-64
,-324,-157,221,-383,-43,-79,-412,35,-204,-340,-11,-135,-20,223,12,-518,-230,-114,-1178,-503,-207,-435,14,483,102,267,-234,-276,186,92,7
,48,86,-45,34,-88,-127,-40,48,54,-20,-116,-71,-151,6,-123,-156,-197,38,-44,67,54,-76,-23,-91,-4,-144,-160,-75,101,-177,24
,-237,-113,61,-70,-281,-166,-273,139,27,167,-599,130,-723,202,-127,576,-331,113,-91,824,-313,-455,-55,71,409,-211,154,-92,-365,-30,-199
,-109,-111,42,-81,-54,10,-30,0,-159,-142,-146,-16,-126,-14,-43,27,-157,-75,-9,-94,-138,5,-58,-24,-87,45,-129,-21,92,-52,-37
,-64,311,25,-532,59,-225,-232,389,-78,181,-424,-75,-1430,-127,-157,414,136,95,-77,-461,484,-348,-184,-598,-261,94,-25,256,-119,-200,-47
,-367,505,42,-1065,-9,64,-616,284,115,-137,-277,117,340,226,-38,1001,-340,-64,-193,-1326,-360,-179,-1089,-802,-489,-183,36,-260,-363,208,-185
,-203,-206,-128,-358,-51,-31,-385,105,273,-366,171,-69,171,256,-283,-387,115,-562,-371,-266,220,-67,-1003,-498,53,106,80,-573,-202,-305,-1071
,-430,40,-100,-191,-130,-155,-373,-475,41,-294,-219,262,244,-402,-154,-464,-363,-336,173,483,110,23,-416,-51,123,-359,-7,128,407,-172,-153
,-196,157,197,309,177,-77,197,288,-21,542,23,-311,945,-669,-33,511,-285,-261,-365,-228,-235,13,107,217,-570,-149,129,-107,-2,-607,-216
,2,-185,-141,63,-70,45,-140,119,-52,81,30,-101,63,40,-75,-15,95,27,30,-77,-18,-163,-149,-105,-4,-115,-101,28,-61,-60,-118
,-416,236,-32,-410,184,-756,-176,255,-600,-87,-120,-276,-350,-122,-277,-206,139,-13,85,317,35,-11,-162,9,-160,69,-239,-98,81,-316,-359
,-439,-113,-47,-163,-217,-16,-342,-77,-154,175,217,-31,-168,456,-40,405,24,38,17,791,162,-121,-126,698,-74,-10,14,1009,193,-24,-147
,-92,93,15,106,37,-157,-123,35,-21,-97,-51,-25,19,-11,-40,-64,-152,-87,-8,16,2,78,-115,-148,-103,-139,14,102,-129,-109,-84
,-281,-31,-23,-525,-34,-32,-417,-76,-13,-592,-66,-42,2037,608,46,684,32,-21,-11,677,53,-18,-9,761,70,-52,-13,1204,94,7,-4
,-679,147,-325,-599,-126,-163,-517,-130,-11,-659,-297,-42,37,181,-434,192,313,47,-29,64,-624,-74,-369,416,173,-47,70,-49,-3,-53,-248
,-31,-370,69,101,-495,236,-30,-1054,-93,-35,-279,-597,41,-131,26,-241,-804,-322,-1203,-75,-581,193,152,-228,-397,-668,16,-131,-364,75,160
,-1024,37,-21,-642,-80,-109,-410,23,-588,824,554,-183,-56,643,83,386,-749,73,9,-881,-123,-83,82,-67,16,-30,126,-122,-3,-144,-224
,235,293,-103,439,-1,160,-626,-122,-89,-338,80,-205,-450,-534,-287,-76,-325,25,92,132,116,31,235,93,177,-155,-17,399,-662,-544,-281
,87,-154,-197,288,-578,102,5,-377,46,-59,-196,-654,265,448,75,-354,-207,76,60,259,-394,-420,-48,-450,176,-130,305,407,291,-211,-281
,68,139,-3,-41,47,-6,-9,-101,-132,70,27,-11,-454,-59,-122,-72,42,-29,-208,4,22,-137,15,-346,3,-25,-90,60,-17,-44,-159
,-52,-296,-910,99,-180,-365,78,-1047,4,98,-501,359,312,-3,-66,-85,-73,-1067,-108,355,-349,31,116,259,-19,29,-184,-163,-1878,185,117
,-822,-114,-122,-1056,562,-248,-834,-140,-46,-824,197,-331,-1172,81,-221,-189,-429,26,146,346,-537,-164,89,-952,213,5,165,311,-74,47,-203
,-344,-411,-149,-93,234,-88,63,-171,-69,-197,10,-319,26,-242,132,840,258,-65,-25,860,-71,-329,126,-196,128,-141,38,-274,-37,180,-57
,95,134,-250,-190,495,-259,-282,-353,83,-213,-165,-326,-317,-497,-382,636,-154,-169,-279,3,413,-185,15,91,351,-385,-121,251,-86,21,93
,-97,399,-207,268,-251,-8,257,-48,-339,276,615,55,169,-157,-39,-221,75,-467,-720,645,-169,38,-278,110,-465,-379,162,86,104,25,40
,-720,367,-4,-440,365,-218,-390,11,113,-894,298,-173,-281,-220,-70,53,105,-32,-26,550,-624,-198,-93,306,188,-664,-442,292,-94,75,-237
,232,-515,39,163,-243,-157,250,-416,-229,369,79,-51,28,252,37,519,-477,99,-185,-5,-149,-304,252,374,-371,-338,34,148,-233,-99,39
,-30,-64,-334,195,10,-176,369,544,-540,325,-258,55,672,316,40,51,56,-797,-16,-25,-75,-967,246,456,-601,-115,41,146,-16,339,-35
,128,-119,29,195,-141,-11,44,91,62,-83,-142,-157,-115,15,-11,-40,39,-191,-125,67,-5,-139,-61,-25,-114,11,-93,-22,35,-220,-53
,-151,179,-150,-198,19,-263,-419,-258,-21,-184,-205,-107,-379,-569,78,74,-37,-124,-149,14,94,-276,235,208,90,-253,206,746,-116,-67,-373
,432,-383,-65,352,20,-648,155,-568,-35,-201,229,-299,-13,229,0,293,-585,-121,-931,-60,359,-33,-675,-732,-466,215,-345,-268,327,340,98
,536,-629,146,208,-475,-33,-564,-858,-573,-745,-762,-51,-1413,17,-218,581,246,-117,25,667,-10,-131,29,27,-184,20,203,129,296,-121,-129
,-13,-1393,-320,-580,148,-188,85,139,-62,594,795,249,-227,275,67,-168,-654,-79,-67,-704,-832,264,114,-645,-1045,-161,103,-247,-609,-28,-69
,157,-63,-7,205,133,-82,389,110,-79,177,110,16,-878,129,-181,-147,-60,-79,-170,-207,-83,2,-195,-49,-242,-51,-135,-375,-201,-269,40
,-174,-5,-57,-153,-127,-76,-5,-54,61,50,-141,-126,-128,-126,-48,-228,-18,25,74,-180,-139,-130,-231,27,-1,11,-6,-129,21,-44,-162
,-674,-29,-293,-496,-152,-600,-678,221,-870,-310,-93,37,-473,133,-637,32,-24,41,23,305,240,322,-300,491,-442,-300,203,219,389,-336,-93
,-360,388,-33,-550,-110,-345,-958,250,-494,-661,-56,-318,-228,81,89,120,-515,113,-23,185,533,-129,-110,311,105,-340,84,-346,61,202,-348
,-83,-98,-14,117,64,9,-43,21,-183,119,89,-73,56,-48,59,-115,-22,-86,-83,-19,-65,-100,-178,1,100,46,-140,-74,-76,12,-11
,-62,-82,-160,185,19,-77,23,-98,-36,-42,-307,-12,695,177,-43,16,116,-53,-160,4,-110,-158,65,94,-233,-31,-110,96,-175,-80,-114
,59,14,-147,60,5,88,-34,-89,-60,-13,-152,-43,101,35,-51,-66,17,-21,-93,99,-30,-94,84,-102,-77,-102,-102,-119,-23,-98,-136
,197,-74,-100,-40,15,10,-82,-36,-15,241,69,6,-392,-125,-105,-71,73,-162,-11,-69,-42,-128,-20,-18,72,-16,-247,-69,-52,-58,1
,-294,-246,184,-216,-412,-239,-547,-159,-131,-392,-329,99,-654,-806,29,294,-196,-267,-318,245,-3,14,-308,646,-112,229,-217,85,364,2,-148
,-405,-223,-162,-482,217,-1546,-413,-9,-38,-432,318,75,-339,-214,-309,64,-719,28,-283,-613,-300,123,-726,681,329,-94,151,-763,248,-111,-229
,-848,-448,261,-363,39,10,-213,271,-20,-472,164,-14,-267,270,-285,167,123,87,-156,581,38,-925,-56,286,-185,60,15,546,-1002,-184,-222
,84,-77,80,-38,-121,-74,-4,22,-162,-21,-15,-129,-86,-72,-54,89,66,-151,-70,-60,112,-139,-15,-113,-85,-66,26,124,-15,-123,-66
,-107,436,-203,69,510,-289,139,-24,-226,36,-58,-288,-291,37,-561,149,-214,15,-407,-75,-56,-61,-219,48,-38,-150,-5,197,402,208,104
,343,532,66,440,108,97,-175,60,13,-305,-191,-210,-2029,-278,-104,416,-536,-166,-44,18,-191,-45,87,-277,-251,-110,-80,-580,-22,-25,11
,364,-75,-108,-255,102,-13,104,-348,-86,90,-303,166,-716,-1049,-161,849,-165,-69,44,272,-36,115,-261,-293,-270,-88,-102,334,323,-412,66
,-63,63,-13,-113,34,16,-57,75,21,135,-35,-68,-452,-176,-170,-8,-88,-90,-105,18,-22,-14,18,71,-155,-97,8,-239,-20,-25,-133
,-297,-134,141,-358,136,-151,-354,-181,-166,-405,-219,55,-47,107,-123,460,-265,41,-353,316,166,-348,-225,277,165,-16,-93,-271,83,-169,-296
,-248,-271,-47,-81,38,-342,-298,-148,-127,-106,477,-222,-1300,-343,-261,150,317,-355,-121,-542,-103,124,1,498,15,-281,350,551,18,-82,-10
,-926,111,-94,-916,-735,-1154,-705,248,-95,-717,92,-76,-755,363,68,-1783,159,-439,-145,-277,69,284,-460,-590,216,-250,-187,-1299,255,126,9
,-54,-472,211,-164,330,-209,-102,-486,-334,-114,-584,-22,-49,256,57,-693,-124,-116,129,-606,469,-499,-571,-613,-554,-344,25,-223,-327,-921,10
,125,-4,223,323,268,-94,381,39,178,500,69,-287,-1344,-487,-257,-163,21,166,-11,116,-219,-296,-162,-15,-19,-34,-143,123,10,-189,-67
,381,35,-404,-166,279,80,-548,-168,120,-226,-223,122,-1258,367,-26,-312,-257,-500,-174,-85,192,-204,-833,117,224,-445,169,79,-247,-39,65
,38,-281,-80,-123,-58,-13,84,-59,2,-36,73,-110,366,17,-130,25,-192,-173,15,-15,-49,27,-130,-175,-36,-14,-73,25,-201,-120,-33
,25,-869,260,-113,11,-1063,-320,171,-75,-184,212,-265,-558,325,-893,-121,420,-3,-78,-1061,-167,261,-358,-247,-718,-180,159,429,-246,-160,-221
,442,210,34,953,-61,-10,632,-65,53,830,217,77,-2591,-511,-111,-648,-48,112,39,-193,-74,8,23,-333,-103,66,5,-838,-19,11,-25
,73,-197,29,85,-66,-235,-127,27,-289,40,-56,-51,1003,-78,-109,91,-320,-66,-142,186,43,-26,-19,-31,-99,-119,-102,200,-13,-84,-129
,-288,227,5,3,22,-122,-239,43,42,385,-521,91,288,42,60,442,-132,2,-50,209,-191,-255,104,781,386,-309,-79,186,150,-628,-632
,-22,-102,-72,-102,-143,-25,-5,-56,-129,-76,-193,12,453,-100,-9,-57,-210,-8,-14,12,-104,28,-138,-46,-157,-14,-31,-15,25,-4,-58
,601,-381,-181,617,66,136,636,-157,9,47,300,-221,856,-769,-111,470,99,-98,-84,388,187,-274,61,165,-192,-178,-138,364,132,133,-550
,-123,-212,1,49,-77,-139,-123,-101,37,36,-212,59,295,79,-61,-162,-62,-177,-208,-78,-89,-13,-237,-83,-76,69,44,181,-421,-148,-88
,-209,-830,109,-246,-950,-266,32,-36,201,15,271,-448,-100,389,108,-156,-804,328,-179,-436,-233,-206,-81,7,-222,-382,-641,-872,444,81,-54
,-619,485,14,-697,23,264,-506,-56,-68,-139,183,-31,-1886,9,-59,155,18,-105,46,835,-154,-456,-19,48,73,-429,-203,-602,-60,-136,22
,237,-1546,-16,-447,-1104,-454,-381,-279,-307,-194,376,-182,-125,453,-405,529,129,-107,243,-509,-11,265,150,180,-499,-109,0,292,-306,-238,-476
,266,-112,-188,60,138,-97,-13,-233,-53,-171,-227,-143,-637,-122,-73,128,-169,-65,-30,194,-318,2,-22,-78,105,-73,-245,-294,-133,-39,-228
,-594,-76,-484,-380,-384,-294,79,58,67,211,130,119,-992,-89,-49,622,18,-258,-32,-196,233,160,64,46,28,-283,-136,-1173,181,38,-309
,-241,-403,-149,-352,49,69,-7,-148,14,172,-202,-30,-942,-414,-573,-231,64,-416,-281,86,-175,-59,-87,48,140,-137,-42,507,494,-163,140
,-211,-121,164,-283,-325,-319,-342,33,-159,-269,-77,-355,57,172,-259,-183,-603,-38,-12,-1146,183,-122,-839,780,126,342,-9,598,390,-294,-147
,-347,5,-903,-382,-57,-12,-205,-348,-413,-147,257,-157,-849,138,-12,353,204,33,-87,-228,184,-541,104,-590,316,-229,52,-81,196,-301,-81
,162,35,-521,409,-101,-248,147,27,213,397,-340,-63,-148,223,-168,-672,143,-241,228,-218,144,4,-197,461,230,-402,16,-311,-22,-275,-173
,115,18,-184,305,226,-270,14,-460,-419,516,-153,-69,-680,-127,35,-5,132,56,-278,40,181,-4,287,-1087,164,-249,-342,300,451,-190,-218
,-131,18,-15,19,-6,-34,44,-37,90,-92,27,-121,31,-89,-61,72,-21,-71,49,14,-157,-78,-1,91,-9,45,-149,-93,-141,-68,-128
,-157,236,-67,-128,21,-57,-241,104,-57,-288,-15,-37,-352,-178,-196,-167,-93,-148,-178,286,22,82,-196,81,-387,48,-185,256,-191,44,-337
,-156,43,-46,43,-126,39,-128,-108,39,54,-123,-130,41,109,-142,-107,8,-95,-4,-105,-76,-10,-13,24,-114,-54,-30,117,35,-46,-85
,-202,-301,-368,549,-221,-227,249,-107,-22,183,159,-64,97,-199,197,-895,50,-286,-43,396,-331,-245,48,165,-313,50,-17,-46,391,-305,8
,-2,19,64,4,-163,-120,27,-98,2,-120,-124,10,-106,-10,14,3,-81,-110,16,-15,85,-95,-144,104,-35,-126,-98,-70,-92,-75,-25
,-46,38,-63,20,7,105,150,-19,-26,-39,-125,-178,-127,-10,-106,72,44,-131,9,-2,40,93,-87,91,-123,-162,-119,9,-138,-159,-92
,667,-13,-30,946,124,-113,742,-113,-36,288,25,-42,-954,712,-102,-1958,18,-104,-33,-1249,93,-21,-53,-2786,161,-60,-59,-1982,174,6,-54
,-136,351,15,-406,-156,-161,-276,-511,-35,-313,-413,-667,-1054,-244,-61,502,124,-571,254,56,-162,-124,-245,561,260,-155,-238,129,-3,175,94
,-958,-30,-77,-518,-555,163,-427,-352,-287,42,-586,-56,-919,531,71,221,-188,-123,-362,-402,317,-297,-19,-2205,-490,-82,26,406,349,-128,41
,-438,-1324,35,-871,-402,159,-696,1,-417,-36,347,-377,862,433,-212,244,-467,-389,-186,-395,-398,89,163,619,284,-309,41,284,177,73,170
,122,-159,-65,-778,335,-310,-421,182,-63,-265,421,-135,602,508,-20,-1185,-232,-23,-82,-160,296,-94,62,-193,222,-176,64,-1246,-374,-402,55
,-306,299,-256,-635,-419,-23,-446,-260,36,-934,-203,-638,-431,-357,-165,-469,-313,92,-205,275,96,-331,-82,535,352,223,-61,68,-130,-55,90
,-422,322,-260,-56,-10,-293,-104,-450,-177,-118,26,-629,14,359,-179,-390,193,-428,393,248,11,193,51,84,66,-279,-212,634,-366,-23,-1172
,-575,35,52,-221,-36,-156,-513,-212,-130,-858,-62,-193,1998,-21,64,358,-142,-30,-67,45,20,-17,-165,161,-98,-189,-7,88,61,35,21
,69,-892,6,211,-1190,-54,213,437,-570,156,413,-85,51,-207,-30,341,375,-484,-331,370,-88,-115,-449,-147,-340,5,152,-243,-234,-89,-20
,134,-148,86,473,432,-323,351,182,-129,396,337,33,-1787,-414,-66,-56,37,-75,-40,33,-92,26,25,-80,-194,-90,10,-32,-241,-154,-227
,-19,-55,10,313,28,-37,441,248,83,515,-182,-116,-1016,-10,12,649,373,-35,-217,-176,-36,-268,-69,-63,-189,-467,10,-1102,201,-599,61
,-109,-1,-56,-491,-3,30,-520,-163,-4,-31,-20,12,3416,-315,-8,-155,11,-29,-26,-173,-5,-13,-17,-742,19,4,-10,-218,-56,-22,-6
,-163,143,-228,141,-31,29,319,-239,12,481,139,-258,-1065,-727,-49,775,-182,-30,-111,-251,-22,146,6,238,172,24,-156,-36,32,-5,-311
,-557,-515,-154,-967,-217,-136,-297,58,107,224,-448,96,419,680,208,280,412,31,-154,-1176,-458,-134,-45,-183,-278,-50,-36,113,-254,-54,-318
,110,-31,-2,-104,-58,-68,-61,-127,19,-13,28,-85,-72,-92,-22,-30,-4,-121,-65,129,-77,-94,40,-35,-43,-107,-122,45,113,20,-96
,-25,212,-54,-362,128,-378,-155,-80,-178,-546,-408,112,-785,-325,-81,-56,-42,260,146,-67,-219,-22,-40,576,356,-381,-179,737,-321,-176,-264
,116,-625,291,-17,-923,-516,7,-508,-97,7,-429,-672,-35,43,196,-131,-236,-1082,188,-164,-135,-75,-417,-249,32,62,-377,361,-230,-234,103
,-186,21,-144,-101,83,33,98,23,-21,-43,29,-85,-218,-65,-134,-60,-91,13,-9,-155,-21,-70,-37,-9,-86,-49,-31,-205,21,-179,-16
,-256,-16,-37,-355,144,98,-329,-349,-157,-780,-156,71,1690,171,5,168,-181,11,-207,123,178,-150,-48,163,-94,-115,72,431,-72,-193,-107
,-199,-17,115,-65,409,226,299,-328,114,77,-123,-319,51,386,-407,445,-160,-360,-709,69,38,-1033,74,124,224,-657,-570,-240,165,-710,50
,-902,448,-245,-933,143,-221,-143,-226,-144,-613,379,203,-1133,425,-138,517,-251,-55,-65,-696,-33,70,-39,-657,20,110,-51,-1315,-115,-127,-326
,385,-242,263,336,-459,-267,420,107,-22,448,-411,-29,-779,33,-66,421,246,201,-131,-453,-191,-233,-543,-121,264,-477,1,241,-156,56,-433
,71,-45,-109,-71,77,-32,-7,-58,24,55,45,12,-658,-35,-143,32,-205,-117,12,53,16,-59,-114,-89,-97,46,-70,21,-1,19,-21
,17,48,-209,22,-7,34,-28,59,-7,140,89,-61,183,-118,-61,-141,-217,12,-134,-44,-42,12,-161,23,-64,3,-138,49,-34,-158,-61
,-238,126,-701,-127,-349,-582,-226,-117,-298,-70,-5,-351,322,-177,-258,-38,233,163,-263,107,73,-72,-251,116,186,177,-13,681,-578,-464,306
,-430,-104,-86,-258,167,-213,-11,198,-344,112,130,-265,59,-204,-54,191,-150,92,-207,-47,324,143,-585,-55,-362,-270,-387,-834,105,-37,278
,-319,272,-63,-309,612,-278,-308,-238,-174,-180,-46,-6,300,181,-112,119,86,218,-19,-334,36,-258,-130,-550,396,-418,-306,-401,-311,-639,-2
,-1543,-4,-423,903,351,-342,-336,-657,-540,-1153,30,307,-626,217,49,-285,44,11,-221,512,278,-251,17,-855,-961,126,-154,-61,181,-152,87
,58,-408,80,57,394,-135,-24,-1406,-312,6,-1142,-392,-193,202,-641,-600,451,-446,143,-408,111,-274,44,-229,-219,171,-95,-184,-294,-485,-70
,-305,374,12,-1205,-316,-172,-226,138,-261,80,-356,-133,-582,332,-191,137,334,-128,-381,-944,-360,-276,46,-302,111,-267,82,414,558,25,-162
,26,-85,-228,-4,-59,-111,-84,-162,-126,69,64,39,-275,-175,-53,-56,-153,7,-80,-136,-57,-202,-38,-181,-56,-5,-45,9,26,-200,-8
,-250,-100,42,133,-16,-310,-428,241,-13,-342,6,-149,101,-16,-52,432,-455,-24,-136,388,302,34,-517,293,-544,80,29,-316,-33,239,-91
,-875,222,8,-482,-44,13,-527,53,-155,-484,-273,-136,-1387,334,-214,527,67,-437,-391,343,-135,-75,-186,179,115,140,291,-982,-502,1,-225
,-271,147,12,-160,198,24,-9,-59,122,-61,-65,-408,247,-35,-316,359,-195,177,-301,194,-153,-181,-228,262,-16,57,-456,619,-311,-137,20
,81,48,-3,-142,134,-190,-84,-142,-244,-127,2,-48,-5,80,-79,-68,58,-2,36,-207,-73,46,-68,98,-3,-77,-29,-167,-116,-172,1
,-131,-375,-744,-112,696,270,11,-1793,342,-15,-446,-285,-90,-481,-279,-225,8,44,234,115,273,-155,-847,277,-206,-173,-28,-79,-334,-739,-446
,102,-135,-169,-10,54,-41,18,-99,24,-164,-24,-166,-289,-169,-119,-112,-143,-38,17,-215,-106,-75,-49,6,61,-45,51,-25,-40,-35,-5
,-1476,-57,-665,-883,203,244,-425,-134,-236,-687,7,-264,522,-97,166,-10,359,-362,-145,173,-191,-150,-79,226,423,-576,-188,470,-578,58,25
,326,151,-64,426,50,-151,486,97,-84,181,-75,-95,-1421,-115,-71,-674,-297,-117,-59,-182,-47,-136,-124,95,-141,-55,-42,10,-237,-133,-163
,-168,-255,-199,219,-231,13,-316,-10,-215,-242,261,-638,-904,336,-246,262,-203,-85,-225,-62,-391,226,224,117,-121,-330,92,281,-171,223,-86
,-272,81,-142,-567,161,-789,-328,137,190,-444,343,-907,-407,51,-171,-558,359,363,-78,363,-24,-287,-80,273,-428,-122,172,440,-154,-33,-145
,-952,173,-232,-702,-194,-581,-883,340,-108,-881,35,-158,-471,253,-190,-137,-76,-98,302,-124,273,-68,-468,-297,140,-63,-79,393,-87,-235,124
,-140,-411,-519,-158,-574,-374,76,49,39,-441,218,-317,193,452,-387,80,457,-229,133,-168,-7,-4,-12,-145,316,-123,143,149,-303,-259,156
,85,-1,-48,134,111,-202,52,18,-125,-119,173,-114,44,-92,14,38,-247,-97,-142,88,-143,-21,174,51,-4,-248,-211,14,-385,-79,-103
,-85,-624,60,-225,-777,-437,-49,-336,161,-218,-658,167,76,211,-445,-68,188,-28,-642,-147,-176,-436,90,-117,-9,-377,-145,-28,-228,122,-147
,-320,66,99,-198,99,27,-161,-37,-94,-478,-15,-249,2116,10,47,-115,45,-70,15,-37,223,-435,9,88,21,10,-52,389,130,-129,-349
,-81,-11,-39,-262,-38,-135,-16,-116,1,-170,-5,48,356,29,-83,-39,-177,-155,26,111,-98,-66,-161,-35,60,28,10,-25,-64,-6,39
,18,122,-63,-164,-67,-38,-242,150,-152,-11,-194,-207,-1027,57,-161,-1916,-34,101,-77,604,-714,32,-27,181,34,133,-148,271,455,79,-463
,245,-53,-45,-124,-214,-231,59,-2,69,185,-160,-187,-682,81,-321,209,-48,-318,-401,-417,-328,32,-59,177,163,84,43,392,284,-250,178
,-32,-193,-34,-36,61,-29,-187,-104,9,-96,-131,-93,-60,24,-122,6,-66,-218,58,-78,-219,-56,-111,-24,-100,-21,-95,40,107,-21,27
,-44,68,-8,-172,-98,-26,36,-98,3,-292,-26,-155,459,25,-167,-123,86,-43,-83,-134,41,-63,-106,132,-123,9,-109,-46,26,-23,46
,60,-41,7,-25,157,-4,-27,26,71,8,-129,85,185,-9,-224,49,-192,-48,-108,33,-79,30,-50,-128,-261,-117,3,-96,-268,-28,-146
,337,-300,98,21,6,-37,-37,71,64,-549,-292,33,-1687,-1764,-420,357,57,117,-53,-322,-355,-65,-160,334,186,-45,137,985,98,-37,-111
,-206,152,-82,-18,-30,-22,-248,-299,54,-96,-477,-209,-166,37,-178,-130,318,-89,28,-669,-528,226,-77,729,243,-251,-185,-503,-155,-28,-91
,168,9,126,326,96,33,552,297,-444,530,-141,-254,1192,386,-154,-337,264,15,-271,-1008,48,-3,26,-309,-273,2,-67,-159,220,-292,-89
,-174,-218,-503,-85,-833,-196,-2,-932,-222,189,-176,-47,1,221,16,64,294,-20,211,609,158,-386,-323,-159,-566,-140,-28,-212,358,-59,-458
,-55,70,-25,-256,330,-106,32,13,-7,-118,-208,-146,73,716,24,308,-116,-136,-158,401,22,-65,109,419,21,-153,-76,1030,168,44,-112
,-258,-64,-17,-37,-73,35,-94,-132,-150,-74,-225,3,272,143,-203,23,-68,-12,-37,-239,69,-147,9,124,-37,-140,-48,97,67,-108,-103
,221,49,-165,-289,75,55,122,221,159,872,-103,-205,-958,-190,-83,455,-10,-40,-459,-118,-134,-254,-382,-19,264,181,-187,-116,457,117,-265
,1,13,-317,-475,310,-417,-365,-145,78,-1020,-54,238,-1144,501,-173,64,116,109,-65,115,149,165,168,298,-129,-504,-230,-131,-449,-260,13
,-12,-38,-106,-99,-103,-118,-143,-1,-94,-160,-2,-91,537,-142,-25,4,15,-27,-71,-43,-85,-9,-124,-92,37,-14,18,183,32,-26,-22
,269,60,53,-552,-86,65,-982,191,21,-610,2,79,3154,-837,18,-1881,-58,51,34,-1802,-99,62,49,-2095,-138,75,21,-1992,-126,8,60
,114,43,-12,70,-63,52,-71,-11,-148,-100,0,-42,26,-130,-124,77,75,-59,-94,38,118,-109,-128,-5,-21,-37,-82,41,-115,-53,-123
,-79,-761,231,-7,-527,-23,0,-428,-14,140,-28,-46,917,35,168,13,11,-24,-153,50,-87,-216,-146,388,148,-139,-269,918,-390,-570,-30
,-582,229,-215,-292,-261,-174,-387,-211,-135,-748,-788,118,-109,473,153,-893,398,-483,-199,-595,-681,-109,-49,-586,443,112,-339,-704,205,6,-463
,-145,-278,56,-518,66,-392,-732,-66,-65,-466,163,-398,-634,-268,-228,493,-378,215,29,-898,320,-220,66,-435,-53,-248,17,542,273,-163,67
,-538,489,-318,-486,-128,36,-136,-278,-337,7,-230,212,-152,320,-296,258,-909,86,20,732,-632,230,-48,-116,-174,-300,74,540,-67,-480,-82
,-548,26,6,-136,408,-336,-537,257,193,-160,-571,-305,-1265,288,-310,-217,83,162,-264,262,172,-68,-62,89,-174,-42,-217,-83,-230,-88,-207
,-48,-26,-110,20,11,-173,129,-81,-134,-30,-14,71,-7,-107,-134,83,4,20,-73,-26,-160,25,70,70,-3,-208,-106,-13,40,4,-85
,127,-829,-345,62,20,154,-292,567,130,321,-395,112,-1861,-601,-192,181,95,51,49,574,42,-356,-27,268,35,-30,-450,62,220,-29,-213
,87,-76,-144,-168,206,-101,225,132,196,18,282,26,-2128,181,-20,77,391,-58,-369,-311,-198,-82,16,-95,-428,-151,-242,-299,185,-26,-197
,-198,90,-26,52,66,29,-108,-146,30,75,108,25,-350,-97,-199,-259,-135,-191,-143,-135,61,-160,21,-115,89,-121,4,46,-79,-79,-53
,-565,-505,-272,-452,68,143,-590,-430,-396,-382,-93,-159,9,108,-224,-797,-204,-249,-49,659,428,-225,5,-355,-95,62,-486,77,417,168,-175
,-283,-129,53,-303,-110,-107,-435,-76,-69,-117,-147,-252,361,56,-35,107,-38,-28,9,26,50,-141,27,60,-81,63,-31,105,92,-172,-6
,-285,97,-381,-340,128,-242,-139,-29,-19,37,-197,-41,-288,36,-135,-156,30,95,-23,76,-137,-139,11,-438,27,-7,-137,-146,112,-219,-111
,396,-318,-157,-26,-333,123,28,467,-246,-383,267,-336,-1269,457,49,-331,-21,-66,-344,-1198,87,-261,92,-479,12,53,66,-65,-238,-284,-82
,-183,69,53,43,-98,68,86,-103,-306,60,245,-212,-906,168,-64,16,205,-48,1,207,-75,53,-179,-767,122,-137,88,75,-536,-535,42
,-10,122,-29,-63,-174,-155,121,59,-35,-139,-19,-14,-208,-30,27,141,-159,-178,-25,-166,-69,-136,-119,-126,-78,13,52,-193,-112,-63,-1
,-372,63,-474,17,299,103,-148,315,-246,-517,121,-93,-1633,-323,97,-8,-500,-323,251,286,57,-2,-336,125,157,-206,-164,-233,72,126,-246
,141,-161,103,-393,-348,66,-284,67,-248,-260,353,-78,-1611,360,-79,170,-281,-19,-461,360,291,-97,-130,-136,290,-1034,-7,-309,-138,51,-54
,12,-614,237,150,-96,87,333,-183,-34,178,-535,-274,-1085,656,127,-195,75,-54,56,-54,-170,-572,-230,64,-34,-1132,-513,-112,323,-5,-842
,267,30,94,-68,-325,-101,-179,180,1,72,-242,-61,-921,-201,-148,154,361,-234,273,316,-80,-170,-362,-114,-17,-221,-696,235,-78,-250,47
,-283,7,-171,-405,-78,-134,-577,-184,-64,-639,-100,15,2001,53,-29,29,-171,-77,-59,-15,13,-321,61,121,-50,-124,-3,575,-33,-43,22
,-1307,489,-90,-906,-493,-115,-673,-433,59,-401,174,-531,-218,190,-44,436,106,-86,209,484,-404,-769,-1002,-362,111,-340,173,-918,369,51,-445
,76,473,53,310,-86,-266,-17,-110,-506,-322,-68,126,85,337,-57,-368,63,-217,-582,-1111,-42,-10,-379,43,277,-57,-168,528,190,-187,142
,-222,-727,94,-162,-136,114,-131,-789,-164,-269,274,-73,-604,402,-295,-521,-450,-454,-546,656,51,321,101,-340,-442,-568,-389,-436,240,-22,-11
,-102,10,15,69,-25,-203,76,-140,-74,5,-160,-96,-116,13,16,118,-224,44,-81,-15,-86,37,3,-90,46,15,20,68,6,-124,-203
,22,181,-210,-100,-198,35,-56,-46,-227,58,-41,-29,-434,-198,-99,523,-76,-385,-348,-222,-267,176,-111,-561,-24,-257,122,502,-13,-187,392
,-259,-665,-47,-684,-408,-214,-411,663,-22,219,-37,-25,-1776,-84,-211,-273,294,-241,4,390,369,-33,-175,233,-197,126,-263,-149,-230,129,-236
,92,-160,27,-176,91,-113,-53,-15,64,-154,-31,-141,-51,-97,5,39,-60,-44,-39,36,-82,-34,-116,-38,-51,-144,26,7,31,-85,6
,-352,96,25,-1023,-20,27,-1018,352,23,-67,305,204,-982,273,22,184,-263,90,274,-307,-152,-451,-105,-405,-196,-39,-245,402,-463,-341,-314
,-493,405,-290,-760,19,-43,-526,-178,15,-880,-64,-862,127,510,59,155,-384,-59,161,87,68,-109,-220,-194,96,47,-184,8,-163,-275,206
,71,-359,-181,-108,-268,99,-87,326,78,-20,-1258,-190,-164,-234,-251,-681,191,-622,-105,-1767,52,-109,-1801,279,97,-126,76,163,632,0,-141
,55,-210,-325,8,87,106,-141,517,147,244,313,-243,-540,-408,-355,-109,228,98,-31,-848,-82,-259,-116,-241,-32,-307,-259,205,-76,82,35
,-1493,244,-39,-839,-598,40,-984,44,-99,248,363,0,977,675,85,138,-258,-67,-185,-883,250,57,-156,-985,65,16,-134,-503,-1140,82,15
,35,-49,-232,-94,-124,-417,-391,-3,-84,-119,-150,223,271,578,85,-633,-58,16,-13,-9,-83,-335,111,133,239,117,-443,234,-402,115,-434
,56,277,264,317,-156,34,619,148,-236,72,261,124,-757,32,-73,65,-139,-648,15,-673,-51,-99,-459,251,35,-156,36,557,-473,24,-152
,174,281,-73,245,347,163,172,225,108,74,-42,14,820,840,-23,-417,-270,-346,-77,-39,-136,-198,-327,-163,-281,54,-124,-539,-70,1,-187
,-436,-265,-607,-49,194,-231,-512,210,-244,-496,-16,-161,-159,-682,-163,37,-416,26,72,-98,405,20,-29,416,-115,-172,109,-285,359,-196,47
,130,211,-2,287,245,6,653,306,-42,757,136,22,-2662,-42,54,-354,135,-58,19,-829,-48,10,26,-1434,-28,-39,-57,-1298,10,40,99
,445,-251,-431,174,-289,-203,64,-110,-34,151,50,22,-1716,60,13,59,232,-164,-261,-39,174,-354,90,547,-452,-21,-198,-91,345,104,-17
,-679,102,55,-312,-22,-428,-55,-413,-308,-375,114,-159,-610,-7,-113,546,247,-58,261,-37,-91,190,-229,237,-115,236,-313,371,-145,-196,-437
,127,83,-88,-361,107,-270,44,-168,50,76,-436,89,125,-1172,-28,485,-350,-284,-58,723,-6,-146,-141,467,144,-194,-197,337,428,59,18
,295,-40,-288,187,-342,129,271,-339,-195,-189,-16,-746,-358,-188,-57,298,95,34,-60,273,-596,-22,118,270,46,-61,-35,-249,64,-516,-14
,-581,-139,-134,-710,137,-640,-1201,-387,-28,-493,-609,-241,113,427,131,-667,-479,36,-292,277,370,-47,-242,405,-184,-21,33,-541,484,85,24
,166,172,-110,286,93,-309,-74,598,-95,-80,38,211,825,246,-63,-569,-84,-373,139,-104,-14,-332,-130,-116,-102,-79,-680,-630,245,-28,27
,-495,138,-116,-1170,476,-203,-3012,-634,-87,-940,-64,152,235,274,2,299,-329,-50,-243,118,550,-79,-107,-319,210,-77,3,-97,-651,69,-118
,-627,-225,-59,-206,-105,-398,10,45,54,-355,254,153,-786,335,17,119,189,-127,-75,556,-439,-387,160,211,3,-290,-147,-468,142,-538,17
,586,39,-208,376,560,-137,-136,-398,-18,622,-453,-20,-449,-144,-205,-28,123,-163,-25,209,-10,-494,-14,-384,-86,10,16,-471,263,293,-564
,-304,265,-580,-415,189,-1013,-525,353,232,-186,401,-27,-304,-65,-7,-40,299,-136,106,220,27,-305,-195,52,-70,121,-494,-295,-203,-912,35
,-79,103,3,40,-75,77,24,13,-85,-61,73,-4,20,-170,-85,7,-71,-8,-68,-137,-90,18,-107,-162,40,-43,-129,11,-98,-83,-8
,-38,-77,-424,-83,151,-368,-441,-270,48,-18,-55,244,724,126,-33,141,-493,272,4,300,-59,-86,-30,231,-419,-473,-46,284,302,-266,-141
,65,-320,116,158,456,96,149,-145,-80,-264,-312,-20,-1952,-1613,-419,162,-224,-102,-233,455,228,-124,-6,303,-121,-182,-188,424,-142,307,37
,-128,125,-101,-77,36,24,-142,90,-15,-146,96,19,-2113,-222,-14,76,-134,5,25,143,15,-77,-32,361,-149,-41,-14,383,-27,-40,-46
,20,44,-65,-1,112,47,41,124,-81,-25,-152,-84,564,134,-206,2,-118,-68,-54,-97,27,-107,-67,-26,-269,-174,-61,38,48,-202,-187
,-571,18,-160,-239,-192,44,-7,265,-175,-212,3,-280,-598,331,-405,149,193,-339,254,-96,-208,184,-187,190,-266,-126,-812,116,296,-203,123
,-204,-7,-101,-113,89,-602,-246,-96,108,-298,78,-471,-498,208,9,328,-323,135,-371,-324,231,-502,69,231,68,91,-3,371,-350,165,-44
,-462,-73,-159,-315,-1632,-307,-204,-1072,-6,-420,-666,-107,-69,299,-497,-44,60,455,-50,-792,-74,-88,-416,851,163,33,-360,-341,381,-672,-158
,62,-106,117,7,-60,-156,168,-147,-89,-117,85,-75,-14,-151,-77,-152,-14,23,-96,44,-3,14,43,195,-148,-123,-214,-135,-64,-55,-46
,-629,107,-174,-739,-19,-141,-756,-157,-127,-468,301,-227,-551,-353,164,400,100,168,-759,863,-119,-299,284,-941,244,-274,62,-863,-33,-375,-359
,-471,-175,-780,-478,-396,-138,-250,210,236,-717,-66,-101,-31,346,-116,-56,13,-140,21,224,-223,-770,210,27,-1348,-94,43,506,306,-240,156
,-609,-394,-118,-729,-621,177,-415,288,-581,-200,480,95,-457,421,58,6,-551,116,-279,498,-611,-482,-149,112,-564,232,-141,196,-92,-138,101
,-8,45,-83,-67,-128,-158,-68,21,103,-79,-126,-157,-148,52,-134,27,-80,-161,-108,19,-127,-140,68,-68,13,12,-14,75,-89,-110,-8
,-748,182,-47,-1266,-421,-552,-1107,-1082,125,-268,128,-210,-251,353,-97,400,337,158,-502,345,283,-767,135,145,-519,-101,-201,-952,271,51,-240
,481,-204,-314,-31,116,-683,-126,-112,-31,140,34,75,-330,-601,159,318,353,130,-448,-340,135,-378,-270,323,112,126,-154,151,-141,68,23
,-617,307,126,-439,-78,51,-618,139,-99,-826,-260,-46,-1737,43,-8,610,8,-122,-113,267,207,-594,-280,-427,192,4,170,122,-608,-455,-26
,87,36,-157,-7,-124,-71,1,48,39,210,-113,-5,-637,-68,1,-233,10,20,-26,-199,-81,-134,4,-147,50,-146,-58,-34,-64,-26,-45
,-253,-557,29,-369,320,-390,-485,-251,19,-433,-68,-249,-521,579,46,-443,-503,97,-73,-56,-424,79,-92,785,10,-179,42,442,-301,113,-81
,-1572,-366,-389,-1445,-191,14,-720,258,-138,-83,261,-419,1274,448,-155,-670,177,40,-331,-678,-175,123,-81,-372,522,77,-106,-162,-197,-2,-188
,-663,324,69,-72,-30,-265,-559,91,131,-674,-69,-468,-1641,387,-131,349,-309,150,-148,-2,-129,-22,-76,-551,51,-649,169,189,-60,-18,-285
,-237,-765,-797,-112,-41,3,89,-29,-79,-61,-540,-266,538,476,-179,368,-5,-16,135,55,138,-246,67,-192,69,-176,-1,402,524,-104,71
,-708,134,-26,-815,208,-201,-615,130,-115,-334,-655,150,-895,494,80,-908,-683,-45,-104,-8,-239,-249,-240,459,-190,98,-123,638,96,-51,65
,-453,-239,154,-2,-845,-319,161,-265,-735,191,-333,-160,166,-195,218,931,-423,-376,8,-207,-231,-98,-44,-1066,-71,-7,157,452,352,-63,-208
,11,-195,-122,14,-151,-9,30,15,53,-52,-150,39,-146,8,-192,24,-4,-163,-46,-73,76,10,-123,71,24,-78,-181,-107,-144,-36,-28
,445,109,-31,706,187,-128,619,44,-200,580,103,-3,-851,207,-116,-653,-49,-149,-527,-531,102,-76,-381,-412,-246,-68,-30,-1091,-98,-72,187
,229,-596,-72,159,6,-258,127,321,125,-468,-120,168,1860,-616,-198,-62,-72,-383,-209,9,112,-95,-278,12,-109,37,40,573,-73,22,-104
,237,-89,169,-506,178,-191,-784,-15,-236,-394,-465,160,-1069,-362,-201,357,-56,-222,21,81,-92,-25,-12,429,444,-612,-356,1,-331,-151,228
,392,139,-102,288,-1281,-47,-84,69,-114,-334,386,145,276,310,-704,-229,-215,-607,317,48,-250,-265,-763,76,-84,112,-266,288,-349,-802,184
,-291,-659,-221,-359,363,-287,-182,-569,-312,-371,-400,-117,-49,-88,194,403,81,-2,-249,724,-578,84,-65,331,-373,38,-72,208,428,109,9
,305,20,-131,4,136,63,134,47,104,394,111,-449,-1617,142,20,-508,51,-131,-470,-1236,40,-68,-460,547,-293,-233,-31,-464,197,207,-45
,97,26,64,418,-324,22,338,-142,323,191,-202,-320,-429,-80,-176,-93,-207,-224,-91,-5,116,-108,101,-314,-94,-263,-794,298,429,-67,-226
,334,-264,85,564,-227,48,250,-73,6,1092,-290,-17,-1978,-115,29,-762,-60,8,-21,-758,44,92,10,-946,60,71,65,-2258,-30,-5,20
,-1488,-328,72,-1194,10,-35,-838,-182,22,-502,-290,-140,-1546,403,-154,777,-535,146,-63,567,-306,-130,-36,228,-79,-222,-192,-41,555,6,-116
,-4,-55,-66,13,-20,-178,100,-58,54,40,-81,-142,-14,-20,1,-18,39,-146,-1,-48,-182,-138,-114,75,-97,82,33,55,-127,-120,-127
,-55,38,-103,33,24,-66,-105,31,118,95,-63,-54,-294,-167,-100,105,-86,-125,48,-3,-20,18,-63,-45,-35,-18,-111,101,-67,-103,-170
,16,172,36,-32,17,-66,-167,159,-184,54,-279,3,80,-262,70,-965,-349,34,-86,377,-425,10,262,840,102,-448,-159,-464,-88,-158,-142
,12,-226,-165,-85,305,-419,-381,200,-429,-827,-583,423,-519,25,-204,-81,286,-57,-138,65,-257,-141,-272,749,350,251,-416,340,-207,-297,-228
,126,30,-137,127,-133,-177,70,-114,-162,-47,135,-116,-15,-85,-6,-114,4,-28,55,64,122,-153,6,64,-95,40,-56,-69,-162,-73,-72
,-54,-66,148,-587,-94,8,-683,-72,16,-199,-110,-20,2467,270,-39,70,127,6,-10,56,62,129,33,-11,150,64,34,437,82,40,58
,-254,-215,28,-112,204,-309,-284,17,-106,578,-404,154,-268,-231,27,869,-49,-252,-630,166,79,22,-24,-852,368,-158,-3,-58,-282,38,-229
,-98,-135,-448,-608,-498,61,-576,-1,-57,-965,101,-41,-907,473,-195,836,-182,-111,-5,357,66,13,91,-209,-232,108,-379,-1324,-162,172,-161
,-129,-114,-24,-42,-128,-199,-134,-62,-15,-166,-24,-20,289,-24,-154,-4,59,63,13,-86,-197,-46,-14,-124,-163,-120,-118,15,84,36,-135
,37,-149,-78,18,-25,5,16,-139,-127,107,-138,-19,-31,-146,28,113,-4,-41,-41,72,-22,59,-60,-79,88,-33,-56,-75,31,-169,-79
,74,-127,-55,38,-105,-132,-84,-35,-11,29,-142,-126,-130,-23,-104,-57,-136,73,-139,-23,-22,-125,-42,-57,67,-99,-72,-134,-169,-112,-38
,-102,253,76,-29,193,-258,-184,-120,-298,-55,223,-26,-17,-111,-215,-250,78,-150,-146,81,108,-180,-88,-174,-53,-361,-181,75,-2,-166,-152
,98,156,-187,52,76,-83,-157,-6,72,-226,-102,-164,-480,-44,-107,-128,-46,-118,26,-247,-86,43,3,-83,-67,-118,-98,-164,-19,-84,-192
,-148,156,-51,266,199,-125,159,125,-462,205,284,-269,78,-54,269,-20,-324,-85,-247,254,28,37,209,86,97,-72,-555,47,-411,-216,-438
,-585,385,-150,-731,448,-1,-166,-453,-94,-803,-453,-189,-754,123,-258,215,101,-37,-140,218,-50,109,131,264,-343,55,-243,-852,42,-168,-108
,-676,-114,-10,-193,-213,5,-180,-237,31,-120,79,-1,-695,-1029,-86,793,20,-3,-7,929,14,-24,3,941,28,6,41,1091,-37,6,13
,200,433,-24,-426,-625,-160,-617,-47,-559,-152,-336,-219,420,635,-235,-163,-15,123,114,510,-111,-307,-55,-22,-121,45,-1032,-582,-220,296,-456
,-121,-267,-93,-234,-112,-54,-225,-31,-55,-136,-166,-16,1251,-54,-116,49,34,-51,-41,-104,-70,-181,-14,208,-37,-22,-112,332,-94,-40,-45
,162,60,-97,284,15,-230,213,-83,-137,563,132,-99,-1468,-121,-114,-21,-55,-64,-52,192,32,-88,-79,-170,-119,-127,-115,-13,-112,-94,-176
,-525,41,-251,-290,-109,-141,-187,49,-486,-470,-199,71,618,112,-111,-14,167,90,-130,-137,-173,39,-15,-255,216,129,-340,597,240,-139,102
,-347,-37,-137,-589,-118,-271,-532,-26,18,-515,-91,10,1343,322,-29,107,-5,-70,-193,97,-29,-382,-143,197,-34,-236,13,311,54,113,-204
,-91,178,-321,-277,-268,-9,-168,-63,-156,-273,-644,-109,-383,9,57,418,-283,-274,-181,507,178,-100,-109,-31,-3,-76,253,-296,-229,24,-102
,-13,46,20,-148,-23,-10,-45,-2,-158,-221,-60,-101,495,-122,49,-28,-45,9,-149,-48,-54,-17,38,-47,-170,-113,-113,191,-36,-6,40
,130,-31,-256,17,-23,-112,96,-38,-92,234,8,28,-704,-47,-114,-67,-1,91,-35,-138,-71,-254,-241,-273,44,20,-72,-109,137,65,-218
};

long bias_0_sdg[1*256] = {
-498,-76,-302,-388,15,163,-179,-277,165,-192,77,-40,17,-34,-290,-391,-90,151,144,-50,-93,-560,-25,-1140,-341,-333,-80,-70,27,94,153,-394,-150,-73,-268,201,-35,-526,-133,-40,-513,-169,-893,187,-18,-281,-764,-154,-236,-17,164,-103,-38,169,-22,-54,114,-40,98,-239,-63,-420,-246,403,-118,-281,-52,805,-481,-268,-253,-90,-118,-266,-163,-98,29,483,120,-69,-28,186,-266,-23,-119,-14,-251,-20,-36,362,-229,-659,-532,-756,-217,-11,-724,83,319,120,-475,426,-491,0,52,-22,-3,-592,86,-69,-10,205,-108,-218,80,-406,-318,170,-558,23,-461,-94,-9,-193,-85,16,-358,340,85,-199,-301,-291,-194,-103,-513,-283,-164,65,-107,-279,-227,-83,-176,-504,-314,-831,-275,98,-305,-278,22,-26,-273,-454,-202,-151,-98,40,-105,182,56,-466,-224,-73,-37,-41,-2,17,-283,-109,-52,-606,-400,27,52,-94,116,-85,-75,-205,-430,-203,216,-340,-369,-187,-167,-19,659,47,-8,-383,-205,-448,-434,-292,-57,51,-53,-18,-361,-163,1434,-201,-34,-17,12,-22,-336,-367,-80,-9,-253,-209,-340,151,168,-385,154,-146,258,-100,-78,281,-302,-54,-165,-516,391,57,889,-389,-47,46,171,41,-132,-589,-171,15,-149,-36,-60,-133,115,-182,-285,-25,-187,-287,368,-361,-694,-50,-234,24
};

long bias_1_sdg[1*2] = {
532500,-253280
};

#endif
